{"learner":{"attributes":{"scikit_learn":"{\"_estimator_type\": \"classifier\"}"},"feature_names":[],"feature_types":[],"gradient_booster":{"model":{"gbtree_model_param":{"num_parallel_tree":"1","num_trees":"400"},"iteration_indptr":[0,1,2,3,4,5,6,7,8,9,10,11,12,13,14,15,16,17,18,19,20,21,22,23,24,25,26,27,28,29,30,31,32,33,34,35,36,37,38,39,40,41,42,43,44,45,46,47,48,49,50,51,52,53,54,55,56,57,58,59,60,61,62,63,64,65,66,67,68,69,70,71,72,73,74,75,76,77,78,79,80,81,82,83,84,85,86,87,88,89,90,91,92,93,94,95,96,97,98,99,100,101,102,103,104,105,106,107,108,109,110,111,112,113,114,115,116,117,118,119,120,121,122,123,124,125,126,127,128,129,130,131,132,133,134,135,136,137,138,139,140,141,142,143,144,145,146,147,148,149,150,151,152,153,154,155,156,157,158,159,160,161,162,163,164,165,166,167,168,169,170,171,172,173,174,175,176,177,178,179,180,181,182,183,184,185,186,187,188,189,190,191,192,193,194,195,196,197,198,199,200,201,202,203,204,205,206,207,208,209,210,211,212,213,214,215,216,217,218,219,220,221,222,223,224,225,226,227,228,229,230,231,232,233,234,235,236,237,238,239,240,241,242,243,244,245,246,247,248,249,250,251,252,253,254,255,256,257,258,259,260,261,262,263,264,265,266,267,268,269,270,271,272,273,274,275,276,277,278,279,280,281,282,283,284,285,286,287,288,289,290,291,292,293,294,295,296,297,298,299,300,301,302,303,304,305,306,307,308,309,310,311,312,313,314,315,316,317,318,319,320,321,322,323,324,325,326,327,328,329,330,331,332,333,334,335,336,337,338,339,340,341,342,343,344,345,346,347,348,349,350,351,352,353,354,355,356,357,358,359,360,361,362,363,364,365,366,367,368,369,370,371,372,373,374,375,376,377,378,379,380,381,382,383,384,385,386,387,388,389,390,391,392,393,394,395,396,397,398,399,400],"tree_info":[0,0,0,0,0,0,0,0,0,0,0,0,0,0,0,0,0,0,0,0,0,0,0,0,0,0,0,0,0,0,0,0,0,0,0,0,0,0,0,0,0,0,0,0,0,0,0,0,0,0,0,0,0,0,0,0,0,0,0,0,0,0,0,0,0,0,0,0,0,0,0,0,0,0,0,0,0,0,0,0,0,0,0,0,0,0,0,0,0,0,0,0,0,0,0,0,0,0,0,0,0,0,0,0,0,0,0,0,0,0,0,0,0,0,0,0,0,0,0,0,0,0,0,0,0,0,0,0,0,0,0,0,0,0,0,0,0,0,0,0,0,0,0,0,0,0,0,0,0,0,0,0,0,0,0,0,0,0,0,0,0,0,0,0,0,0,0,0,0,0,0,0,0,0,0,0,0,0,0,0,0,0,0,0,0,0,0,0,0,0,0,0,0,0,0,0,0,0,0,0,0,0,0,0,0,0,0,0,0,0,0,0,0,0,0,0,0,0,0,0,0,0,0,0,0,0,0,0,0,0,0,0,0,0,0,0,0,0,0,0,0,0,0,0,0,0,0,0,0,0,0,0,0,0,0,0,0,0,0,0,0,0,0,0,0,0,0,0,0,0,0,0,0,0,0,0,0,0,0,0,0,0,0,0,0,0,0,0,0,0,0,0,0,0,0,0,0,0,0,0,0,0,0,0,0,0,0,0,0,0,0,0,0,0,0,0,0,0,0,0,0,0,0,0,0,0,0,0,0,0,0,0,0,0,0,0,0,0,0,0,0,0,0,0,0,0,0,0,0,0,0,0,0,0,0,0,0,0,0,0,0,0,0,0,0,0,0,0,0,0,0,0,0,0,0,0,0,0,0,0,0,0,0,0,0,0,0,0,0,0,0,0,0,0,0,0,0,0,0,0],"trees":[{"base_weights":[4.95556E-3,-1.352672E-1,2.5009164E-1,-2.8297275E-1,2.6229365E-2,1.819318E-1,3.9033737E-2,-3.339345E-2,-2.0746462E-1,-2.0087736E-2,6.9777206E-2,2.2659639E-1,-1.862652E-2,-1.765802E-2,-4.324043E-3,-0E0,1.8553656E-2,-1.1737553E-2,1.1419217E-2],"categories":[],"categories_nodes":[],"categories_segments":[],"categories_sizes":[],"default_left":[0,0,0,0,0,0,0,0,0,0,0,0,0,0,0,0,0,0,0],"id":0,"left_children":[1,3,5,7,9,11,-1,-1,13,-1,15,17,-1,-1,-1,-1,-1,-1,-1],"loss_changes":[3.4032387E1,1.5049784E1,1.7445402E1,1.3352623E1,6.951924E0,9.720532E0,0E0,0E0,6.6556053E0,0E0,7.6631737E0,9.654045E0,0E0,0E0,0E0,0E0,0E0,0E0,0E0],"parents":[2147483647,0,0,1,1,2,2,3,3,4,4,5,5,8,8,10,10,11,11],"right_children":[2,4,6,8,10,12,-1,-1,14,-1,16,18,-1,-1,-1,-1,-1,-1,-1],"split_conditions":[5.0625E0,2.611031E-1,2.3906697E-1,1.5E0,2.829411E-1,9.724138E1,3.9033737E-2,-3.339345E-2,7.690042E-2,-2.0087736E-2,1.07E2,2.9678765E-1,-1.862652E-2,-1.765802E-2,-4.324043E-3,-0E0,1.8553656E-2,-1.1737553E-2,1.1419217E-2],"split_indices":[11,46,48,11,22,41,0,0,31,0,18,22,0,0,0,0,0,0,0],"split_type":[0,0,0,0,0,0,0,0,0,0,0,0,0,0,0,0,0,0,0],"sum_hessian":[9.8676135E2,6.27871E2,3.5889044E2,3.2767172E2,3.0019925E2,3.2991946E2,2.8970974E1,3.7462467E1,2.9020926E2,2.1478481E1,2.7872076E2,3.0968973E2,2.0229733E1,8.466518E1,2.0554407E2,2.3826129E2,4.0459465E1,3.0719223E1,2.789705E2],"tree_param":{"num_deleted":"0","num_feature":"49","num_nodes":"19","size_leaf_vector":"1"}},{"base_weights":[1.4369994E-2,-3.304405E-1,1.2374097E-1,-4.7752297E-1,7.038571E-2,-3.262274E-2,2.755329E-1,-6.429097E-1,1.760868E-2,-1.0333828E-2,1.8564451E-2,-3.4349406E-1,6.657499E-2,1.5009889E-1,5.0477785E-1,-4.5972016E-2,-1.9502213E-2,1.3213381E-2,-1.0408253E-2,2.5551282E-3,-2.0278372E-2,2.1702817E-2,2.9589597E-4,1.4867039E-3,2.164015E-2,-2.7934173E-3,2.6616458E-2],"categories":[],"categories_nodes":[],"categories_segments":[],"categories_sizes":[],"default_left":[0,0,0,0,0,0,0,0,0,0,0,0,0,0,0,0,0,0,0,0,0,0,0,0,0,0,0],"id":1,"left_children":[1,3,5,7,9,11,13,15,17,-1,-1,19,21,23,25,-1,-1,-1,-1,-1,-1,-1,-1,-1,-1,-1,-1],"loss_changes":[3.7242664E1,1.4106932E1,1.7844307E1,1.4352211E1,8.606171E0,1.1489429E1,1.0781265E1,9.289345E0,4.0412154E0,0E0,0E0,6.0947037E0,7.88067E0,1.0894511E1,1.2487026E1,0E0,0E0,0E0,0E0,0E0,0E0,0E0,0E0,0E0,0E0,0E0,0E0],"parents":[2147483647,0,0,1,1,2,2,3,3,4,4,5,5,6,6,7,7,8,8,11,11,12,12,13,13,14,14],"right_children":[2,4,6,8,10,12,14,16,18,-1,-1,20,22,24,26,-1,-1,-1,-1,-1,-1,-1,-1,-1,-1,-1,-1],"split_conditions":[2.903226E0,1.8947369E0,2.627189E-1,1.05E2,1.583489E-1,2.375644E-1,6.1578946E0,1.4570868E-1,1.1E-1,-1.0333828E-2,1.8564451E-2,1E2,1.9827586E-1,1.1734694E-1,7.6E-1,-4.5972016E-2,-1.9502213E-2,1.3213381E-2,-1.0408253E-2,2.5551282E-3,-2.0278372E-2,2.1702817E-2,2.9589597E-4,1.4867039E-3,2.164015E-2,-2.7934173E-3,2.6616458E-2],"split_indices":[0,14,46,18,47,45,0,48,19,0,0,7,1,4,42,0,0,0,0,0,0,0,0,0,0,0,0],"split_type":[0,0,0,0,0,0,0,0,0,0,0,0,0,0,0,0,0,0,0,0,0,0,0,0,0,0,0],"sum_hessian":[9.8496967E2,2.3623926E2,7.487304E2,1.7279492E2,6.3444332E1,3.690667E2,3.796637E2,1.2934473E2,4.3450195E1,3.4718643E1,2.8725689E1,8.862931E1,2.804374E2,2.4727995E2,1.3238374E2,2.7961433E1,1.0138329E2,2.0476715E1,2.297348E1,2.546643E1,6.316288E1,2.9468079E1,2.5096933E2,1.9332683E2,5.3953125E1,2.8971876E1,1.0341187E2],"tree_param":{"num_deleted":"0","num_feature":"49","num_nodes":"27","size_leaf_vector":"1"}},{"base_weights":[-1.926195E-2,-1.12014286E-1,3.6722174E-1,-6.3480645E-1,-6.0518444E-2,-1.0883816E-1,5.326911E-1,-4.0217783E-2,-5.256754E-3,-1.4714915E-1,1.5013231E-1,-1.621136E-2,9.441627E-3,1.3452806E-3,6.677299E-1,-1.1456668E-2,4.0792092E-4,-8.1512965E-3,1.0764263E-2,2.1304414E-2,4.4417042E-2],"categories":[],"categories_nodes":[],"categories_segments":[],"categories_sizes":[],"default_left":[0,0,0,0,0,0,0,0,0,0,0,0,0,0,0,0,0,0,0,0,0],"id":2,"left_children":[1,3,5,7,9,11,13,-1,-1,15,17,-1,-1,-1,19,-1,-1,-1,-1,-1,-1],"loss_changes":[3.5637344E1,2.1471504E1,1.5281818E1,1.3048243E1,1.3394116E1,5.344265E0,9.543495E0,0E0,0E0,1.1424842E1,9.08987E0,0E0,0E0,0E0,5.673683E0,0E0,0E0,0E0,0E0,0E0,0E0],"parents":[2147483647,0,0,1,1,2,2,3,3,4,4,5,5,6,6,9,9,10,10,14,14],"right_children":[2,4,6,8,10,12,14,-1,-1,16,18,-1,-1,-1,20,-1,-1,-1,-1,-1,-1],"split_conditions":[6.75E0,1.35E0,2.307069E-1,4.714286E0,1.47E0,1.14E0,1.5331171E-1,-4.0217783E-2,-5.256754E-3,4.65E-3,1.4001745E-1,-1.621136E-2,9.441627E-3,1.3452806E-3,1.25E-1,-1.1456668E-2,4.0792092E-4,-8.1512965E-3,1.0764263E-2,2.1304414E-2,4.4417042E-2],"split_indices":[11,11,46,0,42,42,29,0,0,38,29,0,0,0,4,0,0,0,0,0,0],"split_type":[0,0,0,0,0,0,0,0,0,0,0,0,0,0,0,0,0,0,0,0,0],"sum_hessian":[9.916347E2,8.007794E2,1.9085529E2,7.0107414E1,7.30672E2,4.920376E1,1.4165154E2,3.940172E1,3.0705694E1,5.184039E2,2.1226813E2,2.6474464E1,2.2729294E1,3.0723104E1,1.1092843E2,2.7468555E2,2.4371832E2,5.2924114E1,1.5934401E2,8.769327E1,2.3235157E1],"tree_param":{"num_deleted":"0","num_feature":"49","num_nodes":"21","size_leaf_vector":"1"}},{"base_weights":[9.927013E-3,-1.0329847E-1,2.5879785E-1,-4.4747415E-1,-1.6675247E-2,7.079568E-2,4.363564E-1,-5.743429E-1,8.428145E-3,-1.6914244E-1,2.0005059E-1,-5.0746635E-2,2.731469E-2,6.73225E-1,2.3668644E-1,-1.6552072E-2,-3.7977204E-2,-2.1738496E-2,-1.5568719E-3,5.1994585E-3,3.4001037E-2,-2.350091E-2,2.2221995E-3,6.3905213E-3,3.5648074E-2,3.1151604E-2,1.7565278E-3],"categories":[],"categories_nodes":[],"categories_segments":[],"categories_sizes":[],"default_left":[0,0,0,0,0,0,0,0,0,0,0,0,0,0,0,0,0,0,0,0,0,0,0,0,0,0,0],"id":3,"left_children":[1,3,5,7,9,11,13,15,-1,17,19,21,-1,23,25,-1,-1,-1,-1,-1,-1,-1,-1,-1,-1,-1,-1],"loss_changes":[2.8156778E1,2.0400902E1,1.0335957E1,1.1715376E1,1.8222397E1,1.1561939E1,7.2453327E0,6.25766E0,0E0,1.5701263E1,1.0099407E1,7.4992595E0,0E0,7.764225E0,9.214413E0,0E0,0E0,0E0,0E0,0E0,0E0,0E0,0E0,0E0,0E0,0E0,0E0],"parents":[2147483647,0,0,1,1,2,2,3,3,4,4,5,5,6,6,7,7,9,9,10,10,11,11,13,13,14,14],"right_children":[2,4,6,8,10,12,14,16,-1,18,20,22,-1,24,26,-1,-1,-1,-1,-1,-1,-1,-1,-1,-1,-1,-1],"split_conditions":[5.275862E0,2.7692308E0,3.3783624E-1,1.7419355E0,2.693849E-1,2.0529878E-1,9.9E1,1.0891089E-1,8.428145E-3,2.612903E0,1.5157895E-1,3.0367965E-1,2.731469E-2,8.6E-1,9.066667E-2,-1.6552072E-2,-3.7977204E-2,-2.1738496E-2,-1.5568719E-3,5.1994585E-3,3.4001037E-2,-2.350091E-2,2.2221995E-3,6.3905213E-3,3.5648074E-2,3.1151604E-2,1.7565278E-3],"split_indices":[11,0,27,14,46,24,6,13,0,11,15,22,0,42,15,0,0,0,0,0,0,0,0,0,0,0,0],"split_type":[0,0,0,0,0,0,0,0,0,0,0,0,0,0,0,0,0,0,0,0,0,0,0,0,0,0,0],"sum_hessian":[9.957535E2,6.8471387E2,3.1103967E2,1.361908E2,5.485231E2,1.5236945E2,1.5867021E2,1.1446902E2,2.1721779E1,3.2246136E2,2.2606168E2,1.2813689E2,2.4232569E1,7.071848E1,8.795173E1,8.255575E1,3.191327E1,8.179969E1,2.4066168E2,2.0582823E2,2.0233433E1,2.021424E1,1.07922646E2,2.198626E1,4.8732227E1,2.1739305E1,6.6212425E1],"tree_param":{"num_deleted":"0","num_feature":"49","num_nodes":"27","size_leaf_vector":"1"}},{"base_weights":[-2.6689667E-2,-3.2724452E-1,6.4407334E-2,-7.420573E-1,-1.9474572E-1,-6.9412194E-2,1.8552242E-1,-4.0582877E-2,-1.5065046E-2,-3.0183655E-1,8.095323E-3,-3.8718086E-1,3.5126884E-2,1.5026256E-1,3.1445168E-2,-4.581891E-3,-1.9685423E-2,-2.1550454E-2,4.3797255E-3,7.1293847E-3,-4.8822016E-3,1.8289734E-3,1.4352468E-2],"categories":[],"categories_nodes":[],"categories_segments":[],"categories_sizes":[],"default_left":[0,0,0,0,0,0,0,0,0,0,0,0,0,0,0,0,0,0,0,0,0,0,0],"id":4,"left_children":[1,3,5,7,9,11,13,-1,-1,15,-1,17,19,21,-1,-1,-1,-1,-1,-1,-1,-1,-1],"loss_changes":[2.7240389E1,1.2409122E1,1.2395277E1,4.795679E0,7.6553364E0,1.2118454E1,8.2265005E0,0E0,0E0,4.8691664E0,0E0,6.926076E0,6.2100744E0,8.241446E0,0E0,0E0,0E0,0E0,0E0,0E0,0E0,0E0,0E0],"parents":[2147483647,0,0,1,1,2,2,3,3,4,4,5,5,6,6,9,9,11,11,12,12,13,13],"right_children":[2,4,6,8,10,12,14,-1,-1,16,-1,18,20,22,-1,-1,-1,-1,-1,-1,-1,-1,-1],"split_conditions":[2.903226E0,1.4570868E-1,2.6123202E-1,3.3732027E-1,9.242075E-2,2.3593043E-1,1.764706E-1,-4.0582877E-2,-1.5065046E-2,1.1011236E-1,8.095323E-3,2.816893E-1,2.7272728E-1,1.9930448E-1,3.1445168E-2,-4.581891E-3,-1.9685423E-2,-2.1550454E-2,4.3797255E-3,7.1293847E-3,-4.8822016E-3,1.8289734E-3,1.4352468E-2],"split_indices":[0,48,46,22,26,45,2,0,0,15,0,25,1,48,0,0,0,0,0,0,0,0,0],"split_type":[0,0,0,0,0,0,0,0,0,0,0,0,0,0,0,0,0,0,0,0,0,0,0],"sum_hessian":[9.912992E2,2.29924E2,7.613752E2,5.380905E1,1.7611494E2,3.6162833E2,3.9974686E2,2.9140085E1,2.4668968E1,1.3919182E2,3.6923115E1,8.875123E1,2.728771E2,3.795088E2,2.0238073E1,7.1626526E1,6.75653E1,6.805551E1,2.0695711E1,1.430611E2,1.2981601E2,2.5433041E2,1.2517837E2],"tree_param":{"num_deleted":"0","num_feature":"49","num_nodes":"23","size_leaf_vector":"1"}},{"base_weights":[2.5682906E-2,-4.8814632E-2,3.2836393E-1,-2.1174109E-1,7.529934E-2,4.2017616E-2,6.007916E-1,-3.4960773E-2,-1.4603518E-1,2.5999691E-2,5.12603E-1,-1.22685514E-1,1.6055318E-2,3.6525786E-2,3.8311794E-1,-9.804547E-3,4.850031E-3,-1.8142025E-3,1.2751677E-2,3.0833086E-2,8.809736E-3,7.1066897E-3,-1.4218275E-2,7.1518007E-3,2.9513653E-2],"categories":[],"categories_nodes":[],"categories_segments":[],"categories_sizes":[],"default_left":[0,0,0,0,0,0,0,0,0,0,0,0,0,0,0,0,0,0,0,0,0,0,0,0,0],"id":5,"left_children":[1,3,5,7,9,11,13,-1,15,17,19,21,-1,-1,23,-1,-1,-1,-1,-1,-1,-1,-1,-1,-1],"loss_changes":[2.2446167E1,1.6174644E1,1.5235586E1,1.4754166E1,9.707851E0,5.8815536E0,6.176323E0,0E0,8.439299E0,8.605133E0,3.0950031E0,4.8609934E0,0E0,0E0,4.2025375E0,0E0,0E0,0E0,0E0,0E0,0E0,0E0,0E0,0E0,0E0],"parents":[2147483647,0,0,1,1,2,2,3,3,4,4,5,5,6,6,8,8,9,9,10,10,11,11,14,14],"right_children":[2,4,6,8,10,12,14,-1,16,18,20,22,-1,-1,24,-1,-1,-1,-1,-1,-1,-1,-1,-1,-1],"split_conditions":[6.6666665E0,3.891892E0,3.3956972E-1,1.35E0,2.9516986E-1,3.3417508E-1,9.8E1,-3.4960773E-2,1.52E0,3.774049E-1,2.2330096E-1,1.6E-3,1.6055318E-2,3.6525786E-2,6.5648854E-1,-9.804547E-3,4.850031E-3,-1.8142025E-3,1.2751677E-2,3.0833086E-2,8.809736E-3,7.1066897E-3,-1.4218275E-2,7.1518007E-3,2.9513653E-2],"split_indices":[11,0,27,11,30,23,6,0,42,27,1,38,0,0,5,0,0,0,0,0,0,0,0,0,0],"split_type":[0,0,0,0,0,0,0,0,0,0,0,0,0,0,0,0,0,0,0,0,0,0,0,0,0],"sum_hessian":[9.9163403E2,7.9651825E2,1.951158E2,3.4429852E2,4.522197E2,9.615088E1,9.896493E1,2.9272585E1,3.1502594E2,4.0803726E2,4.4182426E1,6.6419395E1,2.973148E1,3.848645E1,6.0478474E1,2.30195E2,8.4830925E1,3.2882684E2,7.921045E1,2.1975683E1,2.2206745E1,2.8967346E1,3.7452053E1,3.9984898E1,2.0493578E1],"tree_param":{"num_deleted":"0","num_feature":"49","num_nodes":"25","size_leaf_vector":"1"}},{"base_weights":[-5.728284E-3,-1.2416833E-1,1.9654144E-1,-4.1983163E-1,-3.283132E-2,1.3329084E-1,3.7027493E-2,-5.170889E-1,2.3870766E-3,-1.9117922E-1,1.1328888E-1,-1.43175395E-2,1.926444E-1,-2.6423542E-2,-6.1852783E-3,-2.3548106E-2,-3.2878204E-3,-3.1992388E-3,1.2147257E-2,1.6682625E-2,2.4056055E-3],"categories":[],"categories_nodes":[],"categories_segments":[],"categories_sizes":[],"default_left":[0,0,0,0,0,0,0,0,0,0,0,0,0,0,0,0,0,0,0,0,0],"id":6,"left_children":[1,3,5,7,9,11,-1,13,-1,15,17,-1,19,-1,-1,-1,-1,-1,-1,-1,-1],"loss_changes":[2.3666653E1,1.6772015E1,1.6526236E1,6.9368E0,1.110574E1,9.924805E0,0E0,6.1290092E0,0E0,9.842249E0,9.233705E0,0E0,8.901195E0,0E0,0E0,0E0,0E0,0E0,0E0,0E0,0E0],"parents":[2147483647,0,0,1,1,2,2,3,3,4,4,5,5,7,7,9,9,10,10,12,12],"right_children":[2,4,6,8,10,12,-1,14,-1,16,18,-1,20,-1,-1,-1,-1,-1,-1,-1,-1],"split_conditions":[5.04E0,2.903226E0,2.2536953E-1,1.07E2,2.619778E-1,8E-2,3.7027493E-2,1.6106237E-1,2.3870766E-3,5.619048E-1,1.6163877E-1,-1.43175395E-2,1.0110294E-1,-2.6423542E-2,-6.1852783E-3,-2.3548106E-2,-3.2878204E-3,-3.1992388E-3,1.2147257E-2,1.6682625E-2,2.4056055E-3],"split_indices":[11,0,29,18,46,19,0,29,0,5,47,0,4,0,0,0,0,0,0,0,0],"split_type":[0,0,0,0,0,0,0,0,0,0,0,0,0,0,0,0,0,0,0,0,0],"sum_hessian":[9.8516144E2,6.220125E2,3.6314893E2,1.4527124E2,4.7674124E2,3.3592047E2,2.7228453E1,1.208505E2,2.4420742E1,2.289039E2,2.4783734E2,3.521758E1,3.0070288E2,8.54933E1,3.5357197E1,4.7634506E1,1.812694E2,1.2316036E2,1.2467698E2,1.1015624E2,1.9054665E2],"tree_param":{"num_deleted":"0","num_feature":"49","num_nodes":"21","size_leaf_vector":"1"}},{"base_weights":[5.0904923E-3,-8.420642E-2,3.129648E-1,-1.6883211E-1,1.8315466E-1,5.264917E-1,6.551428E-2,6.2353783E-3,-3.183418E-1,-9.429303E-3,2.9692835E-1,2.666633E-3,6.5680236E-1,2.8997868E-1,-2.0994114E-2,-2.4194547E-3,2.7097678E-2,-3.466651E-2,-1.0122181E-2,1.6127091E-3,2.0259116E-2,8.465281E-3,3.1579763E-2,-1.2631036E-3,3.2473434E-2],"categories":[],"categories_nodes":[],"categories_segments":[],"categories_sizes":[],"default_left":[0,0,0,0,0,0,0,0,0,0,0,0,0,0,0,0,0,0,0,0,0,0,0,0,0],"id":7,"left_children":[1,3,5,7,9,11,13,15,17,-1,19,-1,21,23,-1,-1,-1,-1,-1,-1,-1,-1,-1,-1,-1],"loss_changes":[2.7572956E1,1.7616333E1,1.1806625E1,1.5502228E1,9.030436E0,7.091053E0,1.4305457E1,1.2366138E1,1.0981796E1,0E0,7.874563E0,0E0,5.1821556E0,1.3236176E1,0E0,0E0,0E0,0E0,0E0,0E0,0E0,0E0,0E0,0E0,0E0],"parents":[2147483647,0,0,1,1,2,2,3,3,4,4,5,5,6,6,7,7,8,8,10,10,12,12,13,13],"right_children":[2,4,6,8,10,12,14,16,18,-1,20,-1,22,24,-1,-1,-1,-1,-1,-1,-1,-1,-1,-1,-1],"split_conditions":[6.3E0,1.59E0,2.3692343E-1,2.2981367E-1,1.42437E-1,9.8E1,3.4615386E0,1.08E2,1.5E0,-9.429303E-3,6.23E-1,2.666633E-3,-2.7E-1,1.28E0,-2.0994114E-2,-2.4194547E-3,2.7097678E-2,-3.466651E-2,-1.0122181E-2,1.6127091E-3,2.0259116E-2,8.465281E-3,3.1579763E-2,-1.2631036E-3,3.2473434E-2],"split_indices":[11,42,30,1,48,18,14,7,11,0,20,0,43,42,0,0,0,0,0,0,0,0,0,0,0],"split_type":[0,0,0,0,0,0,0,0,0,0,0,0,0,0,0,0,0,0,0,0,0,0,0,0,0],"sum_hessian":[9.991665E2,7.7511456E2,2.2405194E2,5.8946326E2,1.8565134E2,1.1914511E2,1.0490683E2,2.7187796E2,3.175853E2,3.9123013E1,1.4652832E2,2.6979073E1,9.216604E1,7.6683495E1,2.8223337E1,2.4840129E2,2.347666E1,3.166877E1,2.8591653E2,6.688633E1,7.964199E1,2.2230494E1,6.993555E1,4.8200855E1,2.8482635E1],"tree_param":{"num_deleted":"0","num_feature":"49","num_nodes":"25","size_leaf_vector":"1"}},{"base_weights":[2.8674E-3,-1.02437906E-1,2.508432E-1,-3.6002994E-1,-2.1639448E-2,1.7510602E-1,3.571341E-2,-1.509085E-1,-6.722915E-1,-4.429974E-1,1.9018074E-2,1.0562139E-1,2.8379528E-2,-1.3826046E-2,1.0144772E-2,-3.5372213E-2,-8.274041E-3,-3.338553E-3,-2.9258722E-2,-3.0449557E-3,8.97284E-3,-1.001871E-2,9.5994305E-3],"categories":[],"categories_nodes":[],"categories_segments":[],"categories_sizes":[],"default_left":[0,0,0,0,0,0,0,0,0,0,0,0,0,0,0,0,0,0,0,0,0,0,0],"id":8,"left_children":[1,3,5,7,9,11,-1,13,15,17,19,21,-1,-1,-1,-1,-1,-1,-1,-1,-1,-1,-1],"loss_changes":[2.6090681E1,1.4533108E1,1.4144836E1,1.0664703E1,9.224711E0,9.775726E0,0E0,8.183149E0,6.1608734E0,4.7410383E0,9.599368E0,1.154958E1,0E0,0E0,0E0,0E0,0E0,0E0,0E0,0E0,0E0,0E0,0E0],"parents":[2147483647,0,0,1,1,2,2,3,3,4,4,5,5,7,7,8,8,9,9,10,10,11,11],"right_children":[2,4,6,8,10,12,-1,14,16,18,20,22,-1,-1,-1,-1,-1,-1,-1,-1,-1,-1,-1],"split_conditions":[5.4545455E0,2.903226E0,2.2808923E-1,1.1E-1,2.896199E-1,6.7E-1,3.571341E-2,1.2413793E0,3.4673446E-1,9.758772E-2,2.768602E-1,2.4920195E-1,2.8379528E-2,-1.3826046E-2,1.0144772E-2,-3.5372213E-2,-8.274041E-3,-3.338553E-3,-2.9258722E-2,-3.0449557E-3,8.97284E-3,-1.001871E-2,9.5994305E-3],"split_indices":[11,0,48,43,22,9,0,14,22,44,46,45,0,0,0,0,0,0,0,0,0,0,0],"split_type":[0,0,0,0,0,0,0,0,0,0,0,0,0,0,0,0,0,0,0,0,0,0,0],"sum_hessian":[9.9559454E2,6.991646E2,2.964299E2,1.6540825E2,5.337564E2,2.6699664E2,2.943327E1,1.00589E2,6.481925E1,4.5880936E1,4.8787546E2,2.3802971E2,2.8966913E1,6.821521E1,3.2373787E1,4.3458588E1,2.1360664E1,2.1439991E1,2.4440943E1,3.336919E2,1.5418355E2,6.465151E1,1.733782E2],"tree_param":{"num_deleted":"0","num_feature":"49","num_nodes":"23","size_leaf_vector":"1"}},{"base_weights":[1.356427E-2,-1.4776415E-1,1.3746606E-1,-5.4245424E-1,-4.306813E-2,3.013797E-1,4.1696075E-3,-7.459955E-1,-1.4708639E-3,-1.4088671E-1,2.705364E-1,2.1325734E-1,6.432189E-1,-3.4273145E-1,1.1307281E-1,-4.2315364E-2,-1.6986866E-2,-1.2329561E-2,2.0363524E-3,-2.7348157E-3,2.084132E-2,-6.678867E-3,1.2140985E-2,3.791423E-2,1.2983688E-2,2.000982E-3,-2.4198893E-2,-2.2662084E-3,1.4441295E-2],"categories":[],"categories_nodes":[],"categories_segments":[],"categories_sizes":[],"default_left":[0,0,0,0,0,0,0,0,0,0,0,0,0,0,0,0,0,0,0,0,0,0,0,0,0,0,0,0,0],"id":9,"left_children":[1,3,5,7,9,11,13,15,-1,17,19,21,23,25,27,-1,-1,-1,-1,-1,-1,-1,-1,-1,-1,-1,-1,-1,-1],"loss_changes":[1.9883978E1,1.7751316E1,1.2267167E1,9.165285E0,1.0570447E1,7.3032017E0,1.18341875E1,5.6017113E0,0E0,8.483978E0,7.047704E0,7.054304E0,4.3320103E0,7.802352E0,1.0121537E1,0E0,0E0,0E0,0E0,0E0,0E0,0E0,0E0,0E0,0E0,0E0,0E0,0E0,0E0],"parents":[2147483647,0,0,1,1,2,2,3,3,4,4,5,5,6,6,7,7,9,9,10,10,11,11,12,12,13,13,14,14],"right_children":[2,4,6,8,10,12,14,16,-1,18,20,22,24,26,28,-1,-1,-1,-1,-1,-1,-1,-1,-1,-1,-1,-1,-1,-1],"split_conditions":[1.0588236E0,2.8125E0,1.046832E-1,1.05E2,6.35E2,7.105263E0,2.3701376E-1,1.5830518E-1,-1.4708639E-3,1.15E0,9.349593E1,6.6E-1,9.3E1,9.3650795E1,1.0047929E-1,-4.2315364E-2,-1.6986866E-2,-1.2329561E-2,2.0363524E-3,-2.7348157E-3,2.084132E-2,-6.678867E-3,1.2140985E-2,3.791423E-2,1.2983688E-2,2.000982E-3,-2.4198893E-2,-2.2662084E-3,1.4441295E-2],"split_indices":[14,0,4,18,39,0,45,48,0,42,41,42,6,41,44,0,0,0,0,0,0,0,0,0,0,0,0,0,0],"split_type":[0,0,0,0,0,0,0,0,0,0,0,0,0,0,0,0,0,0,0,0,0,0,0,0,0,0,0,0,0],"sum_hessian":[9.917792E2,4.3034512E2,5.614341E2,8.8706474E1,3.4163864E2,2.5061412E2,3.1081998E2,6.259921E1,2.6107264E1,2.6128455E2,8.035409E1,2.0141887E2,4.9195248E1,7.327389E1,2.375461E2,2.9863241E1,3.2735966E1,1.3932574E2,1.2195879E2,3.444435E1,4.590974E1,3.818622E1,1.6323265E2,2.347494E1,2.572031E1,2.9669966E1,4.360392E1,1.4146645E2,9.607964E1],"tree_param":{"num_deleted":"0","num_feature":"49","num_nodes":"29","size_leaf_vector":"1"}},{"base_weights":[-9.0255225E-3,-9.78597E-2,3.4964347E-1,-3.2237163E-1,-2.796708E-2,-7.556244E-3,4.704751E-1,-1.8556657E-1,-7.6804125E-1,-4.3421897E-1,4.431533E-3,2.1852814E-3,5.8107406E-1,-2.3158448E-2,3.9659187E-4,-3.8761247E-2,-2.0015355E-2,-2.5727507E-2,-7.900624E-3,-8.7175344E-4,2.1532675E-2,1.1680676E-2,2.8160729E-2],"categories":[],"categories_nodes":[],"categories_segments":[],"categories_sizes":[],"default_left":[0,0,0,0,0,0,0,0,0,0,0,0,0,0,0,0,0,0,0,0,0,0,0],"id":10,"left_children":[1,3,5,7,9,-1,11,13,15,17,19,-1,21,-1,-1,-1,-1,-1,-1,-1,-1,-1,-1],"loss_changes":[3.134133E1,1.2334223E1,1.2864405E1,1.1083647E1,7.992664E0,0E0,7.2483063E0,1.1225555E1,1.4517727E0,1.9431849E0,7.9160376E0,0E0,4.0717163E0,0E0,0E0,0E0,0E0,0E0,0E0,0E0,0E0,0E0,0E0],"parents":[2147483647,0,0,1,1,2,2,3,3,4,4,6,6,7,7,8,8,9,9,10,10,12,12],"right_children":[2,4,6,8,10,-1,12,14,16,18,20,-1,22,-1,-1,-1,-1,-1,-1,-1,-1,-1,-1],"split_conditions":[6.6666665E0,2.320388E-1,4.5E-1,1.23E-1,4.2E-1,-7.556244E-3,2.2826318E-1,3.65625E0,2.2866465E-1,9.724138E1,3.6E0,2.1852814E-3,1.970803E-1,-2.3158448E-2,3.9659187E-4,-3.8761247E-2,-2.0015355E-2,-2.5727507E-2,-7.900624E-3,-8.7175344E-4,2.1532675E-2,1.1680676E-2,2.8160729E-2],"split_indices":[11,45,3,8,42,0,46,0,30,41,3,0,1,0,0,0,0,0,0,0,0,0,0],"split_type":[0,0,0,0,0,0,0,0,0,0,0,0,0,0,0,0,0,0,0,0,0,0,0],"sum_hessian":[9.813359E2,7.8762787E2,1.9370802E2,1.8535944E2,6.0226843E2,3.5190483E1,1.5851753E2,1.4362157E2,4.173787E1,4.3337307E1,5.589311E2,3.396332E1,1.24554214E2,4.686916E1,9.675241E1,2.1379372E1,2.0358496E1,2.1424631E1,2.1912676E1,5.3395386E2,2.497727E1,3.8921368E1,8.563285E1],"tree_param":{"num_deleted":"0","num_feature":"49","num_nodes":"23","size_leaf_vector":"1"}},{"base_weights":[2.2148598E-2,-1.5046443E-1,1.1388927E-1,-2.5243697E-1,1.4841206E-1,-6.563129E-2,1.9946074E-1,1.5873635E-2,-3.1150764E-1,-1.156715E-1,2.6024003E-2,-1.350452E-1,2.130804E-2,-1.6635153E-2,2.3910792E-1,-1.574592E-2,-1.882907E-3,-2.157019E-2,5.805048E-3,-1.3987283E-2,4.0007625E-3,8.005838E-3,2.8959803E-2],"categories":[],"categories_nodes":[],"categories_segments":[],"categories_sizes":[],"default_left":[0,0,0,0,0,0,0,0,0,0,0,0,0,0,0,0,0,0,0,0,0,0,0],"id":11,"left_children":[1,3,5,7,9,11,13,-1,15,17,-1,19,-1,-1,21,-1,-1,-1,-1,-1,-1,-1,-1],"loss_changes":[1.5662417E1,1.052108E1,9.958966E0,1.0017126E1,1.1831345E1,8.761982E0,1.08248825E1,0E0,5.057585E0,6.651062E0,0E0,9.6087055E0,0E0,0E0,7.4906216E0,0E0,0E0,0E0,0E0,0E0,0E0,0E0,0E0],"parents":[2147483647,0,0,1,1,2,2,3,3,4,4,5,5,6,6,8,8,9,9,11,11,14,14],"right_children":[2,4,6,8,10,12,14,-1,16,18,-1,20,-1,-1,22,-1,-1,-1,-1,-1,-1,-1,-1],"split_conditions":[8.7096775E-1,1.59E0,2.4570468E-1,1.680759E-1,9.319372E1,3.0975834E-1,4.1E-1,1.5873635E-2,6E-3,1.5398781E-1,2.6024003E-2,2.6250464E-1,2.130804E-2,-1.6635153E-2,9.668874E1,-1.574592E-2,-1.882907E-3,-2.157019E-2,5.805048E-3,-1.3987283E-2,4.0007625E-3,8.005838E-3,2.8959803E-2],"split_indices":[14,42,45,25,41,25,42,0,38,48,0,46,0,0,41,0,0,0,0,0,0,0,0],"split_type":[0,0,0,0,0,0,0,0,0,0,0,0,0,0,0,0,0,0,0,0,0,0,0],"sum_hessian":[9.861694E2,3.4152634E2,6.44643E2,2.5506822E2,8.64581E1,2.0782579E2,4.3681723E2,2.0414234E1,2.3465399E2,5.728778E1,2.9170324E1,1.8741225E2,2.0413546E1,2.5426815E1,4.113904E2,1.7819185E2,5.6462135E1,2.1366514E1,3.5921265E1,9.780271E1,8.9609535E1,3.8294513E2,2.8445288E1],"tree_param":{"num_deleted":"0","num_feature":"49","num_nodes":"23","size_leaf_vector":"1"}},{"base_weights":[3.1584214E-2,-5.349689E-1,7.646616E-2,-2.5471111E-3,-3.8301513E-2,9.355638E-3,3.262645E-1,-3.078375E-1,5.506307E-2,-8.7234125E-2,4.7596675E-1,7.7280044E-3,-2.0067832E-2,-9.443911E-3,4.3297634E-3,-1.4555318E-2,1.2779776E-2,6.051038E-3,2.5926517E-2],"categories":[],"categories_nodes":[],"categories_segments":[],"categories_sizes":[],"default_left":[0,0,0,0,0,0,0,0,0,0,0,0,0,0,0,0,0,0,0],"id":12,"left_children":[1,3,5,-1,-1,7,9,11,13,15,17,-1,-1,-1,-1,-1,-1,-1,-1],"loss_changes":[2.5169077E1,1.4272108E1,1.5352493E1,0E0,0E0,1.0518721E1,1.2113573E1,9.047234E0,9.868626E0,6.105475E0,7.7617493E0,0E0,0E0,0E0,0E0,0E0,0E0,0E0,0E0],"parents":[2147483647,0,0,1,1,2,2,5,5,6,6,7,7,8,8,9,9,10,10],"right_children":[2,4,6,-1,-1,8,10,12,14,16,18,-1,-1,-1,-1,-1,-1,-1,-1],"split_conditions":[1.35E0,4E-2,6.75E0,-2.5471111E-3,-3.8301513E-2,5.5E-1,2.3160665E-1,2.0881653E-1,3.0947006E-1,1.23E0,1.5573813E-1,7.7280044E-3,-2.0067832E-2,-9.443911E-3,4.3297634E-3,-1.4555318E-2,1.2779776E-2,6.051038E-3,2.5926517E-2],"split_indices":[11,43,11,0,0,42,46,25,27,42,48,0,0,0,0,0,0,0,0],"split_type":[0,0,0,0,0,0,0,0,0,0,0,0,0,0,0,0,0,0,0],"sum_hessian":[9.877073E2,7.113607E1,9.1657117E2,3.4557163E1,3.657891E1,7.240148E2,1.9255643E2,8.983083E1,6.3418396E2,5.11715E1,1.4138492E2,2.4918036E1,6.4912796E1,9.685774E1,5.373262E2,3.0696331E1,2.047517E1,5.0174698E1,9.121022E1],"tree_param":{"num_deleted":"0","num_feature":"49","num_nodes":"19","size_leaf_vector":"1"}},{"base_weights":[1.46973245E-2,-7.689069E-2,2.1450497E-1,-1.6652866E-1,1.4045513E-1,1.5312332E-1,3.3152595E-2,-6.364068E-1,-1.0827802E-1,3.2885036E-1,-2.0111734E-1,3.669085E-1,1.0550792E-2,-3.9062984E-2,-1.45711815E-2,-1.5914537E-2,-2.2849736E-3,1.7537435E-3,2.5358677E-2,9.863392E-3,-1.6258562E-2,9.406176E-3,3.1196455E-2,-2.6695868E-3,2.0965142E-2],"categories":[],"categories_nodes":[],"categories_segments":[],"categories_sizes":[],"default_left":[0,0,0,0,0,0,0,0,0,0,0,0,0,0,0,0,0,0,0,0,0,0,0,0,0],"id":13,"left_children":[1,3,5,7,9,11,-1,13,15,17,19,21,23,-1,-1,-1,-1,-1,-1,-1,-1,-1,-1,-1,-1],"loss_changes":[1.8132055E1,1.3260773E1,1.1457339E1,1.3002452E1,1.2896564E1,8.649062E0,0E0,4.2029037E0,6.296544E0,1.1091387E1,6.7273417E0,5.814454E0,6.9620724E0,0E0,0E0,0E0,0E0,0E0,0E0,0E0,0E0,0E0,0E0,0E0,0E0],"parents":[2147483647,0,0,1,1,2,2,3,3,4,4,5,5,7,7,8,8,9,9,10,10,11,11,12,12],"right_children":[2,4,6,8,10,12,-1,14,16,18,20,22,24,-1,-1,-1,-1,-1,-1,-1,-1,-1,-1,-1,-1],"split_conditions":[5.275862E0,2.776965E-1,2.3302536E-1,1.35E0,2.2210161E-1,1.0243902E-1,3.3152595E-2,5E-4,5.9E-1,3.3732027E-1,9.3E1,1.6398783E-1,7.5E-3,-3.9062984E-2,-1.45711815E-2,-1.5914537E-2,-2.2849736E-3,1.7537435E-3,2.5358677E-2,9.863392E-3,-1.6258562E-2,9.406176E-3,3.1196455E-2,-2.6695868E-3,2.0965142E-2],"split_indices":[11,46,48,11,48,4,0,38,42,22,6,29,38,0,0,0,0,0,0,0,0,0,0,0,0],"split_type":[0,0,0,0,0,0,0,0,0,0,0,0,0,0,0,0,0,0,0,0,0,0,0,0,0],"sum_hessian":[9.8721954E2,6.77218E2,3.1000153E2,4.8004727E2,1.9717072E2,2.836918E2,2.6309725E1,5.1115986E1,4.2893127E2,1.2730431E2,6.986641E1,1.1227526E2,1.7141653E2,2.0828814E1,3.0287172E1,6.2573822E1,3.6635745E2,6.687771E1,6.04266E1,2.1721163E1,4.8145245E1,8.708883E1,2.5186434E1,1.4995895E2,2.1457588E1],"tree_param":{"num_deleted":"0","num_feature":"49","num_nodes":"25","size_leaf_vector":"1"}},{"base_weights":[-7.9784263E-4,-6.914948E-2,2.707871E-1,-4.7015962E-1,-2.8067334E-2,-5.5074454E-3,3.603669E-1,3.3110876E-3,-7.958839E-1,-1.0023908E-1,1.4252783E-1,7.425877E-1,2.2382449E-1,-1.9825067E-2,-4.296744E-2,-1.3061095E-2,-1.578981E-3,-1.607415E-2,8.557512E-3,1.4318459E-2,4.344413E-2,4.073571E-3,2.866702E-2],"categories":[],"categories_nodes":[],"categories_segments":[],"categories_sizes":[],"default_left":[0,0,0,0,0,0,0,0,0,0,0,0,0,0,0,0,0,0,0,0,0,0,0],"id":14,"left_children":[1,3,5,7,9,-1,11,-1,13,15,17,19,21,-1,-1,-1,-1,-1,-1,-1,-1,-1,-1],"loss_changes":[1.8500526E1,1.3066634E1,7.4264936E0,1.3457556E1,8.944737E0,0E0,8.260256E0,0E0,2.9452763E0,6.9681163E0,8.498107E0,4.896181E0,7.2539754E0,0E0,0E0,0E0,0E0,0E0,0E0,0E0,0E0,0E0,0E0],"parents":[2147483647,0,0,1,1,2,2,3,3,4,4,6,6,8,8,9,9,10,10,11,11,12,12],"right_children":[2,4,6,8,10,-1,12,-1,14,16,18,20,22,-1,-1,-1,-1,-1,-1,-1,-1,-1,-1],"split_conditions":[6.6666665E0,1.35E0,4.5E-1,-8E-2,1.47E0,-5.5074454E-3,1.3846154E0,3.3110876E-3,9.457365E1,5.96E-1,2.25E0,2.6250464E-1,1.76E0,-1.9825067E-2,-4.296744E-2,-1.3061095E-2,-1.578981E-3,-1.607415E-2,8.557512E-3,1.4318459E-2,4.344413E-2,4.073571E-3,2.866702E-2],"split_indices":[11,11,3,43,42,0,14,0,41,9,0,46,42,0,0,0,0,0,0,0,0,0,0],"split_type":[0,0,0,0,0,0,0,0,0,0,0,0,0,0,0,0,0,0,0,0,0,0,0],"sum_hessian":[9.946928E2,7.958756E2,1.9881718E2,7.227601E1,7.235996E2,3.5413597E1,1.6340358E2,2.709403E1,4.5181976E1,5.093286E2,2.1427103E2,4.106393E1,1.2233965E2,2.3913076E1,2.12689E1,1.06079704E2,4.032489E2,2.388052E1,1.903905E2,2.0955143E1,2.0108788E1,9.9680626E1,2.2659029E1],"tree_param":{"num_deleted":"0","num_feature":"49","num_nodes":"23","size_leaf_vector":"1"}},{"base_weights":[6.758682E-3,-7.108453E-2,2.9266232E-1,1.7895682E-2,-2.4484782E-1,3.1337805E-2,1.9548103E-1,-3.0991055E-2,5.072242E-1,-6.095485E-1,-1.2143517E-1,-1.1725021E-2,2.7803752E-1,-3.2250436E-3,1.3096435E-2,6.650311E-4,3.574557E-2,-9.966791E-3,-3.1075744E-2,-8.126143E-3,1.0484606E-2,2.8485602E-2,6.4436714E-3],"categories":[],"categories_nodes":[],"categories_segments":[],"categories_sizes":[],"default_left":[0,0,0,0,0,0,0,0,0,0,0,0,0,0,0,0,0,0,0,0,0,0,0],"id":15,"left_children":[1,3,5,7,9,-1,11,13,15,17,19,-1,21,-1,-1,-1,-1,-1,-1,-1,-1,-1,-1],"loss_changes":[2.2034462E1,1.204643E1,9.780455E0,1.2391657E1,1.1684595E1,0E0,7.3440647E0,8.366635E0,8.80679E0,3.5930252E0,6.3145227E0,0E0,7.5653934E0,0E0,0E0,0E0,0E0,0E0,0E0,0E0,0E0,0E0,0E0],"parents":[2147483647,0,0,1,1,2,2,3,3,4,4,6,6,7,7,8,8,9,9,10,10,12,12],"right_children":[2,4,6,8,10,-1,12,14,16,18,20,-1,22,-1,-1,-1,-1,-1,-1,-1,-1,-1,-1],"split_conditions":[6.428571E0,2.635659E-1,8.074534E-2,2.9516986E-1,1.4440297E-1,3.1337805E-2,2.25E0,8.4E0,3.0790597E-1,1.941306E-1,1.87E0,-1.1725021E-2,9.9E1,-3.2250436E-3,1.3096435E-2,6.650311E-4,3.574557E-2,-9.966791E-3,-3.1075744E-2,-8.126143E-3,1.0484606E-2,2.8485602E-2,6.4436714E-3],"split_indices":[11,1,15,30,48,0,0,0,27,25,42,0,7,0,0,0,0,0,0,0,0,0,0],"split_type":[0,0,0,0,0,0,0,0,0,0,0,0,0,0,0,0,0,0,0,0,0,0,0],"sum_hessian":[9.861635E2,7.757317E2,2.104318E2,5.1353314E2,2.6219858E2,3.286023E1,1.7757156E2,4.679799E2,4.555325E1,6.459445E1,1.9760411E2,2.493829E1,1.5263327E2,4.1231943E2,5.5660484E1,2.0874277E1,2.467897E1,2.1856771E1,4.2737682E1,1.6369403E2,3.3910072E1,3.0590815E1,1.2204246E2],"tree_param":{"num_deleted":"0","num_feature":"49","num_nodes":"23","size_leaf_vector":"1"}},{"base_weights":[-6.565477E-3,-6.75286E-2,2.2742474E-1,-4.1116273E-1,-3.388375E-2,4.1531098E-1,-6.723928E-3,6.921297E-3,-7.825024E-1,-4.1871372E-1,-3.4420034E-3,7.047662E-2,6.045351E-1,-1.9081941E-1,2.014678E-2,-1.8390033E-2,-4.1251116E-2,-2.9396214E-2,-3.3060305E-3,-8.8045053E-4,2.124172E-2,-5.7583903E-3,1.1478852E-2,3.681794E-2,1.236159E-2,1.08781075E-2,-1.573134E-2],"categories":[],"categories_nodes":[],"categories_segments":[],"categories_sizes":[],"default_left":[0,0,0,0,0,0,0,0,0,0,0,0,0,0,0,0,0,0,0,0,0,0,0,0,0,0,0],"id":16,"left_children":[1,3,5,7,9,11,13,-1,15,17,19,21,23,25,-1,-1,-1,-1,-1,-1,-1,-1,-1,-1,-1,-1,-1],"loss_changes":[1.4071768E1,8.995159E0,9.010581E0,1.5338242E1,8.339922E0,7.2632904E0,8.754114E0,0E0,2.5809917E0,5.3751173E0,6.5665936E0,2.027879E0,6.2452526E0,6.6205893E0,0E0,0E0,0E0,0E0,0E0,0E0,0E0,0E0,0E0,0E0,0E0,0E0,0E0],"parents":[2147483647,0,0,1,1,2,2,3,3,4,4,5,5,6,6,8,8,9,9,10,10,11,11,12,12,13,13],"right_children":[2,4,6,8,10,12,14,-1,16,18,20,22,24,26,-1,-1,-1,-1,-1,-1,-1,-1,-1,-1,-1,-1,-1],"split_conditions":[6.631579E0,1.35E0,2.3692343E-1,-8E-2,9.804472E-2,9.2E1,1.7193335E-1,6.921297E-3,2.3703703E-1,4.875E0,1.0588235E1,6.2091506E-1,9.90566E-2,-2.5E-1,2.014678E-2,-1.8390033E-2,-4.1251116E-2,-2.9396214E-2,-3.3060305E-3,-8.8045053E-4,2.124172E-2,-5.7583903E-3,1.1478852E-2,3.681794E-2,1.236159E-2,1.08781075E-2,-1.573134E-2],"split_indices":[11,11,30,43,24,17,24,0,1,0,0,5,15,43,0,0,0,0,0,0,0,0,0,0,0,0,0],"split_type":[0,0,0,0,0,0,0,0,0,0,0,0,0,0,0,0,0,0,0,0,0,0,0,0,0,0,0],"sum_hessian":[9.844758E2,7.8218274E2,2.022931E2,6.79872E1,7.1419556E2,1.1182705E2,9.046606E1,2.6627813E1,4.135938E1,5.071126E1,6.6348425E2,4.0538498E1,7.128855E1,6.7319496E1,2.3146563E1,2.0037525E1,2.1321856E1,2.5057568E1,2.5653692E1,6.42778E2,2.0706285E1,2.0386488E1,2.0152008E1,3.275714E1,3.853141E1,2.0181625E1,4.713787E1],"tree_param":{"num_deleted":"0","num_feature":"49","num_nodes":"27","size_leaf_vector":"1"}},{"base_weights":[1.1028548E-3,-5.797813E-2,1.8769471E-1,-1.5912738E-1,6.354368E-2,4.060442E-1,1.121745E-2,-1.9367585E-1,1.8391183E-2,2.2566313E-2,2.4663711E-2,3.4058355E-2,2.5511825E-1,-1.6741379E-1,1.8242413E-2,-1.5410107E-2,-3.1904723E-3,-2.1107048E-3,1.543453E-2,3.8647007E-3,2.613272E-2,2.226272E-3,-2.436729E-2],"categories":[],"categories_nodes":[],"categories_segments":[],"categories_sizes":[],"default_left":[0,0,0,0,0,0,0,0,0,0,0,0,0,0,0,0,0,0,0,0,0,0,0],"id":17,"left_children":[1,3,5,7,9,11,13,15,-1,17,-1,-1,19,21,-1,-1,-1,-1,-1,-1,-1,-1,-1],"loss_changes":[1.0848318E1,9.196014E0,9.075272E0,8.832506E0,7.6103697E0,6.6581593E0,1.0691191E1,8.368449E0,0E0,8.76314E0,0E0,0E0,4.9512186E0,9.531569E0,0E0,0E0,0E0,0E0,0E0,0E0,0E0,0E0,0E0],"parents":[2147483647,0,0,1,1,2,2,3,3,4,4,5,5,6,6,7,7,9,9,12,12,13,13],"right_children":[2,4,6,8,10,12,14,16,-1,18,-1,-1,20,22,-1,-1,-1,-1,-1,-1,-1,-1,-1],"split_conditions":[1.59E0,2.6250464E-1,1.6E2,1.2546831E-1,2.7701324E-1,9.3E1,1.875E0,2.4843043E-1,1.8391183E-2,2.9240307E-1,2.4663711E-2,3.4058355E-2,2.27E0,1.15E-1,1.8242413E-2,-1.5410107E-2,-3.1904723E-3,-2.1107048E-3,1.543453E-2,3.8647007E-3,2.613272E-2,2.226272E-3,-2.436729E-2],"split_indices":[42,46,39,31,30,17,3,45,0,45,0,0,42,19,0,0,0,0,0,0,0,0,0],"split_type":[0,0,0,0,0,0,0,0,0,0,0,0,0,0,0,0,0,0,0,0,0,0,0],"sum_hessian":[9.799035E2,7.4462823E2,2.3527525E2,4.0657352E2,3.380547E2,1.0403648E2,1.3123877E2,3.8620697E2,2.0366566E1,3.1635672E2,2.169797E1,2.440049E1,7.9635994E1,9.414469E1,3.709408E1,1.423525E2,2.4385446E2,2.6285706E2,5.349966E1,5.8475357E1,2.1160637E1,6.327746E1,3.0867239E1],"tree_param":{"num_deleted":"0","num_feature":"49","num_nodes":"23","size_leaf_vector":"1"}},{"base_weights":[1.6374266E-3,-1.6869666E-1,9.157292E-2,-2.746475E-1,1.2975392E-1,6.654585E-2,2.0682594E-2,-6.1749995E-1,-1.5846723E-1,4.587634E-1,-1.1398253E-2,-9.495634E-2,1.498851E-1,-3.1934753E-2,-8.295719E-3,-2.241797E-2,-6.210799E-4,3.1428482E-2,4.2249844E-3,-2.5860995E-2,5.119214E-4,1.0704075E-2,-1.0170838E-3],"categories":[],"categories_nodes":[],"categories_segments":[],"categories_sizes":[],"default_left":[0,0,0,0,0,0,0,0,0,0,0,0,0,0,0,0,0,0,0,0,0,0,0],"id":18,"left_children":[1,3,5,7,9,11,-1,13,15,17,-1,19,21,-1,-1,-1,-1,-1,-1,-1,-1,-1,-1],"loss_changes":[1.5273708E1,1.0955684E1,6.8459425E0,9.9265E0,1.2627248E1,8.3564625E0,0E0,4.380741E0,1.0994571E1,5.725749E0,0E0,1.2625855E1,8.479303E0,0E0,0E0,0E0,0E0,0E0,0E0,0E0,0E0,0E0,0E0],"parents":[2147483647,0,0,1,1,2,2,3,3,4,4,5,5,7,7,8,8,9,9,11,11,12,12],"right_children":[2,4,6,8,10,12,-1,14,16,18,-1,20,22,-1,-1,-1,-1,-1,-1,-1,-1,-1,-1],"split_conditions":[8.7096775E-1,1.760993E-1,3.097909E-1,2.903226E0,9E-2,2.4871373E-1,2.0682594E-2,6.47E-1,9.2753624E1,2.1821027E-1,-1.1398253E-2,2.4230769E0,2.3275216E-1,-3.1934753E-2,-8.295719E-3,-2.241797E-2,-6.210799E-4,3.1428482E-2,4.2249844E-3,-2.5860995E-2,5.119214E-4,1.0704075E-2,-1.0170838E-3],"split_indices":[14,29,25,0,43,45,0,20,41,29,0,0,25,0,0,0,0,0,0,0,0,0,0],"split_type":[0,0,0,0,0,0,0,0,0,0,0,0,0,0,0,0,0,0,0,0,0,0,0],"sum_hessian":[9.945291E2,3.4281888E2,6.5171027E2,2.5333788E2,8.948101E1,6.173669E2,3.434336E1,6.226328E1,1.910746E2,4.994168E1,3.953933E1,2.0966003E2,4.0770685E2,4.2052837E1,2.0210442E1,4.8788586E1,1.4228601E2,2.483134E1,2.5110342E1,3.3191063E1,1.7646898E2,2.4379004E2,1.6391681E2],"tree_param":{"num_deleted":"0","num_feature":"49","num_nodes":"23","size_leaf_vector":"1"}},{"base_weights":[6.527447E-3,-9.502934E-2,1.2857346E-1,-3.5512176E-1,1.066842E-2,2.329309E-2,8.250964E-2,-4.4911468E-1,1.5633545E-3,-3.853893E-1,6.67898E-2,4.464591E-2,2.3858583E-2,-7.867207E-3,-2.44502E-2,-5.603965E-3,-2.4599282E-2,-4.769831E-3,6.548538E-3,7.383416E-5,1.4364082E-2],"categories":[],"categories_nodes":[],"categories_segments":[],"categories_sizes":[],"default_left":[0,0,0,0,0,0,0,0,0,0,0,0,0,0,0,0,0,0,0,0,0],"id":19,"left_children":[1,3,5,7,9,-1,11,13,-1,15,17,19,-1,-1,-1,-1,-1,-1,-1,-1,-1],"loss_changes":[1.2183048E1,1.47743225E1,9.198666E0,5.817398E0,8.503665E0,0E0,7.82598E0,4.8810368E0,0E0,2.4672408E0,6.098146E0,5.095278E0,0E0,0E0,0E0,0E0,0E0,0E0,0E0,0E0,0E0],"parents":[2147483647,0,0,1,1,2,2,3,3,4,4,6,6,7,7,9,9,10,10,11,11],"right_children":[2,4,6,8,10,-1,12,14,-1,16,18,20,-1,-1,-1,-1,-1,-1,-1,-1,-1],"split_conditions":[2.627189E-1,2.4170373E-1,1.4893617E-1,1.411043E-1,1.5044248E-1,2.329309E-2,2.7701324E-1,1.1632653E-1,1.5633545E-3,2.3851615E-1,7.7586204E-2,1.33E-1,2.3858583E-2,-7.867207E-3,-2.44502E-2,-5.603965E-3,-2.4599282E-2,-4.769831E-3,6.548538E-3,7.383416E-5,1.4364082E-2],"split_indices":[46,45,12,4,12,0,30,15,0,46,13,19,0,0,0,0,0,0,0,0,0],"split_type":[0,0,0,0,0,0,0,0,0,0,0,0,0,0,0,0,0,0,0,0,0],"sum_hessian":[9.796827E2,5.3446063E2,4.4522205E2,1.5368687E2,3.8077374E2,3.922278E1,4.0599927E2,1.2413365E2,2.955323E1,4.594561E1,3.3482812E2,3.798408E2,2.6158491E1,5.008818E1,7.404547E1,2.3591743E1,2.2353865E1,1.1421887E2,2.2060925E2,3.3594302E2,4.389778E1],"tree_param":{"num_deleted":"0","num_feature":"49","num_nodes":"21","size_leaf_vector":"1"}},{"base_weights":[5.124129E-3,-1.36889685E-2,3.3784725E-2,-2.4621697E-1,5.6784842E-2,-4.0335956E-1,-5.4558534E-2,-3.110321E-2,1.8135597E-1,-2.137714E-2,-1.2131738E-3,-1.7237457E-2,5.3721247E-3,-1.2593983E-2,1.216072E-3,-6.109886E-3,9.767991E-3],"categories":[],"categories_nodes":[],"categories_segments":[],"categories_sizes":[],"default_left":[0,0,0,0,0,0,0,0,0,0,0,0,0,0,0,0,0],"id":20,"left_children":[1,3,-1,5,7,9,11,13,15,-1,-1,-1,-1,-1,-1,-1,-1],"loss_changes":[1.5741502E1,1.5935461E1,0E0,6.7344074E0,8.183069E0,5.9712067E0,7.5047507E0,7.683052E0,6.5527735E0,0E0,0E0,0E0,0E0,0E0,0E0,0E0,0E0],"parents":[2147483647,0,0,1,1,3,3,4,4,5,5,6,6,7,7,8,8],"right_children":[2,4,-1,6,8,10,12,14,16,-1,-1,-1,-1,-1,-1,-1,-1],"split_conditions":[1.188E1,2.903226E0,3.3784725E-2,1.2857143E0,5.12E-3,3.448639E-1,1.4941931E-1,2.625E0,9.8E1,-2.137714E-2,-1.2131738E-3,-1.7237457E-2,5.3721247E-3,-1.2593983E-2,1.216072E-3,-6.109886E-3,9.767991E-3],"split_indices":[11,0,0,14,38,22,47,11,18,0,0,0,0,0,0,0,0],"split_type":[0,0,0,0,0,0,0,0,0,0,0,0,0,0,0,0,0],"sum_hessian":[9.8884937E2,9.685016E2,2.0347742E1,2.2471939E2,7.437822E2,1.2228122E2,1.0243817E2,4.3629083E2,3.074914E2,8.98087E1,3.2472523E1,3.376185E1,6.867632E1,7.691223E1,3.5937857E2,4.8089737E1,2.5940167E2],"tree_param":{"num_deleted":"0","num_feature":"49","num_nodes":"17","size_leaf_vector":"1"}},{"base_weights":[-1.3547405E-2,-1.1726004E-1,1.5250562E-1,-1.87988E-1,1.0868624E-1,-1.5956351E-1,2.4460234E-1,-5.112049E-1,-1.2701854E-1,4.342537E-1,-1.1874158E-1,-4.1460043E-1,1.188139E-2,1.0785389E-1,5.687984E-1,-3.1233856E-2,-1.1768818E-2,-9.03439E-3,6.682215E-3,2.622729E-2,2.7514095E-3,-2.0148702E-2,4.2385235E-3,-3.0521508E-2,-5.619112E-3,1.9791603E-2,7.4620335E-4,1.0948834E-3,3.0129937E-2],"categories":[],"categories_nodes":[],"categories_segments":[],"categories_sizes":[],"default_left":[0,0,0,0,0,0,0,0,0,0,0,0,0,0,0,0,0,0,0,0,0,0,0,0,0,0,0,0,0],"id":21,"left_children":[1,3,5,7,9,11,13,15,17,19,21,23,-1,25,27,-1,-1,-1,-1,-1,-1,-1,-1,-1,-1,-1,-1,-1,-1],"loss_changes":[1.6812529E1,9.647835E0,1.0847032E1,8.880796E0,1.0768567E1,1.0226177E1,1.2716932E1,3.763979E0,1.1348385E1,4.692026E0,7.538127E0,5.100419E0,0E0,7.056831E0,8.439543E0,0E0,0E0,0E0,0E0,0E0,0E0,0E0,0E0,0E0,0E0,0E0,0E0,0E0,0E0],"parents":[2147483647,0,0,1,1,2,2,3,3,4,4,5,5,6,6,7,7,8,8,9,9,10,10,11,11,13,13,14,14],"right_children":[2,4,6,8,10,12,14,16,18,20,22,24,-1,26,28,-1,-1,-1,-1,-1,-1,-1,-1,-1,-1,-1,-1,-1,-1],"split_conditions":[2.6909685E-1,1.59E0,7.4E-1,2.8546798E-1,9.8E1,1.048632E0,6.75E0,9.8E1,6E-3,1.0948905E-1,6.18E-1,6.16E-1,1.188139E-2,2.7515495E-1,3.3783624E-1,-3.1233856E-2,-1.1768818E-2,-9.03439E-3,6.682215E-3,2.622729E-2,2.7514095E-3,-2.0148702E-2,4.2385235E-3,-3.0521508E-2,-5.619112E-3,1.9791603E-2,7.4620335E-4,1.0948834E-3,3.0129937E-2],"split_indices":[46,42,42,28,17,36,0,17,38,13,20,9,0,46,27,0,0,0,0,0,0,0,0,0,0,0,0,0,0],"split_type":[0,0,0,0,0,0,0,0,0,0,0,0,0,0,0,0,0,0,0,0,0,0,0,0,0,0,0,0,0],"sum_hessian":[9.733825E2,5.9980316E2,3.7357935E2,4.5733743E2,1.4246576E2,8.462919E1,2.8895013E2,7.056019E1,3.8677725E2,5.8211052E1,8.42547E1,5.4528694E1,3.0100496E1,2.0485019E2,8.4099945E1,2.9518919E1,4.104127E1,2.89995E2,9.678224E1,3.5336666E1,2.287439E1,3.0530582E1,5.3724117E1,2.2671194E1,3.18575E1,3.6888706E1,1.6796149E2,2.1945847E1,6.2154102E1],"tree_param":{"num_deleted":"0","num_feature":"49","num_nodes":"29","size_leaf_vector":"1"}},{"base_weights":[-1.1267946E-2,-4.2604837E-1,2.1325715E-2,-7.0111877E-1,4.7696265E-4,-2.7586752E-1,6.292765E-2,-1.4590745E-2,-3.825697E-2,-4.8090473E-1,7.585883E-3,3.8753414E-1,2.1161778E-2,-2.739644E-2,-6.92818E-3,5.87212E-3,2.5312545E-2,-5.288168E-3,4.1977204E-3],"categories":[],"categories_nodes":[],"categories_segments":[],"categories_sizes":[],"default_left":[0,0,0,0,0,0,0,0,0,0,0,0,0,0,0,0,0,0,0],"id":22,"left_children":[1,3,5,7,-1,9,11,-1,-1,13,-1,15,17,-1,-1,-1,-1,-1,-1],"loss_changes":[1.3292595E1,8.711892E0,1.1244661E1,3.137312E0,0E0,1.0819335E1,1.0779017E1,0E0,0E0,4.6362495E0,0E0,5.1395683E0,9.137923E0,0E0,0E0,0E0,0E0,0E0,0E0],"parents":[2147483647,0,0,1,1,2,2,3,3,5,5,6,6,9,9,11,11,12,12],"right_children":[2,4,6,8,-1,10,12,-1,-1,14,-1,16,18,-1,-1,-1,-1,-1,-1],"split_conditions":[1.5E0,4.714286E0,2.25E0,-1.3877788E-17,4.7696265E-4,2.7348012E-1,5.82E-1,-1.4590745E-2,-3.825697E-2,1.2090164E-1,7.585883E-3,8.539681E-2,2.465061E-1,-2.739644E-2,-6.92818E-3,5.87212E-3,2.5312545E-2,-5.288168E-3,4.1977204E-3],"split_indices":[11,0,0,43,0,45,20,0,0,4,0,31,46,0,0,0,0,0,0],"split_type":[0,0,0,0,0,0,0,0,0,0,0,0,0,0,0,0,0,0,0],"sum_hessian":[9.777356E2,7.0137726E1,9.075979E2,4.266738E1,2.7470348E1,1.1011499E2,7.974829E2,2.0152475E1,2.2514906E1,7.655941E1,3.3555584E1,8.922319E1,7.082597E2,4.473567E1,3.1823738E1,4.6444958E1,4.2778236E1,2.4949161E2,4.587681E2],"tree_param":{"num_deleted":"0","num_feature":"49","num_nodes":"19","size_leaf_vector":"1"}},{"base_weights":[-1.7227685E-3,-6.354395E-2,1.9735365E-1,-2.8736022E-1,-3.3481058E-4,-1.5799806E-1,3.032924E-1,-2.0308368E-1,-2.6592204E-2,-2.6437142E-1,6.0677905E-2,5.9038596E-3,-2.48792E-2,3.920421E-1,-1.05184885E-2,-2.096733E-2,-2.5360668E-3,-2.0251097E-2,-4.6918667E-3,-5.052705E-3,5.438911E-3,2.0702118E-2,-6.7280815E-4],"categories":[],"categories_nodes":[],"categories_segments":[],"categories_sizes":[],"default_left":[0,0,0,0,0,0,0,0,0,0,0,0,0,0,0,0,0,0,0,0,0,0,0],"id":23,"left_children":[1,3,5,7,9,11,13,15,-1,17,19,-1,-1,21,-1,-1,-1,-1,-1,-1,-1,-1,-1],"loss_changes":[1.2188412E1,1.0678623E1,8.916064E0,5.0015335E0,9.581902E0,7.9318533E0,9.284412E0,6.0964046E0,0E0,3.8231802E0,6.810689E0,0E0,0E0,8.149961E0,0E0,0E0,0E0,0E0,0E0,0E0,0E0,0E0,0E0],"parents":[2147483647,0,0,1,1,2,2,3,3,4,4,5,5,6,6,7,7,9,9,10,10,13,13],"right_children":[2,4,6,8,10,12,14,16,-1,18,20,-1,-1,22,-1,-1,-1,-1,-1,-1,-1,-1,-1],"split_conditions":[1.59E0,2.2893529E-1,1.397789E-1,3.7513328E-1,5.8E-1,1.2523273E-1,1.40625E-1,3.2126665E-1,-2.6592204E-2,5E-4,7.655039E-2,5.9038596E-3,-2.48792E-2,2.051518E-1,-1.05184885E-2,-2.096733E-2,-2.5360668E-3,-2.0251097E-2,-4.6918667E-3,-5.052705E-3,5.438911E-3,2.0702118E-2,-6.7280815E-4],"split_indices":[42,46,29,23,42,48,13,22,0,38,44,0,0,48,0,0,0,0,0,0,0,0,0],"split_type":[0,0,0,0,0,0,0,0,0,0,0,0,0,0,0,0,0,0,0,0,0,0,0],"sum_hessian":[9.884117E2,7.553644E2,2.3304732E2,1.648276E2,5.905368E2,5.3134964E1,1.7991235E2,1.368447E2,2.7982904E1,1.102147E2,4.8032208E2,3.25221E1,2.0612865E1,1.5608678E2,2.382557E1,4.00146E1,9.68301E1,4.0030247E1,7.0184456E1,1.3721147E2,3.4311063E2,1.1930794E2,3.677884E1],"tree_param":{"num_deleted":"0","num_feature":"49","num_nodes":"23","size_leaf_vector":"1"}},{"base_weights":[1.3238319E-2,-2.6701257E-2,3.0814597E-2,-3.6170077E-1,6.057889E-2,-1.4609736E-1,-2.8766982E-2,-6.92322E-2,1.6502279E-1,-1.7437555E-2,5.1169354E-3,-6.25423E-3,6.8394756E-3,9.0621924E-4,1.0996252E-2],"categories":[],"categories_nodes":[],"categories_segments":[],"categories_sizes":[],"default_left":[0,0,0,0,0,0,0,0,0,0,0,0,0,0,0],"id":24,"left_children":[1,-1,3,5,7,9,-1,11,13,-1,-1,-1,-1,-1,-1],"loss_changes":[1.1741552E1,0E0,1.1228254E1,4.97394E0,1.2156251E1,3.631988E0,0E0,8.3998995E0,7.730109E0,0E0,0E0,0E0,0E0,0E0,0E0],"parents":[2147483647,0,0,2,2,3,3,4,4,5,5,7,7,8,8],"right_children":[2,-1,4,6,8,10,-1,12,14,-1,-1,-1,-1,-1,-1],"split_conditions":[2.5134504E-1,-2.6701257E-2,4.2E-1,1.21212125E-1,1.125E0,6.22E-1,-2.8766982E-2,1.59E0,2.5260288E-1,-1.7437555E-2,5.1169354E-3,-6.25423E-3,6.8394756E-3,9.0621924E-4,1.0996252E-2],"split_indices":[22,0,42,15,14,9,0,42,46,0,0,0,0,0,0],"split_type":[0,0,0,0,0,0,0,0,0,0,0,0,0,0,0],"sum_hessian":[9.825349E2,2.3189613E1,9.593453E2,6.6203354E1,8.9314197E2,4.278886E1,2.341449E1,3.9801093E2,4.9513104E2,2.0540758E1,2.2248102E1,2.927685E2,1.0524242E2,2.1686964E2,2.7826138E2],"tree_param":{"num_deleted":"0","num_feature":"49","num_nodes":"15","size_leaf_vector":"1"}},{"base_weights":[1.6132023E-2,-6.5724604E-2,2.0432106E-1,-9.294849E-2,2.2537524E-2,1.21089034E-1,5.700608E-1,-3.9475355E-1,-4.2910747E-2,6.446783E-2,2.2424553E-2,8.303908E-3,3.2849416E-2,6.234929E-3,-2.3029795E-2,-5.433507E-3,5.616239E-3,5.6577036E-3,-1.4170188E-2],"categories":[],"categories_nodes":[],"categories_segments":[],"categories_sizes":[],"default_left":[0,0,0,0,0,0,0,0,0,0,0,0,0,0,0,0,0,0,0],"id":25,"left_children":[1,3,5,7,-1,9,11,13,15,17,-1,-1,-1,-1,-1,-1,-1,-1,-1],"loss_changes":[1.5316104E1,1.1886059E1,9.003797E0,9.970997E0,0E0,6.0474386E0,4.671999E0,9.552871E0,9.776566E0,7.1872935E0,0E0,0E0,0E0,0E0,0E0,0E0,0E0,0E0,0E0],"parents":[2147483647,0,0,1,1,2,2,3,3,5,5,6,6,7,7,8,8,9,9],"right_children":[2,4,6,8,-1,10,12,14,16,18,-1,-1,-1,-1,-1,-1,-1,-1,-1],"split_conditions":[5.4E0,1.8181819E-1,1.8929647E-1,5.7E-1,2.2537524E-2,3.8828248E-1,4.125E0,2.0881653E-1,1.04E2,3.1683168E-1,2.2424553E-2,8.303908E-3,3.2849416E-2,6.234929E-3,-2.3029795E-2,-5.433507E-3,5.616239E-3,5.6577036E-3,-1.4170188E-2],"split_indices":[11,2,29,42,0,22,0,25,7,1,0,0,0,0,0,0,0,0,0],"split_type":[0,0,0,0,0,0,0,0,0,0,0,0,0,0,0,0,0,0,0],"sum_hessian":[9.9055304E2,6.906051E2,2.999479E2,6.633397E2,2.7265383E1,2.4619168E2,5.3756233E1,9.258382E1,5.707559E2,2.1982106E2,2.6370625E1,2.3287943E1,3.046829E1,2.2818663E1,6.976515E1,3.793764E2,1.9137952E2,1.8672676E2,3.3094296E1],"tree_param":{"num_deleted":"0","num_feature":"49","num_nodes":"19","size_leaf_vector":"1"}},{"base_weights":[1.9824253E-3,-1.388E-1,8.0656685E-2,-4.000595E-1,-2.1731509E-2,-3.2473624E-1,1.1544407E-1,-7.558716E-1,-1.11344576E-1,-1.0369528E-1,1.8245632E-2,-3.152242E-2,6.021436E-3,7.301084E-2,4.393887E-1,-4.0869378E-2,-1.8913008E-2,1.2793763E-2,-1.7543571E-2,4.277625E-3,-1.66716E-2,5.724709E-4,1.6018987E-2,3.7394208E-3,2.8140591E-2],"categories":[],"categories_nodes":[],"categories_segments":[],"categories_sizes":[],"default_left":[0,0,0,0,0,0,0,0,0,0,0,0,0,0,0,0,0,0,0,0,0,0,0,0,0],"id":26,"left_children":[1,3,5,7,9,11,13,15,17,19,-1,-1,-1,21,23,-1,-1,-1,-1,-1,-1,-1,-1,-1,-1],"loss_changes":[1.0832436E1,1.0660444E1,8.894091E0,1.0888041E1,9.584609E0,1.1210184E1,7.871384E0,2.7373524E0,8.910078E0,1.3914166E1,0E0,0E0,0E0,9.844782E0,5.9051113E0,0E0,0E0,0E0,0E0,0E0,0E0,0E0,0E0,0E0,0E0],"parents":[2147483647,0,0,1,1,2,2,3,3,4,4,5,5,6,6,7,7,8,8,9,9,13,13,14,14],"right_children":[2,4,6,8,10,12,14,16,18,20,-1,-1,-1,22,24,-1,-1,-1,-1,-1,-1,-1,-1,-1,-1],"split_conditions":[9E-1,1.4970833E-1,4.4E-1,4.263158E0,1.13810204E-1,9.9E1,2.3843223E-1,3.3732027E-1,3.4615386E-1,1.6E-1,1.8245632E-2,-3.152242E-2,6.021436E-3,7.2E0,2.1359223E-1,-4.0869378E-2,-1.8913008E-2,1.2793763E-2,-1.7543571E-2,4.277625E-3,-1.66716E-2,5.724709E-4,1.6018987E-2,3.7394208E-3,2.8140591E-2],"split_indices":[14,48,42,0,31,17,47,22,14,43,0,0,0,0,12,0,0,0,0,0,0,0,0,0,0],"split_type":[0,0,0,0,0,0,0,0,0,0,0,0,0,0,0,0,0,0,0,0,0,0,0,0,0],"sum_hessian":[9.7552264E2,3.4885397E2,6.266687E2,1.0656183E2,2.4229216E2,4.83103E1,5.783584E2,4.6491848E1,6.006998E1,2.0800014E2,3.4292027E1,2.4069296E1,2.4241001E1,5.132721E2,6.508631E1,2.177285E1,2.4718998E1,2.5801456E1,3.4268524E1,1.24745384E2,8.325475E1,4.368382E2,7.643388E1,2.9223866E1,3.5862446E1],"tree_param":{"num_deleted":"0","num_feature":"49","num_nodes":"25","size_leaf_vector":"1"}},{"base_weights":[-1.5624254E-3,-3.5135853E-1,2.6816268E-2,-6.045732E-1,9.883525E-3,-1.5804535E-2,2.3829329E-1,-3.7272647E-2,-1.3151465E-2,-1.3459507E-1,5.0148193E-2,3.9455533E-1,-1.2299396E-1,1.2912678E-2,-7.586079E-3,-1.0151268E-2,4.0478674E-3,2.6496405E-2,6.7607113E-3,-1.7026935E-2,9.072424E-3],"categories":[],"categories_nodes":[],"categories_segments":[],"categories_sizes":[],"default_left":[0,0,0,0,0,0,0,0,0,0,0,0,0,0,0,0,0,0,0,0,0],"id":27,"left_children":[1,3,5,7,-1,9,11,-1,-1,13,15,17,19,-1,-1,-1,-1,-1,-1,-1,-1],"loss_changes":[9.944128E0,1.1653946E1,8.350489E0,4.2326145E0,0E0,6.0472565E0,8.87124E0,0E0,0E0,7.0205827E0,7.708578E0,6.3341675E0,5.23202E0,0E0,0E0,0E0,0E0,0E0,0E0,0E0,0E0],"parents":[2147483647,0,0,1,1,2,2,3,3,5,5,6,6,9,9,10,10,11,11,12,12],"right_children":[2,4,6,8,-1,10,12,-1,-1,14,16,18,20,-1,-1,-1,-1,-1,-1,-1,-1],"split_conditions":[1.5E0,1.8E0,3.756104E-1,5E-4,9.883525E-3,2.4871373E-1,4.2336223E-1,-3.7272647E-2,-1.3151465E-2,3.6363635E-2,1.449508E-1,6.125E-1,3E-3,1.2912678E-2,-7.586079E-3,-1.0151268E-2,4.0478674E-3,2.6496405E-2,6.7607113E-3,-1.7026935E-2,9.072424E-3],"split_indices":[11,3,27,38,0,45,27,0,0,13,47,16,38,0,0,0,0,0,0,0,0],"split_type":[0,0,0,0,0,0,0,0,0,0,0,0,0,0,0,0,0,0,0,0,0],"sum_hessian":[9.955568E2,7.369114E1,9.2186566E2,5.1888027E1,2.1803108E1,7.6799915E2,1.5386652E2,2.193255E1,2.9955479E1,2.741571E2,4.9384207E2,1.07506874E2,4.6359634E1,2.8475103E1,2.45682E2,6.987973E1,4.2396234E2,4.7612263E1,5.989461E1,2.4832808E1,2.1526827E1],"tree_param":{"num_deleted":"0","num_feature":"49","num_nodes":"21","size_leaf_vector":"1"}},{"base_weights":[-2.1023343E-3,-3.831145E-1,2.6651287E-2,-2.8803147E-4,-6.1823714E-1,-1.0927906E-1,1.1085239E-1,-1.3371029E-2,-3.3947833E-2,7.447911E-2,-2.3248541E-1,4.6197236E-1,6.657278E-2,-9.003193E-3,1.347673E-2,-2.1251848E-2,-3.990694E-3,6.5041524E-3,3.0457675E-2,-1.1339816E-3,1.0674803E-2],"categories":[],"categories_nodes":[],"categories_segments":[],"categories_sizes":[],"default_left":[0,0,0,0,0,0,0,0,0,0,0,0,0,0,0,0,0,0,0,0,0],"id":28,"left_children":[1,3,5,-1,7,9,11,-1,-1,13,15,17,19,-1,-1,-1,-1,-1,-1,-1,-1],"loss_changes":[1.0878738E1,6.090786E0,1.0549877E1,0E0,2.2501888E0,8.017035E0,8.753536E0,0E0,0E0,1.1303928E1,8.2475E0,5.393112E0,9.686588E0,0E0,0E0,0E0,0E0,0E0,0E0,0E0,0E0],"parents":[2147483647,0,0,1,1,2,2,4,4,5,5,6,6,9,9,10,10,11,11,12,12],"right_children":[2,4,6,-1,8,10,12,-1,-1,14,16,18,20,-1,-1,-1,-1,-1,-1,-1,-1],"split_conditions":[1.35E0,-9E-2,1.5341128E-1,-2.8803147E-4,2.2697829E-1,2.2857143E-1,5.263158E-1,-1.3371029E-2,-3.3947833E-2,1.8571429E-1,8.7096775E-1,2.3300971E-1,1.41E0,-9.003193E-3,1.347673E-2,-2.1251848E-2,-3.990694E-3,6.5041524E-3,3.0457675E-2,-1.1339816E-3,1.0674803E-2],"split_indices":[11,43,48,0,25,1,16,0,0,1,14,12,42,0,0,0,0,0,0,0,0],"split_type":[0,0,0,0,0,0,0,0,0,0,0,0,0,0,0,0,0,0,0,0,0],"sum_hessian":[9.868433E2,6.819451E1,9.186488E2,2.6999308E1,4.1195206E1,3.5076144E2,5.678874E2,2.029644E1,2.0898766E1,1.4069746E2,2.1006398E2,6.175852E1,5.0612885E2,6.562399E1,7.507346E1,6.298864E1,1.4707535E2,3.2208885E1,2.9549635E1,3.4392755E2,1.622013E2],"tree_param":{"num_deleted":"0","num_feature":"49","num_nodes":"21","size_leaf_vector":"1"}},{"base_weights":[-1.648396E-2,-2.1021113E-1,4.0243823E-2,-3.0665278E-1,1.3036456E-2,-2.6490793E-1,8.17152E-2,-2.5305128E-2,-4.599579E-1,-5.094726E-1,5.630979E-3,4.65205E-2,4.0342593E-1,8.218215E-3,-1.5708214E-2,-2.4413003E-2,1.7529587E-3,-3.9735965E-2,-7.930187E-3,-1.4999653E-3,7.917821E-3,5.4236734E-3,2.4470849E-2],"categories":[],"categories_nodes":[],"categories_segments":[],"categories_sizes":[],"default_left":[0,0,0,0,0,0,0,0,0,0,0,0,0,0,0,0,0,0,0,0,0,0,0],"id":29,"left_children":[1,3,5,7,-1,9,11,13,15,17,-1,19,21,-1,-1,-1,-1,-1,-1,-1,-1,-1,-1],"loss_changes":[1.0808843E1,1.1667743E1,9.626186E0,8.118847E0,0E0,9.167078E0,7.514083E0,5.968295E0,9.377508E0,8.202347E0,0E0,7.7370934E0,3.4616394E0,0E0,0E0,0E0,0E0,0E0,0E0,0E0,0E0,0E0,0E0],"parents":[2147483647,0,0,1,1,2,2,3,3,5,5,6,6,7,7,8,8,9,9,11,11,12,12],"right_children":[2,4,6,8,-1,10,12,14,16,18,-1,20,22,-1,-1,-1,-1,-1,-1,-1,-1,-1,-1],"split_conditions":[2.88E0,2.939155E-1,2.25E0,6.12E-1,1.3036456E-2,1.5950836E-1,2.9205316E-1,9.9455304E-2,1.59E0,3.2365915E-1,5.630979E-3,5.586207E0,1.02564104E-1,8.218215E-3,-1.5708214E-2,-2.4413003E-2,1.7529587E-3,-3.9735965E-2,-7.930187E-3,-1.4999653E-3,7.917821E-3,5.4236734E-3,2.4470849E-2],"split_indices":[11,46,0,20,0,47,30,44,42,23,0,11,13,0,0,0,0,0,0,0,0,0,0],"split_type":[0,0,0,0,0,0,0,0,0,0,0,0,0,0,0,0,0,0,0,0,0,0,0],"sum_hessian":[9.793405E2,2.2129965E2,7.5804083E2,1.882622E2,3.303744E1,8.943961E1,6.6860126E2,6.724787E1,1.21014336E2,5.571481E1,3.3724804E1,6.044978E2,6.410345E1,4.1543682E1,2.5704187E1,9.310571E1,2.7908627E1,2.0394E1,3.532081E1,3.8908078E2,2.1541702E2,2.934095E1,3.4762493E1],"tree_param":{"num_deleted":"0","num_feature":"49","num_nodes":"23","size_leaf_vector":"1"}},{"base_weights":[4.8581837E-3,-1.1508146E-2,2.8404763E-2,-6.80113E-2,1.666424E-1,-3.7975222E-1,-3.6921553E-2,1.6417487E-2,4.510905E-1,-3.204804E-2,-6.0510263E-3,-1.1131973E-2,3.5410642E-4,-3.5782661E-3,2.1066315E-2,1.2482203E-3,2.9407581E-2],"categories":[],"categories_nodes":[],"categories_segments":[],"categories_sizes":[],"default_left":[0,0,0,0,0,0,0,0,0,0,0,0,0,0,0,0,0],"id":30,"left_children":[1,3,-1,5,7,9,11,13,15,-1,-1,-1,-1,-1,-1,-1,-1],"loss_changes":[1.1552207E1,9.796627E0,0E0,7.107765E0,9.949199E0,6.139719E0,7.4853E0,8.489695E0,9.509493E0,0E0,0E0,0E0,0E0,0E0,0E0,0E0,0E0],"parents":[2147483647,0,0,1,1,3,3,4,4,5,5,6,6,7,7,8,8],"right_children":[2,4,-1,6,8,10,12,14,16,-1,-1,-1,-1,-1,-1,-1,-1],"split_conditions":[1.188E1,1.59E0,2.8404763E-2,2.8400412E-1,9.3023254E1,2.0224719E-1,2E-4,6.827586E0,1.0384616E0,-3.204804E-2,-6.0510263E-3,-1.1131973E-2,3.5410642E-4,-3.5782661E-3,2.1066315E-2,1.2482203E-3,2.9407581E-2],"split_indices":[11,42,0,23,41,12,38,0,3,0,0,0,0,0,0,0,0],"split_type":[0,0,0,0,0,0,0,0,0,0,0,0,0,0,0,0,0],"sum_hessian":[9.922237E2,9.710238E2,2.119991E1,7.383375E2,2.326863E2,6.5139244E1,6.7319824E2,1.535372E2,7.91491E1,2.1423544E1,4.3715702E1,1.0644653E2,5.667517E2,1.2801524E2,2.5521948E1,3.2755203E1,4.6393894E1],"tree_param":{"num_deleted":"0","num_feature":"49","num_nodes":"17","size_leaf_vector":"1"}},{"base_weights":[-1.8733756E-3,-5.578783E-2,1.6108243E-1,-2.0112336E-1,1.7123634E-2,8.040757E-3,4.5046288E-1,-3.1931973E-1,1.2823902E-1,8.007769E-2,-2.3159069E-1,1.775598E-2,-1.1396349E-1,1.7997095E-1,3.478186E-2,-2.680973E-2,-7.6326393E-3,-4.656584E-3,1.9964924E-2,9.699321E-4,1.3846687E-2,-1.8551404E-2,2.3372993E-3,-2.2530595E-2,8.894003E-4,2.4259431E-2,-8.0759525E-3],"categories":[],"categories_nodes":[],"categories_segments":[],"categories_sizes":[],"default_left":[0,0,0,0,0,0,0,0,0,0,0,0,0,0,0,0,0,0,0,0,0,0,0,0,0,0,0],"id":31,"left_children":[1,3,5,7,9,11,13,15,17,19,21,-1,23,25,-1,-1,-1,-1,-1,-1,-1,-1,-1,-1,-1,-1,-1],"loss_changes":[8.711062E0,7.932246E0,1.0858108E1,9.80944E0,7.8090143E0,8.770016E0,9.2909775E0,8.045017E0,6.190925E0,5.874591E0,6.8585486E0,0E0,7.922183E0,8.965315E0,0E0,0E0,0E0,0E0,0E0,0E0,0E0,0E0,0E0,0E0,0E0,0E0,0E0],"parents":[2147483647,0,0,1,1,2,2,3,3,4,4,5,5,6,6,7,7,8,8,9,9,10,10,12,12,13,13],"right_children":[2,4,6,8,10,12,14,16,18,20,22,-1,24,26,-1,-1,-1,-1,-1,-1,-1,-1,-1,-1,-1,-1,-1],"split_conditions":[1.59E0,8.7096775E-1,9.3023254E1,6E-3,1.05E2,2.299167E-1,2.693849E-1,1.4701915E-1,1.04E2,3.5588884E-1,9.1203704E-2,1.775598E-2,1.5413348E-1,2.2105263E-1,3.478186E-2,-2.680973E-2,-7.6326393E-3,-4.656584E-3,1.9964924E-2,9.699321E-4,1.3846687E-2,-1.8551404E-2,2.3372993E-3,-2.2530595E-2,8.894003E-4,2.4259431E-2,-8.0759525E-3],"split_indices":[42,14,41,38,6,46,46,48,18,23,44,0,29,25,0,0,0,0,0,0,0,0,0,0,0,0,0],"split_type":[0,0,0,0,0,0,0,0,0,0,0,0,0,0,0,0,0,0,0,0,0,0,0,0,0,0,0],"sum_hessian":[9.8967194E2,7.4483954E2,2.4483241E2,2.4841132E2,4.964282E2,1.6137495E2,8.3457466E1,1.8306514E2,6.5346176E1,3.972869E2,9.914132E1,3.460632E1,1.2676863E2,5.2168667E1,3.1288801E1,4.7164497E1,1.3590063E2,3.9831123E1,2.5515049E1,3.3005014E2,6.723674E1,5.4752346E1,4.438897E1,2.8565498E1,9.820313E1,2.4350677E1,2.781799E1],"tree_param":{"num_deleted":"0","num_feature":"49","num_nodes":"27","size_leaf_vector":"1"}},{"base_weights":[-7.1516084E-3,-3.785222E-1,2.2150338E-2,4.9768738E-3,-6.2906337E-1,-2.2695167E-1,5.9747376E-2,-1.2056108E-2,-3.7193764E-2,3.5055357E-3,-6.3261306E-1,-2.0208073E-1,1.0430505E-1,-1.8611433E-2,8.925715E-3,-1.4179384E-2,-3.4610815E-2,-1.3167577E-2,1.1153502E-2,1.5968056E-2,2.0635722E-3],"categories":[],"categories_nodes":[],"categories_segments":[],"categories_sizes":[],"default_left":[0,0,0,0,0,0,0,0,0,0,0,0,0,0,0,0,0,0,0,0,0],"id":32,"left_children":[1,3,5,-1,7,9,11,-1,-1,13,15,17,19,-1,-1,-1,-1,-1,-1,-1,-1],"loss_changes":[1.0731028E1,9.256408E0,8.536337E0,0E0,4.238743E0,1.1232458E1,9.274961E0,0E0,0E0,8.111597E0,2.2287006E0,7.204972E0,1.048124E1,0E0,0E0,0E0,0E0,0E0,0E0,0E0,0E0],"parents":[2147483647,0,0,1,1,2,2,4,4,5,5,6,6,9,9,10,10,11,11,12,12],"right_children":[2,4,6,-1,8,10,12,-1,-1,14,16,18,20,-1,-1,-1,-1,-1,-1,-1,-1],"split_conditions":[1.5E0,-1.7E-1,2.25E0,4.9768738E-3,2.4603175E-1,1.14E-1,5.9E-1,-1.2056108E-2,-3.7193764E-2,3.197436E-1,3.891892E0,1.0859509E0,5.89E-1,-1.8611433E-2,8.925715E-3,-1.4179384E-2,-3.4610815E-2,-1.3167577E-2,1.1153502E-2,1.5968056E-2,2.0635722E-3],"split_indices":[11,43,0,0,1,19,42,0,0,23,11,36,20,0,0,0,0,0,0,0,0],"split_type":[0,0,0,0,0,0,0,0,0,0,0,0,0,0,0,0,0,0,0,0,0],"sum_hessian":[9.802066E2,7.062658E1,9.0958E2,2.3602379E1,4.70242E1,1.1794069E2,7.9163934E2,2.4102882E1,2.2921316E1,7.600346E1,4.1937225E1,1.140305E2,6.776088E2,2.3567766E1,5.2435696E1,2.1021957E1,2.0915268E1,9.073109E1,2.3299416E1,1.0097728E2,5.7663153E2],"tree_param":{"num_deleted":"0","num_feature":"49","num_nodes":"21","size_leaf_vector":"1"}},{"base_weights":[-4.126882E-3,-1.10191114E-1,1.2181219E-1,-2.6517997E-2,-8.52234E-2,3.9135367E-2,3.456615E-1,-1.0874478E-1,1.7939227E-2,-1.6882436E-2,7.851833E-2,6.999642E-1,9.415786E-2,-1.181807E-2,-1.886333E-3,-3.9600465E-3,8.432009E-3,3.768446E-2,1.6378468E-2,1.3908993E-2,-9.988293E-3],"categories":[],"categories_nodes":[],"categories_segments":[],"categories_sizes":[],"default_left":[0,0,0,0,0,0,0,0,0,0,0,0,0,0,0,0,0,0,0,0,0],"id":33,"left_children":[1,3,5,-1,7,9,11,13,-1,-1,15,17,19,-1,-1,-1,-1,-1,-1,-1,-1],"loss_changes":[1.3177162E1,7.237101E0,8.280966E0,0E0,6.5001793E0,6.0291696E0,1.0606075E1,5.629071E0,0E0,0E0,7.2402086E0,2.7925892E0,6.4771414E0,0E0,0E0,0E0,0E0,0E0,0E0,0E0,0E0],"parents":[2147483647,0,0,1,1,2,2,4,4,5,5,6,6,7,7,10,10,11,11,12,12],"right_children":[2,4,6,-1,8,10,12,14,-1,-1,16,18,20,-1,-1,-1,-1,-1,-1,-1,-1],"split_conditions":[2.627189E-1,6.4285713E-1,5.571429E0,-2.6517997E-2,3.5330835E-1,2.1176472E0,1.02E2,2.375644E-1,1.7939227E-2,-1.6882436E-2,2.3846154E-1,1.0951239E-1,1.5779789E-1,-1.181807E-2,-1.886333E-3,-3.9600465E-3,8.432009E-3,3.768446E-2,1.6378468E-2,1.3908993E-2,-9.988293E-3],"split_indices":[46,11,11,0,28,0,7,45,0,0,12,44,24,0,0,0,0,0,0,0,0],"split_type":[0,0,0,0,0,0,0,0,0,0,0,0,0,0,0,0,0,0,0,0,0],"sum_hessian":[9.835692E2,5.344468E2,4.4912244E2,2.126774E1,5.13179E2,3.295974E2,1.1952501E2,4.9284033E2,2.0338692E1,2.458453E1,3.0501288E2,4.8345947E1,7.117906E1,1.2042803E2,3.724123E2,1.300756E2,1.7493727E2,2.4344711E1,2.4001236E1,4.1126366E1,3.0052702E1],"tree_param":{"num_deleted":"0","num_feature":"49","num_nodes":"21","size_leaf_vector":"1"}},{"base_weights":[5.3343424E-3,-9.691713E-3,2.6059601E-2,-2.896111E-1,1.8531328E-2,-4.6295384E-1,9.865359E-3,-4.4472262E-2,1.8488894E-1,-1.9396901E-3,-3.1037757E-2,-1.0024954E-2,7.278219E-4,-6.935489E-3,9.9673355E-3],"categories":[],"categories_nodes":[],"categories_segments":[],"categories_sizes":[],"default_left":[0,0,0,0,0,0,0,0,0,0,0,0,0,0,0],"id":34,"left_children":[1,3,-1,5,7,9,-1,11,13,-1,-1,-1,-1,-1,-1],"loss_changes":[9.541877E0,7.5746794E0,0E0,8.356543E0,9.124246E0,8.55671E0,0E0,8.173724E0,5.5816116E0,0E0,0E0,0E0,0E0,0E0,0E0],"parents":[2147483647,0,0,1,1,3,3,4,4,5,5,7,7,8,8],"right_children":[2,4,-1,6,8,10,-1,12,14,-1,-1,-1,-1,-1,-1],"split_conditions":[1.188E1,2.8038564E-1,2.6059601E-2,1.59E0,6E-3,1.08E0,9.865359E-3,6.666667E-1,2.1176472E0,-1.9396901E-3,-3.1037757E-2,-1.0024954E-2,7.278219E-4,-6.935489E-3,9.9673355E-3],"split_indices":[11,28,0,42,38,3,0,3,0,0,0,0,0,0,0],"split_type":[0,0,0,0,0,0,0,0,0,0,0,0,0,0,0],"sum_hessian":[9.736837E2,9.528484E2,2.0835314E1,8.6324356E1,8.6652405E2,6.553234E1,2.0792017E1,6.2885834E2,2.3766574E2,2.9078491E1,3.645385E1,1.4592413E2,4.8293417E2,3.5537136E1,2.021286E2],"tree_param":{"num_deleted":"0","num_feature":"49","num_nodes":"15","size_leaf_vector":"1"}},{"base_weights":[5.3346413E-3,-7.195208E-2,1.4269182E-1,-1.03359655E-1,3.436351E-1,2.7234903E-1,-8.728327E-2,2.6091868E-1,-1.3421379E-1,2.8604004E-3,2.5070779E-2,3.3653644E-1,-1.2237759E-2,-2.4445893E-1,1.5695621E-1,-3.4339512E-3,2.1679891E-2,-6.4301156E-3,1.1111681E-2,1.738593E-2,3.2131218E-3,5.8453083E-3,-1.7985908E-2,1.7464949E-2,-8.413381E-3],"categories":[],"categories_nodes":[],"categories_segments":[],"categories_sizes":[],"default_left":[0,0,0,0,0,0,0,0,0,0,0,0,0,0,0,0,0,0,0,0,0,0,0,0,0],"id":35,"left_children":[1,3,5,7,9,11,13,15,17,-1,-1,19,-1,21,23,-1,-1,-1,-1,-1,-1,-1,-1,-1,-1],"loss_changes":[1.05861E1,8.347813E0,1.0766721E1,6.7150884E0,3.3226333E0,8.709106E0,5.071508E0,4.6605883E0,6.055746E0,0E0,0E0,5.130579E0,0E0,6.553868E0,5.4726467E0,0E0,0E0,0E0,0E0,0E0,0E0,0E0,0E0,0E0,0E0],"parents":[2147483647,0,0,1,1,2,2,3,3,4,4,5,5,6,6,7,7,8,8,11,11,13,13,14,14],"right_children":[2,4,6,8,10,12,14,16,18,-1,-1,20,-1,22,24,-1,-1,-1,-1,-1,-1,-1,-1,-1,-1],"split_conditions":[5.0625E0,2.3036748E-1,2.5984251E-1,8.1E-2,6.27E-1,2.248818E-1,1.04E2,6.22E-1,1.09E2,2.8604004E-3,2.5070779E-2,8.963736E-2,-1.2237759E-2,6.11E-1,2.3305653E-1,-3.4339512E-3,2.1679891E-2,-6.4301156E-3,1.1111681E-2,1.738593E-2,3.2131218E-3,5.8453083E-3,-1.7985908E-2,1.7464949E-2,-8.413381E-3],"split_indices":[11,24,1,19,9,24,35,9,7,0,0,31,0,9,46,0,0,0,0,0,0,0,0,0,0],"split_type":[0,0,0,0,0,0,0,0,0,0,0,0,0,0,0,0,0,0,0,0,0,0,0,0,0],"sum_hessian":[9.9357715E2,6.358115E2,3.5776562E2,5.924084E2,4.3403088E1,2.2888272E2,1.288829E2,4.5132088E1,5.472763E2,2.3269972E1,2.0133118E1,2.0673613E2,2.2146591E1,7.86666E1,5.0216305E1,2.0512209E1,2.4619879E1,5.152446E2,3.203172E1,1.4845291E2,5.8283215E1,2.7073881E1,5.159272E1,2.8502586E1,2.1713718E1],"tree_param":{"num_deleted":"0","num_feature":"49","num_nodes":"25","size_leaf_vector":"1"}},{"base_weights":[-1.6207669E-2,9.8863326E-2,-1.1573672E-1,-1.2313576E-2,1.328231E-1,-2.7103162E-1,-5.0370106E-3,8.406046E-2,4.5750988E-1,-3.505975E-1,6.531279E-3,-2.1029996E-2,5.2332643E-2,6.6247797E-3,-7.890654E-3,1.6059168E-3,2.861859E-2,-1.8405156E-2,-2.107249E-3,-1.8440556E-2,4.529312E-3],"categories":[],"categories_nodes":[],"categories_segments":[],"categories_sizes":[],"default_left":[0,0,0,0,0,0,0,0,0,0,0,0,0,0,0,0,0,0,0,0,0],"id":36,"left_children":[1,3,5,-1,7,9,11,13,15,17,-1,-1,19,-1,-1,-1,-1,-1,-1,-1,-1],"loss_changes":[1.1261847E1,6.336795E0,9.039349E0,0E0,6.5662217E0,7.67745E0,9.346201E0,8.508394E0,5.745577E0,5.9779778E0,0E0,0E0,8.807561E0,0E0,0E0,0E0,0E0,0E0,0E0,0E0,0E0],"parents":[2147483647,0,0,1,1,2,2,4,4,5,5,6,6,7,7,8,8,9,9,12,12],"right_children":[2,4,6,-1,8,10,12,14,16,18,-1,-1,20,-1,-1,-1,-1,-1,-1,-1,-1],"split_conditions":[2.2981367E-1,2.1176472E0,1.5319932E-1,-1.2313576E-2,2.7701324E-1,7.2580647E0,1.6363636E0,1.01E2,3.001706E-1,1.51E0,6.531279E-3,-2.1029996E-2,2.9903853E-1,6.6247797E-3,-7.890654E-3,1.6059168E-3,2.861859E-2,-1.8405156E-2,-2.107249E-3,-1.8440556E-2,4.529312E-3],"split_indices":[1,0,48,0,30,11,11,6,28,42,0,0,22,0,0,0,0,0,0,0,0],"split_type":[0,0,0,0,0,0,0,0,0,0,0,0,0,0,0,0,0,0,0,0,0],"sum_hessian":[9.801718E2,4.5413116E2,5.2604065E2,3.3838524E1,4.2029263E2,2.1764369E2,3.0839694E2,3.6732306E2,5.296957E1,1.8438408E2,3.325962E1,2.9563347E1,2.788336E2,2.855206E2,8.180246E1,2.1043325E1,3.1926243E1,1.3397473E2,5.0409348E1,2.8351645E1,2.5048195E2],"tree_param":{"num_deleted":"0","num_feature":"49","num_nodes":"21","size_leaf_vector":"1"}},{"base_weights":[7.006815E-3,-1.884701E-1,6.713305E-2,-2.634925E-1,1.030368E-2,4.0371113E-2,2.183112E-2,-3.9121306E-1,3.4719672E-2,1.3262737E-2,2.0544562E-2,-2.284688E-2,-1.8154796E-3,-9.186611E-3,1.805083E-2,-2.8511815E-4,2.4360871E-2],"categories":[],"categories_nodes":[],"categories_segments":[],"categories_sizes":[],"default_left":[0,0,0,0,0,0,0,0,0,0,0,0,0,0,0,0,0],"id":37,"left_children":[1,3,5,7,-1,9,-1,11,13,15,-1,-1,-1,-1,-1,-1,-1],"loss_changes":[1.15034075E1,7.8025265E0,9.509792E0,7.59371E0,0E0,9.067223E0,0E0,8.544859E0,6.8389626E0,8.264964E0,0E0,0E0,0E0,0E0,0E0,0E0,0E0],"parents":[2147483647,0,0,1,1,2,2,3,3,5,5,7,7,8,8,9,9],"right_children":[2,4,6,8,-1,10,-1,12,14,16,-1,-1,-1,-1,-1,-1,-1],"split_conditions":[2.903226E0,1.07E2,2.43E0,1.6106237E-1,1.030368E-2,4.1842735E-1,2.183112E-2,5.275862E0,5.51E2,3.2223198E-1,2.0544562E-2,-2.284688E-2,-1.8154796E-3,-9.186611E-3,1.805083E-2,-2.8511815E-4,2.4360871E-2],"split_indices":[0,18,42,29,0,22,0,11,39,25,0,0,0,0,0,0,0],"split_type":[0,0,0,0,0,0,0,0,0,0,0,0,0,0,0,0,0],"sum_hessian":[9.76657E2,2.2859729E2,7.480597E2,1.9640277E2,3.219452E1,7.101872E2,3.787246E1,1.3741653E2,5.8986244E1,6.733685E2,3.6818653E1,8.955029E1,4.7866234E1,3.6348663E1,2.2637583E1,6.52355E2,2.1013565E1],"tree_param":{"num_deleted":"0","num_feature":"49","num_nodes":"17","size_leaf_vector":"1"}},{"base_weights":[-1.4219463E-2,-7.8100085E-2,1.3519734E-1,-1.2382947E-1,1.7052329E-1,-2.1518424E-1,2.2622761E-1,-3.2682496E-1,-6.8230346E-2,4.042546E-2,2.4515785E-2,-2.6233558E-2,1.3364283E-3,1.271617E-1,2.7480602E-2,-2.8959867E-2,-3.3127384E-3,6.571213E-3,-5.2190577E-3,-1.5233914E-2,7.976219E-3,9.164226E-3,-6.93068E-3],"categories":[],"categories_nodes":[],"categories_segments":[],"categories_sizes":[],"default_left":[0,0,0,0,0,0,0,0,0,0,0,0,0,0,0,0,0,0,0,0,0,0,0],"id":38,"left_children":[1,3,5,7,9,11,13,15,17,19,-1,-1,-1,21,-1,-1,-1,-1,-1,-1,-1,-1,-1],"loss_changes":[9.365509E0,7.8494215E0,9.439441E0,6.4996004E0,6.0658665E0,6.787781E0,1.0470669E1,1.1887657E1,6.677902E0,5.761975E0,0E0,0E0,0E0,6.026306E0,0E0,0E0,0E0,0E0,0E0,0E0,0E0,0E0,0E0],"parents":[2147483647,0,0,1,1,2,2,3,3,4,4,5,5,6,6,7,7,8,8,9,9,13,13],"right_children":[2,4,6,8,10,12,14,16,18,20,-1,-1,-1,22,-1,-1,-1,-1,-1,-1,-1,-1,-1],"split_conditions":[5.4545455E0,1.07E2,9.8E1,1.3746473E-1,1.0450437E-1,2.0289855E-1,2.0089824E-1,3.75E0,3.213213E-1,5.816327E-1,2.4515785E-2,-2.6233558E-2,1.3364283E-3,1E0,2.7480602E-2,-2.8959867E-2,-3.3127384E-3,6.571213E-3,-5.2190577E-3,-1.5233914E-2,7.976219E-3,9.164226E-3,-6.93068E-3],"split_indices":[11,18,18,29,26,1,48,0,28,5,0,0,0,40,0,0,0,0,0,0,0,0,0],"split_type":[0,0,0,0,0,0,0,0,0,0,0,0,0,0,0,0,0,0,0,0,0,0,0],"sum_hessian":[9.786507E2,6.865242E2,2.9212653E2,5.8084436E2,1.0567978E2,5.959542E1,2.3253111E2,1.2292442E2,4.5791995E2,8.3103E1,2.2576784E1,2.0753372E1,3.884205E1,1.9313869E2,3.939243E1,4.550119E1,7.742323E1,9.584403E1,3.620759E2,2.2022991E1,6.1080006E1,1.4472005E2,4.8418636E1],"tree_param":{"num_deleted":"0","num_feature":"49","num_nodes":"23","size_leaf_vector":"1"}},{"base_weights":[-1.0323413E-2,-7.749064E-2,1.4458755E-1,-3.294706E-2,-2.6816234E-1,4.1228063E-2,4.0923154E-1,6.2492073E-2,-1.5342382E-1,-2.2284204E-2,-1.5892904E-1,1.8802451E-2,-4.6355065E-2,6.057572E-1,1.9497244E-3,-5.0825155E-3,9.930641E-3,4.445058E-3,-1.1379822E-2,-1.6203737E-2,2.061305E-3,7.207805E-3,-1.3289585E-2,3.7293483E-2,1.0925369E-2],"categories":[],"categories_nodes":[],"categories_segments":[],"categories_sizes":[],"default_left":[0,0,0,0,0,0,0,0,0,0,0,0,0,0,0,0,0,0,0,0,0,0,0,0,0],"id":39,"left_children":[1,3,5,7,9,11,13,15,17,-1,19,-1,21,23,-1,-1,-1,-1,-1,-1,-1,-1,-1,-1,-1],"loss_changes":[9.97543E0,5.6428924E0,7.855128E0,6.2883253E0,3.7772093E0,7.9737744E0,5.6244097E0,1.0786477E1,8.446906E0,0E0,4.9311385E0,0E0,1.1491645E1,5.153881E0,0E0,0E0,0E0,0E0,0E0,0E0,0E0,0E0,0E0,0E0,0E0],"parents":[2147483647,0,0,1,1,2,2,3,3,4,4,5,5,6,6,7,7,8,8,10,10,12,12,13,13],"right_children":[2,4,6,8,10,12,14,16,18,-1,20,-1,22,24,-1,-1,-1,-1,-1,-1,-1,-1,-1,-1,-1],"split_conditions":[5.4545455E0,6.57E-1,1.6590196E-1,8E-2,7.690042E-2,1.10974945E-1,6.36E-1,1.02E2,3.2375795E-1,-2.2284204E-2,6.68E-1,1.8802451E-2,8.600139E-2,1.02564104E-1,1.9497244E-3,-5.0825155E-3,9.930641E-3,4.445058E-3,-1.1379822E-2,-1.6203737E-2,2.061305E-3,7.207805E-3,-1.3289585E-2,3.7293483E-2,1.0925369E-2],"split_indices":[11,9,29,43,31,29,9,7,28,0,9,0,31,2,0,0,0,0,0,0,0,0,0,0,0],"split_type":[0,0,0,0,0,0,0,0,0,0,0,0,0,0,0,0,0,0,0,0,0,0,0,0,0],"sum_hessian":[9.5625006E2,6.6800684E2,2.8824326E2,5.433551E2,1.2465173E2,2.0880414E2,7.94391E1,3.0312097E2,2.4023412E2,3.2257866E1,9.239387E1,3.4495426E1,1.7430872E2,5.057139E1,2.8867716E1,1.5000189E2,1.5311906E2,7.9413734E1,1.6082037E2,4.216452E1,5.0229347E1,9.7360115E1,7.69486E1,2.400116E1,2.6570229E1],"tree_param":{"num_deleted":"0","num_feature":"49","num_nodes":"25","size_leaf_vector":"1"}},{"base_weights":[-2.102921E-2,-3.4419324E-2,2.2057898E-2,-1.8000863E-1,1.7431794E-2,-4.5204395E-1,-4.1090064E-2,-2.4147024E-2,2.5893733E-1,-3.144195E-2,-1.0569772E-2,1.0692871E-2,-5.3261095E-3,-4.1715517E-3,6.4801364E-3,-2.0155485E-3,1.92433E-2],"categories":[],"categories_nodes":[],"categories_segments":[],"categories_sizes":[],"default_left":[0,0,0,0,0,0,0,0,0,0,0,0,0,0,0,0,0],"id":40,"left_children":[1,3,-1,5,7,9,11,13,15,-1,-1,-1,-1,-1,-1,-1,-1],"loss_changes":[7.4482293E0,7.222598E0,0E0,9.414813E0,7.1052675E0,4.8845577E0,4.8145638E0,8.99878E0,7.2209935E0,0E0,0E0,0E0,0E0,0E0,0E0,0E0,0E0],"parents":[2147483647,0,0,1,1,3,3,4,4,5,5,6,6,7,7,8,8],"right_children":[2,4,-1,6,8,10,12,14,16,-1,-1,-1,-1,-1,-1,-1,-1],"split_conditions":[1.188E1,9.269663E1,2.2057898E-2,8.5714287E-1,1.13810204E-1,1.5164118E-1,7.5180374E-2,1.1214953E-1,1.4978355E-1,-3.144195E-2,-1.0569772E-2,1.0692871E-2,-5.3261095E-3,-4.1715517E-3,6.4801364E-3,-2.0155485E-3,1.92433E-2],"split_indices":[0,41,0,14,31,48,31,2,29,0,0,0,0,0,0,0,0],"split_type":[0,0,0,0,0,0,0,0,0,0,0,0,0,0,0,0,0],"sum_hessian":[9.731832E2,9.524892E2,2.0694036E1,2.4967224E2,7.0281696E2,8.301278E1,1.6665945E2,6.003872E2,1.0242975E2,2.7965256E1,5.504752E1,3.7406193E1,1.2925327E2,4.2053476E2,1.7985243E2,4.3110344E1,5.9319405E1],"tree_param":{"num_deleted":"0","num_feature":"49","num_nodes":"17","size_leaf_vector":"1"}},{"base_weights":[-1.9737864E-3,-1.7228646E-2,2.4346482E-2,-2.740414E-1,1.0330861E-2,-9.947603E-4,-5.6566936E-1,-1.1172899E-1,7.5827315E-2,-1.5944617E-2,1.2568723E-2,-9.2391325E-3,-3.26233E-2,1.2706326E-3,-1.0569291E-2,7.211399E-3,-1.4744283E-3],"categories":[],"categories_nodes":[],"categories_segments":[],"categories_sizes":[],"default_left":[0,0,0,0,0,0,0,0,0,0,0,0,0,0,0,0,0],"id":41,"left_children":[1,3,-1,5,7,9,11,13,15,-1,-1,-1,-1,-1,-1,-1,-1],"loss_changes":[9.128352E0,6.8409047E0,0E0,7.4003615E0,6.9648633E0,6.4693604E0,3.385828E0,6.6864133E0,6.7062902E0,0E0,0E0,0E0,0E0,0E0,0E0,0E0,0E0],"parents":[2147483647,0,0,1,1,3,3,4,4,5,5,6,6,7,7,8,8],"right_children":[2,4,-1,6,8,10,12,14,16,-1,-1,-1,-1,-1,-1,-1,-1],"split_conditions":[1.188E1,9.6E1,2.4346482E-2,5.95E-1,8.7096775E-1,1.5661001E-1,2.2386211E-1,5E-2,2.3275216E-1,-1.5944617E-2,1.2568723E-2,-9.2391325E-3,-3.26233E-2,1.2706326E-3,-1.0569291E-2,7.211399E-3,-1.4744283E-3],"split_indices":[11,18,0,20,14,24,25,43,25,0,0,0,0,0,0,0,0],"split_type":[0,0,0,0,0,0,0,0,0,0,0,0,0,0,0,0,0],"sum_hessian":[9.831059E2,9.6072656E2,2.2379358E1,9.215887E1,8.685677E2,4.8550148E1,4.3608723E1,3.024092E2,5.661585E2,2.1433514E1,2.7116634E1,2.0047289E1,2.3561434E1,1.5608041E2,1.4632878E2,2.9380222E2,2.7235626E2],"tree_param":{"num_deleted":"0","num_feature":"49","num_nodes":"17","size_leaf_vector":"1"}},{"base_weights":[-1.2332568E-2,-2.630534E-1,2.4525758E-2,-3.741136E-1,1.0884308E-2,-1.8195415E-1,7.4154116E-2,-7.49052E-2,-5.740299E-1,-3.158558E-2,-8.526821E-2,2.01169E-2,2.787406E-1,9.558991E-3,-1.4995746E-2,-3.3790138E-2,-1.3867946E-2,-1.25913005E-2,4.9242782E-3,2.7317576E-2,-3.6133887E-4,2.5328849E-2,6.2688366E-3],"categories":[],"categories_nodes":[],"categories_segments":[],"categories_sizes":[],"default_left":[0,0,0,0,0,0,0,0,0,0,0,0,0,0,0,0,0,0,0,0,0,0,0],"id":42,"left_children":[1,3,5,7,-1,9,11,13,15,-1,17,19,21,-1,-1,-1,-1,-1,-1,-1,-1,-1,-1],"loss_changes":[9.032441E0,7.6091394E0,8.719663E0,6.1237545E0,0E0,9.491719E0,7.5538845E0,4.2718897E0,3.272152E0,0E0,6.962417E0,1.0611902E1,5.956833E0,0E0,0E0,0E0,0E0,0E0,0E0,0E0,0E0,0E0,0E0],"parents":[2147483647,0,0,1,1,2,2,3,3,5,5,6,6,7,7,8,8,10,10,11,11,12,12],"right_children":[2,4,6,8,-1,10,12,14,16,-1,18,20,22,-1,-1,-1,-1,-1,-1,-1,-1,-1,-1],"split_conditions":[5.5E-1,6.61E-1,3.0555555E-1,5.970149E-1,1.0884308E-2,2.347826E0,6.46875E0,2.5660825E-1,9.672131E1,-3.158558E-2,1.16E0,1.0596266E-1,9.475465E-2,9.558991E-3,-1.4995746E-2,-3.3790138E-2,-1.3867946E-2,-1.25913005E-2,4.9242782E-3,2.7317576E-2,-3.6133887E-4,2.5328849E-2,6.2688366E-3],"split_indices":[42,20,23,16,0,0,11,46,41,0,42,47,4,0,0,0,0,0,0,0,0,0,0],"split_type":[0,0,0,0,0,0,0,0,0,0,0,0,0,0,0,0,0,0,0,0,0,0,0],"sum_hessian":[9.7228687E2,1.2378356E2,8.485033E2,1.03038574E2,2.074499E1,1.632565E2,6.8524677E2,4.22967E1,6.074188E1,2.0791842E1,1.4246466E2,5.4376025E2,1.4148654E2,2.065596E1,2.164074E1,2.5664637E1,3.507724E1,6.765745E1,7.4807205E1,2.1633984E1,5.221263E2,3.4412025E1,1.0707452E2],"tree_param":{"num_deleted":"0","num_feature":"49","num_nodes":"23","size_leaf_vector":"1"}},{"base_weights":[1.6343169E-2,7.708905E-2,-1.0184952E-1,-2.2866875E-2,2.5221753E-1,-1.5882526E-1,1.2586931E-2,-2.390927E-2,2.3051813E-2,3.935748E-1,3.408731E-2,-2.0954841E-1,1.2009353E-2,-4.109427E-3,6.3464385E-3,5.3062877E-3,2.2646317E-2,7.596129E-3,-1.1194877E-2,-1.0978951E-2,7.287821E-3],"categories":[],"categories_nodes":[],"categories_segments":[],"categories_sizes":[],"default_left":[0,0,0,0,0,0,0,0,0,0,0,0,0,0,0,0,0,0,0,0,0],"id":43,"left_children":[1,3,5,7,9,11,-1,-1,13,15,17,19,-1,-1,-1,-1,-1,-1,-1,-1,-1],"loss_changes":[6.991814E0,1.1301234E1,7.8965816E0,1.0923942E1,7.1652546E0,6.877796E0,0E0,0E0,6.5421386E0,6.203642E0,4.674006E0,6.792906E0,0E0,0E0,0E0,0E0,0E0,0E0,0E0,0E0,0E0],"parents":[2147483647,0,0,1,1,2,2,3,3,4,4,5,5,8,8,9,9,10,10,11,11],"right_children":[2,4,6,8,10,12,-1,-1,14,16,18,20,-1,-1,-1,-1,-1,-1,-1,-1,-1],"split_conditions":[2.6666668E-1,5.0625E0,8.3E2,2.1176472E0,1.11E-1,2.12E0,1.2586931E-2,-2.390927E-2,1.15E0,9.2E1,8.695662E-2,1.1141211E-1,1.2009353E-2,-4.109427E-3,6.3464385E-3,5.3062877E-3,2.2646317E-2,7.596129E-3,-1.1194877E-2,-1.0978951E-2,7.287821E-3],"split_indices":[1,11,39,0,8,42,0,0,42,6,31,31,0,0,0,0,0,0,0,0,0],"split_type":[0,0,0,0,0,0,0,0,0,0,0,0,0,0,0,0,0,0,0,0,0],"sum_hessian":[9.710329E2,6.422911E2,3.2874182E2,4.09372E2,2.3291905E2,2.9021213E2,3.8529716E1,2.9108543E1,3.8026346E2,1.4032066E2,9.2598404E1,2.6226645E2,2.794567E1,1.9708179E2,1.8318169E2,5.7150623E1,8.317004E1,6.2494167E1,3.0104233E1,2.255838E2,3.668265E1],"tree_param":{"num_deleted":"0","num_feature":"49","num_nodes":"21","size_leaf_vector":"1"}},{"base_weights":[5.6826565E-3,-8.8810205E-2,1.0857666E-1,-1.2203191E-1,2.4703181E-1,5.16895E-1,6.526482E-2,-2.006094E-2,-8.4980175E-2,2.0900201E-2,-0E0,9.923049E-3,2.8970132E-2,-2.4672565E-1,1.1797962E-1,-9.078015E-3,2.8977578E-3,-2.2619905E-2,2.180064E-3,1.0069255E-2,-1.0112518E-3],"categories":[],"categories_nodes":[],"categories_segments":[],"categories_sizes":[],"default_left":[0,0,0,0,0,0,0,0,0,0,0,0,0,0,0,0,0,0,0,0,0],"id":44,"left_children":[1,3,5,7,9,11,13,-1,15,-1,-1,-1,-1,17,19,-1,-1,-1,-1,-1,-1],"loss_changes":[9.364692E0,5.628311E0,8.052135E0,6.3123684E0,3.132042E0,2.075673E0,6.924263E0,0E0,9.404314E0,0E0,0E0,0E0,0E0,5.934999E0,6.9274273E0,0E0,0E0,0E0,0E0,0E0,0E0],"parents":[2147483647,0,0,1,1,2,2,3,3,4,4,5,5,6,6,8,8,13,13,14,14],"right_children":[2,4,6,8,10,12,14,-1,16,-1,-1,-1,-1,18,20,-1,-1,-1,-1,-1,-1],"split_conditions":[2.611031E-1,9E0,7.4074075E-2,1.5044248E-1,2.7542287E-1,2.80963E-1,5.8E-1,-2.006094E-2,2.587473E-1,2.0900201E-2,-0E0,9.923049E-3,2.8970132E-2,1.6E-3,6.23E-1,-9.078015E-3,2.8977578E-3,-2.2619905E-2,2.180064E-3,1.0069255E-2,-1.0112518E-3],"split_indices":[46,11,15,12,45,45,42,0,45,0,0,0,0,38,9,0,0,0,0,0,0],"split_type":[0,0,0,0,0,0,0,0,0,0,0,0,0,0,0,0,0,0,0,0,0],"sum_hessian":[9.5998236E2,5.000209E2,4.599615E2,4.5615088E2,4.3870026E1,4.231649E1,4.17645E2,3.8662186E1,4.1748868E2,2.0113503E1,2.3756523E1,2.0072004E1,2.2244484E1,5.9294605E1,3.583504E2,2.1950484E2,1.9798386E2,2.8330269E1,3.0964336E1,1.8509947E2,1.7325092E2],"tree_param":{"num_deleted":"0","num_feature":"49","num_nodes":"21","size_leaf_vector":"1"}},{"base_weights":[-1.0367474E-2,-2.8274698E-2,6.0467934E-3,-2.3159249E-2,2.285361E-2,-6.119751E-4,4.5612463E-1,4.088644E-3,-3.7344838E-3,2.9047227E-2,5.32717E-3],"categories":[],"categories_nodes":[],"categories_segments":[],"categories_sizes":[],"default_left":[0,0,0,0,0,0,0,0,0,0,0],"id":45,"left_children":[1,-1,3,-1,5,7,9,-1,-1,-1,-1],"loss_changes":[1.1192694E1,0E0,9.317756E0,0E0,9.463965E0,8.4064665E0,3.9389133E0,0E0,0E0,0E0,0E0],"parents":[2147483647,0,0,2,2,4,4,5,5,6,6],"right_children":[2,-1,4,-1,6,8,10,-1,-1,-1,-1],"split_conditions":[2.5134504E-1,-2.8274698E-2,8.934426E1,-2.3159249E-2,3.097909E-1,2.3076923E-1,1.1281071E-1,4.088644E-3,-3.7344838E-3,2.9047227E-2,5.32717E-3],"split_indices":[22,0,41,0,25,1,15,0,0,0,0],"split_type":[0,0,0,0,0,0,0,0,0,0,0],"sum_hessian":[9.708302E2,2.10401E1,9.4979016E2,2.4956491E1,9.248336E2,8.785208E2,4.6312847E1,4.1604184E2,4.6247894E2,2.4033108E1,2.227974E1],"tree_param":{"num_deleted":"0","num_feature":"49","num_nodes":"11","size_leaf_vector":"1"}},{"base_weights":[-5.4358495E-3,2.3689325E-1,-3.686364E-2,-6.793542E-2,4.4318512E-1,-2.2622508E-1,6.4138975E-3,-1.3111119E-2,6.2523726E-3,3.2623474E-2,2.3759404E-1,2.7224293E-2,-4.077736E-1,-3.6454064E-1,3.4568686E-2,-2.2571508E-3,2.0109475E-2,-8.399793E-3,1.1236322E-2,-3.4629714E-2,-1.0356805E-2,-3.3573534E-2,2.344228E-3,-3.274923E-4,1.0117043E-2],"categories":[],"categories_nodes":[],"categories_segments":[],"categories_sizes":[],"default_left":[0,0,0,0,0,0,0,0,0,0,0,0,0,0,0,0,0,0,0,0,0,0,0,0,0],"id":46,"left_children":[1,3,5,7,9,11,13,-1,-1,-1,15,17,19,21,23,-1,-1,-1,-1,-1,-1,-1,-1,-1,-1],"loss_changes":[7.4389334E0,7.1304064E0,7.1301146E0,2.7941206E0,4.751771E0,7.4985876E0,7.36806E0,0E0,0E0,0E0,3.6428435E0,4.2295136E0,5.9989815E0,1.0145363E1,6.176148E0,0E0,0E0,0E0,0E0,0E0,0E0,0E0,0E0,0E0,0E0],"parents":[2147483647,0,0,1,1,2,2,3,3,4,4,5,5,6,6,10,10,11,11,12,12,13,13,14,14],"right_children":[2,4,6,8,10,12,14,-1,-1,-1,16,18,20,22,24,-1,-1,-1,-1,-1,-1,-1,-1,-1,-1],"split_conditions":[5.82E-1,1.01E2,3.0537876E-1,1.13E0,3.2210883E-1,9.7E1,4.2E-1,-1.3111119E-2,6.2523726E-3,3.2623474E-2,1.06575966E-1,1.0606061E-1,6E-1,9.9E1,1.07E2,-2.2571508E-3,2.0109475E-2,-8.399793E-3,1.1236322E-2,-3.4629714E-2,-1.0356805E-2,-3.3573534E-2,2.344228E-3,-3.274923E-4,1.0117043E-2],"split_indices":[20,35,23,42,23,6,42,0,0,0,44,2,14,17,18,0,0,0,0,0,0,0,0,0,0],"split_type":[0,0,0,0,0,0,0,0,0,0,0,0,0,0,0,0,0,0,0,0,0,0,0,0,0],"sum_hessian":[9.761742E2,1.1057548E2,8.655987E2,4.4839436E1,6.573604E1,1.6027649E2,7.053222E2,2.0656828E1,2.4182608E1,2.1626135E1,4.4109905E1,6.719446E1,9.308203E1,4.8241467E1,6.5708075E2,2.1296904E1,2.2813002E1,3.465385E1,3.2540607E1,2.0896137E1,7.218589E1,2.214939E1,2.6092077E1,5.5031146E2,1.06769264E2],"tree_param":{"num_deleted":"0","num_feature":"49","num_nodes":"25","size_leaf_vector":"1"}},{"base_weights":[8.681127E-3,-9.525332E-3,4.0757376E-1,-4.295753E-2,1.8767016E-1,2.5148213E-2,6.0506524E-3,-8.937642E-2,1.20500214E-1,4.3258134E-1,3.881153E-2,-1.3466505E-2,-1.3692692E-3,-1.074293E-2,7.7338377E-3,4.5842747E-3,2.9011743E-2,-5.3634006E-3,2.2372851E-2],"categories":[],"categories_nodes":[],"categories_segments":[],"categories_sizes":[],"default_left":[0,0,0,0,0,0,0,0,0,0,0,0,0,0,0,0,0,0,0],"id":47,"left_children":[1,3,5,7,9,-1,-1,11,13,15,17,-1,-1,-1,-1,-1,-1,-1,-1],"loss_changes":[7.180618E0,6.19998E0,2.225461E0,6.129118E0,4.894053E0,0E0,0E0,8.524733E0,5.127849E0,4.5470867E0,7.951146E0,0E0,0E0,0E0,0E0,0E0,0E0,0E0,0E0],"parents":[2147483647,0,0,1,1,2,2,3,3,4,4,7,7,8,8,9,9,10,10],"right_children":[2,4,6,8,10,-1,-1,12,14,16,18,-1,-1,-1,-1,-1,-1,-1,-1],"split_conditions":[3.6E0,1.07E2,9.1603056E-2,1.96875E0,1.06E-1,2.5148213E-2,6.0506524E-3,1.3897961E-1,8.9E1,9.413854E-2,1.05E2,-1.3466505E-2,-1.3692692E-3,-1.074293E-2,7.7338377E-3,4.5842747E-3,2.9011743E-2,-5.3634006E-3,2.2372851E-2],"split_indices":[3,18,13,14,8,0,0,48,17,4,7,0,0,0,0,0,0,0,0],"split_type":[0,0,0,0,0,0,0,0,0,0,0,0,0,0,0,0,0,0,0],"sum_hessian":[9.809531E2,9.3929486E2,4.1658283E1,8.0456976E2,1.3472508E2,2.0984318E1,2.0673965E1,6.276272E2,1.7694257E2,4.9595997E1,8.512909E1,1.1271343E2,5.1491376E2,2.7052176E1,1.498904E2,2.4936409E1,2.4659586E1,6.459439E1,2.0534698E1],"tree_param":{"num_deleted":"0","num_feature":"49","num_nodes":"19","size_leaf_vector":"1"}},{"base_weights":[5.6498777E-3,-2.0115817E-2,2.0262813E-2,-1.5231109E-1,5.9875045E-2,-2.0440651E-2,-4.330275E-2,-6.4866366E-3,2.2996545E-1,1.1955453E-2,-8.31519E-3,2.6438816E-3,-5.41451E-3,4.59526E-3,2.3295404E-2],"categories":[],"categories_nodes":[],"categories_segments":[],"categories_sizes":[],"default_left":[0,0,0,0,0,0,0,0,0,0,0,0,0,0,0],"id":48,"left_children":[1,-1,3,5,7,-1,9,11,13,-1,-1,-1,-1,-1,-1],"loss_changes":[7.3098626E0,0E0,6.581556E0,6.9327974E0,8.8746195E0,0E0,7.9441276E0,5.305929E0,8.773503E0,0E0,0E0,0E0,0E0,0E0,0E0],"parents":[2147483647,0,0,2,2,3,3,4,4,6,6,7,7,8,8],"right_children":[2,-1,4,6,8,-1,10,12,14,-1,-1,-1,-1,-1,-1],"split_conditions":[8.934426E1,-2.0115817E-2,3.0555555E-1,5.8064514E-1,1.6666667E-1,-2.0440651E-2,1.00465E0,1.1702128E-1,6.48E-1,1.1955453E-2,-8.31519E-3,2.6438816E-3,-5.41451E-3,4.59526E-3,2.3295404E-2],"split_indices":[41,0,23,14,29,0,36,15,20,0,0,0,0,0,0],"split_type":[0,0,0,0,0,0,0,0,0,0,0,0,0,0,0],"sum_hessian":[9.865911E2,2.5966461E1,9.6062463E2,1.7806743E2,7.825572E2,3.999846E1,1.3806897E2,5.6354285E2,2.1901439E2,4.4244305E1,9.382467E1,3.604758E2,2.0306703E2,1.6681352E2,5.2200855E1],"tree_param":{"num_deleted":"0","num_feature":"49","num_nodes":"15","size_leaf_vector":"1"}},{"base_weights":[-2.8918972E-2,-2.0529617E-1,2.7266433E-3,-4.9755788E-1,-5.7795092E-2,-6.258553E-2,9.081392E-2,-8.084081E-3,-3.447121E-2,1.0630656E-1,-2.2995705E-2,-3.6074363E-2,-2.032022E-2,-2.4547651E-1,1.4732997E-1,1.9090733E-2,-5.6254845E-3,-7.741266E-3,1.9874978E-3,1.0284028E-3,-2.4094904E-2,-2.5079434E-3,1.1212228E-2],"categories":[],"categories_nodes":[],"categories_segments":[],"categories_sizes":[],"default_left":[0,0,0,0,0,0,0,0,0,0,0,0,0,0,0,0,0,0,0,0,0,0,0],"id":49,"left_children":[1,3,5,7,9,11,13,-1,-1,15,-1,17,-1,19,21,-1,-1,-1,-1,-1,-1,-1,-1],"loss_changes":[5.4789042E0,6.3354673E0,4.7869086E0,4.9738264E0,8.718932E0,5.54955E0,6.7854285E0,0E0,0E0,7.2683563E0,0E0,6.131593E0,0E0,5.0497303E0,8.56197E0,0E0,0E0,0E0,0E0,0E0,0E0,0E0,0E0],"parents":[2147483647,0,0,1,1,2,2,3,3,4,4,5,5,6,6,9,9,11,11,13,13,14,14],"right_children":[2,4,6,8,10,12,14,-1,-1,16,-1,18,-1,20,22,-1,-1,-1,-1,-1,-1,-1,-1],"split_conditions":[3.0648148E-1,2.4082541E-1,4.95E-3,3.1059673E-1,1.25E-1,3.2179704E-1,2.1176472E0,-8.084081E-3,-3.447121E-2,1.0433071E-1,-2.2995705E-2,8.7096775E-1,-2.032022E-2,1.1468813E-1,9.351351E1,1.9090733E-2,-5.6254845E-3,-7.741266E-3,1.9874978E-3,1.0284028E-3,-2.4094904E-2,-2.5079434E-3,1.1212228E-2],"split_indices":[27,45,38,22,2,45,0,0,0,4,0,14,0,15,41,0,0,0,0,0,0,0,0],"split_type":[0,0,0,0,0,0,0,0,0,0,0,0,0,0,0,0,0,0,0,0,0,0,0],"sum_hessian":[9.7632745E2,1.4775305E2,8.2857434E2,4.813652E1,9.961654E1,4.7539355E2,3.531808E2,2.8016516E1,2.0120007E1,7.6376564E1,2.3239975E1,4.5043018E2,2.496338E1,4.9838646E1,3.0334216E2,3.012633E1,4.6250233E1,1.5857329E2,2.918569E2,2.8951597E1,2.0887049E1,1.17615326E2,1.8572684E2],"tree_param":{"num_deleted":"0","num_feature":"49","num_nodes":"23","size_leaf_vector":"1"}},{"base_weights":[-1.8456232E-2,-5.659942E-2,1.6697374E-1,-1.7251088E-1,4.0487438E-3,1.1273109E-2,5.6067026E-1,-3.8301983E-1,-6.035664E-2,-2.640957E-2,3.619301E-1,2.0000969E-1,-3.443522E-1,8.571781E-3,3.5381556E-2,-3.127815E-2,-8.838753E-3,-9.992337E-3,5.1318277E-3,-4.842483E-3,4.724401E-3,2.4111386E-2,3.565799E-3,2.2968471E-2,-7.451198E-4,-4.5128986E-3,-2.158661E-2],"categories":[],"categories_nodes":[],"categories_segments":[],"categories_sizes":[],"default_left":[0,0,0,0,0,0,0,0,0,0,0,0,0,0,0,0,0,0,0,0,0,0,0,0,0,0,0],"id":50,"left_children":[1,3,5,7,9,11,13,15,17,19,21,23,25,-1,-1,-1,-1,-1,-1,-1,-1,-1,-1,-1,-1,-1,-1],"loss_changes":[6.9186864E0,5.729689E0,1.0154554E1,6.5245E0,5.872141E0,8.22385E0,4.8830824E0,5.8873873E0,6.6567907E0,6.7730217E0,2.6271968E0,6.6423035E0,1.7603011E0,0E0,0E0,0E0,0E0,0E0,0E0,0E0,0E0,0E0,0E0,0E0,0E0,0E0,0E0],"parents":[2147483647,0,0,1,1,2,2,3,3,4,4,5,5,6,6,7,7,8,8,9,9,10,10,11,11,12,12],"right_children":[2,4,6,8,10,12,14,16,18,20,22,24,26,-1,-1,-1,-1,-1,-1,-1,-1,-1,-1,-1,-1,-1,-1],"split_conditions":[2.9468608E-1,8.7096775E-1,6.75E0,1.4970833E-1,2.4188371E-1,1.1214953E-1,2.0968468E-1,5.777778E-1,1.105E0,1.0047929E-1,1.2E0,1.07E-1,9.6E-2,8.571781E-3,3.5381556E-2,-3.127815E-2,-8.838753E-3,-9.992337E-3,5.1318277E-3,-4.842483E-3,4.724401E-3,2.4111386E-2,3.565799E-3,2.2968471E-2,-7.451198E-4,-4.5128986E-3,-2.158661E-2],"split_indices":[46,14,0,48,47,2,29,16,42,44,3,19,13,0,0,0,0,0,0,0,0,0,0,0,0,0,0],"split_type":[0,0,0,0,0,0,0,0,0,0,0,0,0,0,0,0,0,0,0,0,0,0,0,0,0,0,0],"sum_hessian":[9.762542E2,8.110098E2,1.6524435E2,2.781976E2,5.3281226E2,1.19701355E2,4.5543E1,9.512935E1,1.8306825E2,4.9204547E2,4.076677E1,7.881201E1,4.0889343E1,2.3360428E1,2.2182573E1,2.5644104E1,6.948525E1,9.136244E1,9.17058E1,2.978834E2,1.9416206E2,2.0492126E1,2.0274645E1,2.8334661E1,5.047735E1,2.0027111E1,2.0862234E1],"tree_param":{"num_deleted":"0","num_feature":"49","num_nodes":"27","size_leaf_vector":"1"}},{"base_weights":[5.884755E-3,-5.0579432E-2,1.834676E-1,-2.8091213E-1,-8.106532E-3,4.1937807E-1,2.9145053E-2,-1.1770515E-1,-5.523036E-1,-4.9913973E-2,2.3264745E-1,-7.0668994E-3,6.504034E-1,2.1597702E-2,-8.068647E-2,9.848731E-3,-1.277406E-2,-3.5645254E-2,-6.7705265E-3,-8.7015686E-4,-2.4267448E-2,1.8806104E-2,-2.9007497E-3,4.4163395E-2,1.664777E-2,-1.275563E-2,8.379928E-3],"categories":[],"categories_nodes":[],"categories_segments":[],"categories_sizes":[],"default_left":[0,0,0,0,0,0,0,0,0,0,0,0,0,0,0,0,0,0,0,0,0,0,0,0,0,0,0],"id":51,"left_children":[1,3,5,7,9,11,13,15,17,19,21,-1,23,-1,25,-1,-1,-1,-1,-1,-1,-1,-1,-1,-1,-1,-1],"loss_changes":[9.729241E0,7.1571484E0,8.462532E0,4.8851137E0,6.263756E0,1.2921728E1,8.158518E0,5.506388E0,5.1415815E0,8.256821E0,6.758937E0,0E0,6.269125E0,0E0,8.350629E0,0E0,0E0,0E0,0E0,0E0,0E0,0E0,0E0,0E0,0E0,0E0,0E0],"parents":[2147483647,0,0,1,1,2,2,3,3,4,4,5,5,6,6,7,7,8,8,9,9,10,10,12,12,14,14],"right_children":[2,4,6,8,10,12,14,16,18,20,22,-1,24,-1,26,-1,-1,-1,-1,-1,-1,-1,-1,-1,-1,-1,-1],"split_conditions":[1.59E0,9.2753624E1,9.8E1,1.01E2,1.40625E-1,9.102564E1,1.72E0,8.356627E-2,1.07E2,1.2962963E-1,2.5E-1,-7.0668994E-3,5.9375E-1,2.1597702E-2,6.28E-1,9.848731E-3,-1.277406E-2,-3.5645254E-2,-6.7705265E-3,-8.7015686E-4,-2.4267448E-2,1.8806104E-2,-2.9007497E-3,4.4163395E-2,1.664777E-2,-1.275563E-2,8.379928E-3],"split_indices":[42,41,17,6,13,41,42,26,6,13,1,0,5,0,9,0,0,0,0,0,0,0,0,0,0,0,0],"split_type":[0,0,0,0,0,0,0,0,0,0,0,0,0,0,0,0,0,0,0,0,0,0,0,0,0,0,0],"sum_hessian":[9.660839E2,7.334015E2,2.3268246E2,1.1250513E2,6.2089636E2,9.07421E1,1.4194035E2,7.1828545E1,4.0676575E1,5.303963E2,9.050007E1,2.532446E1,6.541764E1,2.4240501E1,1.1769985E2,2.5314482E1,4.6514065E1,2.0389647E1,2.028693E1,5.0651627E2,2.3880022E1,5.062011E1,3.987996E1,2.0230827E1,4.5186817E1,6.474706E1,5.295279E1],"tree_param":{"num_deleted":"0","num_feature":"49","num_nodes":"27","size_leaf_vector":"1"}},{"base_weights":[2.2723189E-2,8.903214E-2,-7.165659E-2,-5.21734E-2,2.5550982E-1,-1.1722927E-1,1.8413551E-2,-1.9962193E-2,2.2705228E-3,-1.2146233E-2,4.0278462E-1,-3.7340426E-1,-3.0748568E-2,3.907099E-3,-1.0653555E-2,-8.481612E-3,1.8681934E-2,1.1465982E-2,3.0568665E-2,-3.0974424E-2,-8.938693E-3,2.794132E-3,-1.2404754E-2],"categories":[],"categories_nodes":[],"categories_segments":[],"categories_sizes":[],"default_left":[0,0,0,0,0,0,0,0,0,0,0,0,0,0,0,0,0,0,0,0,0,0,0],"id":52,"left_children":[1,3,5,7,9,11,-1,-1,13,15,17,19,21,-1,-1,-1,-1,-1,-1,-1,-1,-1,-1],"loss_changes":[6.114774E0,1.3536318E1,9.808886E0,7.631498E0,1.0455284E1,8.189398E0,0E0,0E0,7.172496E0,9.217101E0,6.728018E0,5.263195E0,7.9324675E0,0E0,0E0,0E0,0E0,0E0,0E0,0E0,0E0,0E0,0E0],"parents":[2147483647,0,0,1,1,2,2,3,3,4,4,5,5,8,8,9,9,10,10,11,11,12,12],"right_children":[2,4,6,8,10,12,-1,-1,14,16,18,20,22,-1,-1,-1,-1,-1,-1,-1,-1,-1,-1],"split_conditions":[2.519685E-1,2.0408164E-1,1.2546831E-1,2.1176472E0,8.7096775E-1,1.4570868E-1,1.8413551E-2,-1.9962193E-2,1.0013277E-1,1.1281071E-1,1.0859144E-1,5.625E-1,3.280543E-1,3.907099E-3,-1.0653555E-2,-8.481612E-3,1.8681934E-2,1.1465982E-2,3.0568665E-2,-3.0974424E-2,-8.938693E-3,2.794132E-3,-1.2404754E-2],"split_indices":[1,1,31,0,14,48,0,0,31,4,26,3,28,0,0,0,0,0,0,0,0,0,0],"split_type":[0,0,0,0,0,0,0,0,0,0,0,0,0,0,0,0,0,0,0,0,0,0,0],"sum_hessian":[9.7377136E2,5.726123E2,4.0115906E2,3.1005472E2,2.6255762E2,3.7075616E2,3.0402899E1,3.2541096E1,2.775136E2,9.34392E1,1.6911842E2,9.2024925E1,2.7873123E2,2.0575769E2,7.175592E1,6.6672134E1,2.6767069E1,1.3023706E2,3.888135E1,2.3164743E1,6.886018E1,2.0549796E2,7.3233284E1],"tree_param":{"num_deleted":"0","num_feature":"49","num_nodes":"23","size_leaf_vector":"1"}},{"base_weights":[-1.0775361E-2,-2.3505894E-2,2.183579E-2,-1.7513777E-1,2.1846503E-2,1.19749784E-1,-2.9236874E-1,-2.3976737E-1,7.0671275E-2,-9.435018E-3,2.421398E-2,-1.5045134E-2,5.0021606E-3,1.1832042E-2,-1.4457009E-2,-5.6441617E-3,6.5842E-3],"categories":[],"categories_nodes":[],"categories_segments":[],"categories_sizes":[],"default_left":[0,0,0,0,0,0,0,0,0,0,0,0,0,0,0,0,0],"id":53,"left_children":[1,3,-1,5,7,9,11,13,15,-1,-1,-1,-1,-1,-1,-1,-1],"loss_changes":[6.9378695E0,6.645381E0,0E0,7.759939E0,9.490367E0,1.1320671E1,5.684598E0,7.775164E0,1.2511057E1,0E0,0E0,0E0,0E0,0E0,0E0,0E0,0E0],"parents":[2147483647,0,0,1,1,3,3,4,4,5,5,6,6,7,7,8,8],"right_children":[2,4,-1,6,8,10,12,14,16,-1,-1,-1,-1,-1,-1,-1,-1],"split_conditions":[1.188E1,7.496871E-2,2.183579E-2,1E2,6.1E-1,8.96844E-2,1.06E2,3.1703246E-1,9.2655365E1,-9.435018E-3,2.421398E-2,-1.5045134E-2,5.0021606E-3,1.1832042E-2,-1.4457009E-2,-5.6441617E-3,6.5842E-3],"split_indices":[11,31,0,7,42,26,18,28,41,0,0,0,0,0,0,0,0],"split_type":[0,0,0,0,0,0,0,0,0,0,0,0,0,0,0,0,0],"sum_hessian":[9.821531E2,9.617745E2,2.0378597E1,2.2095215E2,7.408223E2,6.2600094E1,1.5835207E2,1.1526936E2,6.255529E2,3.6462513E1,2.613758E1,1.3221074E2,2.614132E1,2.0787676E1,9.448169E1,1.9165205E2,4.3390088E2],"tree_param":{"num_deleted":"0","num_feature":"49","num_nodes":"17","size_leaf_vector":"1"}},{"base_weights":[3.8245702E-3,-1.687052E-2,4.4441834E-1,-1.7801574E-2,-3.794356E-3,4.0299143E-3,3.0855523E-2,-1.7469223E-1,3.044459E-2,4.1816635E-3,-1.1548813E-2,1.07343625E-2,1.7103915E-4],"categories":[],"categories_nodes":[],"categories_segments":[],"categories_sizes":[],"default_left":[0,0,0,0,0,0,0,0,0,0,0,0,0],"id":54,"left_children":[1,3,5,-1,7,-1,-1,9,11,-1,-1,-1,-1],"loss_changes":[8.980885E0,5.1949224E0,4.7623186E0,0E0,5.349035E0,0E0,0E0,4.9241524E0,4.6975436E0,0E0,0E0,0E0,0E0],"parents":[2147483647,0,0,1,1,2,2,4,4,7,7,8,8],"right_children":[2,4,6,-1,8,-1,-1,10,12,-1,-1,-1,-1],"split_conditions":[3.6E0,8.934426E1,2.5498608E-1,-1.7801574E-2,6.80668E-2,4.0299143E-3,3.0855523E-2,9.4E1,7.587996E-2,4.1816635E-3,-1.1548813E-2,1.07343625E-2,1.7103915E-4],"split_indices":[3,41,45,0,26,0,0,6,26,0,0,0,0],"split_type":[0,0,0,0,0,0,0,0,0,0,0,0,0],"sum_hessian":[9.7752594E2,9.348316E2,4.2694294E1,2.6008377E1,9.0882324E2,2.1921322E1,2.0772972E1,1.5115019E2,7.5767303E2,4.3608597E1,1.075416E2,7.332529E1,6.843478E2],"tree_param":{"num_deleted":"0","num_feature":"49","num_nodes":"13","size_leaf_vector":"1"}},{"base_weights":[1.3772001E-3,-2.0583145E-1,3.9619885E-2,-3.4408176E-1,9.241033E-3,1.9479118E-2,1.6827159E-2,-3.1569414E-2,-2.2945662E-1,-2.7160026E-2,1.644212E-1,-1.6174717E-2,1.2476225E-3,-4.756821E-3,3.8369661E-3,-4.7857384E-3,1.5455346E-2],"categories":[],"categories_nodes":[],"categories_segments":[],"categories_sizes":[],"default_left":[0,0,0,0,0,0,0,0,0,0,0,0,0,0,0,0,0],"id":55,"left_children":[1,3,5,7,-1,9,-1,-1,11,13,15,-1,-1,-1,-1,-1,-1],"loss_changes":[7.643112E0,9.201941E0,6.2092657E0,5.487794E0,0E0,5.2744055E0,0E0,0E0,4.3253555E0,6.6692E0,1.2072262E1,0E0,0E0,0E0,0E0,0E0,0E0],"parents":[2147483647,0,0,1,1,2,2,3,3,5,5,8,8,9,9,10,10],"right_children":[2,4,6,8,-1,10,-1,-1,12,14,16,-1,-1,-1,-1,-1,-1],"split_conditions":[3.0790597E-1,1.0859509E0,9.692307E0,5E-1,9.241033E-3,1.58E0,1.6827159E-2,-3.1569414E-2,1.0718449E-1,1.0365405E0,9.189189E1,-1.6174717E-2,1.2476225E-3,-4.756821E-3,3.8369661E-3,-4.7857384E-3,1.5455346E-2],"split_indices":[27,36,0,3,0,42,0,0,44,36,41,0,0,0,0,0,0],"split_type":[0,0,0,0,0,0,0,0,0,0,0,0,0,0,0,0,0],"sum_hessian":[9.6357983E2,1.4869951E2,8.148803E2,1.13369446E2,3.5330067E1,7.75719E2,3.9161297E1,2.1228165E1,9.214128E1,5.872757E2,1.884433E2,5.487388E1,3.7267403E1,3.3694385E2,2.5033185E2,8.276398E1,1.0567932E2],"tree_param":{"num_deleted":"0","num_feature":"49","num_nodes":"17","size_leaf_vector":"1"}},{"base_weights":[-1.477123E-2,-3.7946343E-2,4.0738958E-1,-2.1167962E-2,-2.2863599E-2,7.111563E-3,2.771137E-2,-3.02752E-1,-4.303396E-3,-2.4310036E-2,-8.898137E-4,6.7227014E-4,-1.1619014E-2],"categories":[],"categories_nodes":[],"categories_segments":[],"categories_sizes":[],"default_left":[0,0,0,0,0,0,0,0,0,0,0,0,0],"id":56,"left_children":[1,3,5,-1,7,-1,-1,9,11,-1,-1,-1,-1],"loss_changes":[9.517077E0,6.780848E0,3.0437298E0,0E0,4.63887E0,0E0,0E0,4.6708107E0,5.1406837E0,0E0,0E0,0E0,0E0],"parents":[2147483647,0,0,1,1,2,2,4,4,7,7,8,8],"right_children":[2,4,6,-1,8,-1,-1,10,12,-1,-1,-1,-1],"split_conditions":[9.692307E0,8.934426E1,1.28E0,-2.1167962E-2,2.7819252E-1,7.111563E-3,2.771137E-2,6.1403507E-1,3.2740194E-1,-2.4310036E-2,-8.898137E-4,6.7227014E-4,-1.1619014E-2],"split_indices":[0,41,42,0,23,0,0,5,45,0,0,0,0],"split_type":[0,0,0,0,0,0,0,0,0,0,0,0,0],"sum_hessian":[9.726618E2,9.2356354E2,4.9098278E1,2.5790607E1,8.9777295E2,2.875204E1,2.0346237E1,5.406814E1,8.437048E2,2.489405E1,2.9174086E1,7.867321E2,5.697269E1],"tree_param":{"num_deleted":"0","num_feature":"49","num_nodes":"13","size_leaf_vector":"1"}},{"base_weights":[1.533068E-2,2.146726E-3,2.1819387E-2,-1.6448522E-2,3.3625773E-1,-4.314939E-1,3.6429379E-3,-4.323987E-3,2.6960798E-2,-8.811026E-3,-2.425521E-2,-1.1366372E-2,1.0152744E-3],"categories":[],"categories_nodes":[],"categories_segments":[],"categories_sizes":[],"default_left":[0,0,0,0,0,0,0,0,0,0,0,0,0],"id":57,"left_children":[1,3,-1,5,7,9,11,-1,-1,-1,-1,-1,-1],"loss_changes":[6.7294245E0,5.9363303E0,0E0,7.5511136E0,7.728262E0,1.2611599E0,5.364386E0,0E0,0E0,0E0,0E0,0E0,0E0],"parents":[2147483647,0,0,1,1,3,3,4,4,5,5,6,6],"right_children":[2,4,-1,6,8,10,12,-1,-1,-1,-1,-1,-1],"split_conditions":[1.188E1,3.097909E-1,2.1819387E-2,2.654684E-1,6.1445785E-1,1.1320755E-1,4.2E-1,-4.323987E-3,2.6960798E-2,-8.811026E-3,-2.425521E-2,-1.1366372E-2,1.0152744E-3],"split_indices":[11,25,0,28,5,4,42,0,0,0,0,0,0],"split_type":[0,0,0,0,0,0,0,0,0,0,0,0,0],"sum_hessian":[9.6937335E2,9.475053E2,2.1868015E1,8.986188E2,4.888658E1,4.0303318E1,8.583154E2,2.1424515E1,2.7462065E1,2.0049599E1,2.0253717E1,5.8684353E1,7.996311E2],"tree_param":{"num_deleted":"0","num_feature":"49","num_nodes":"13","size_leaf_vector":"1"}},{"base_weights":[-1.7729596E-3,-8.383949E-2,9.7090885E-2,-4.6161696E-1,-4.346215E-2,1.9721195E-2,5.4828998E-2,-3.240826E-2,-4.749001E-3,-1.0073795E-1,1.2956245E-1,-9.579034E-2,1.6235656E-1,-1.3773237E-2,-1.354614E-3,7.5465493E-4,2.3634562E-2,-7.67391E-3,1.04932925E-2,1.0914636E-2,-6.357505E-3],"categories":[],"categories_nodes":[],"categories_segments":[],"categories_sizes":[],"default_left":[0,0,0,0,0,0,0,0,0,0,0,0,0,0,0,0,0,0,0,0,0],"id":58,"left_children":[1,3,5,7,9,-1,11,-1,-1,13,15,17,19,-1,-1,-1,-1,-1,-1,-1,-1],"loss_changes":[7.7987137E0,7.940522E0,7.1923013E0,5.784835E0,4.7435083E0,0E0,6.434323E0,0E0,0E0,5.802855E0,5.9909935E0,5.7537374E0,8.301952E0,0E0,0E0,0E0,0E0,0E0,0E0,0E0,0E0],"parents":[2147483647,0,0,1,1,2,2,3,3,4,4,6,6,9,9,10,10,11,11,12,12],"right_children":[2,4,6,8,10,-1,12,-1,-1,14,16,18,20,-1,-1,-1,-1,-1,-1,-1,-1],"split_conditions":[2.627189E-1,9.2E-2,1.5044248E-1,9.3989075E1,6.692913E-1,1.9721195E-2,2.3255815E-1,-3.240826E-2,-4.749001E-3,5.99E-1,1.4143427E-1,2E0,6.43E-1,-1.3773237E-2,-1.354614E-3,7.5465493E-4,2.3634562E-2,-7.67391E-3,1.04932925E-2,1.0914636E-2,-6.357505E-3],"split_indices":[46,8,12,41,16,0,12,0,0,9,4,14,9,0,0,0,0,0,0,0,0],"split_type":[0,0,0,0,0,0,0,0,0,0,0,0,0,0,0,0,0,0,0,0,0],"sum_hessian":[9.5837085E2,5.2434955E2,4.340213E2,4.888138E1,4.754682E2,4.0087566E1,3.9393372E2,2.308096E1,2.5800417E1,3.5812408E2,1.17344086E2,1.6376854E2,2.3016519E2,7.547536E1,2.8264874E2,9.606904E1,2.127505E1,1.2990141E2,3.3867115E1,1.7165997E2,5.8505222E1],"tree_param":{"num_deleted":"0","num_feature":"49","num_nodes":"21","size_leaf_vector":"1"}},{"base_weights":[-9.636553E-3,2.0741055E-2,-2.3126187E-2,-3.1700712E-1,-1.6567716E-3,-2.341854E-2,2.1217105E-3,1.4535841E-2,-1.6742177E-2,-1.2562964E-3,1.682961E-2],"categories":[],"categories_nodes":[],"categories_segments":[],"categories_sizes":[],"default_left":[0,0,0,0,0,0,0,0,0,0,0],"id":59,"left_children":[1,-1,3,5,7,-1,-1,-1,9,-1,-1],"loss_changes":[6.8876247E0,0E0,5.9523964E0,6.4831347E0,4.8526945E0,0E0,0E0,0E0,5.449526E0,0E0,0E0],"parents":[2147483647,0,0,2,2,3,3,4,4,8,8],"right_children":[2,-1,4,6,8,-1,-1,-1,10,-1,-1],"split_conditions":[-1.19E0,2.0741055E-2,1.35E0,4.714286E0,1.25E-1,-2.341854E-2,2.1217105E-3,1.4535841E-2,1.0588235E1,-1.2562964E-3,1.682961E-2],"split_indices":[43,0,11,0,12,0,0,0,0,0,0],"split_type":[0,0,0,0,0,0,0,0,0,0,0],"sum_hessian":[9.6965027E2,2.2565521E1,9.470848E2,6.2755756E1,8.84329E2,3.6021008E1,2.6734749E1,3.345624E1,8.5087274E2,8.248434E2,2.6029406E1],"tree_param":{"num_deleted":"0","num_feature":"49","num_nodes":"11","size_leaf_vector":"1"}},{"base_weights":[-1.6693017E-3,-2.0077297E-2,1.7783936E-2,-5.7730947E-2,1.891866E-1,-3.7848394E-2,-4.11205E-1,-2.8591216E-2,4.0041694E-1,-2.8604707E-3,9.632561E-3,-6.437802E-3,-2.5198301E-2,2.0639548E-2,-1.1132628E-2,-6.655373E-4,2.3922488E-2],"categories":[],"categories_nodes":[],"categories_segments":[],"categories_sizes":[],"default_left":[0,0,0,0,0,0,0,0,0,0,0,0,0,0,0,0,0],"id":60,"left_children":[1,3,-1,5,7,9,11,13,15,-1,-1,-1,-1,-1,-1,-1,-1],"loss_changes":[8.007256E0,7.4191437E0,0E0,5.548439E0,6.6540475E0,7.124657E0,2.0757728E0,9.956886E0,6.103714E0,0E0,0E0,0E0,0E0,0E0,0E0,0E0,0E0],"parents":[2147483647,0,0,1,1,3,3,4,4,5,5,6,6,7,7,8,8],"right_children":[2,4,-1,6,8,10,12,14,16,-1,-1,-1,-1,-1,-1,-1,-1],"split_conditions":[1.8333334E-1,7.105263E0,1.7783936E-2,4.2336223E-1,3.3956972E-1,3.8076842E-1,2.1616162E-1,9.52381E-2,5.9375E-1,-2.8604707E-3,9.632561E-3,-6.437802E-3,-2.5198301E-2,2.0639548E-2,-1.1132628E-2,-6.655373E-4,2.3922488E-2],"split_indices":[2,0,0,27,27,27,25,15,5,0,0,0,0,0,0,0,0],"split_type":[0,0,0,0,0,0,0,0,0,0,0,0,0,0,0,0,0],"sum_hessian":[9.76762E2,9.396588E2,3.710318E1,7.976913E2,1.4196758E2,7.570514E2,4.0639847E1,7.030593E1,7.1661644E1,6.767693E2,8.028212E1,2.0382437E1,2.025741E1,2.1475037E1,4.8830894E1,2.3320454E1,4.834119E1],"tree_param":{"num_deleted":"0","num_feature":"49","num_nodes":"17","size_leaf_vector":"1"}},{"base_weights":[9.172645E-3,-1.5528738E-2,2.2170994E-1,1.1168043E-1,-7.019874E-2,-7.6044146E-3,4.0684304E-1,2.9959451E-2,4.3875757E-1,-4.33451E-1,-3.9407507E-2,2.6346082E-3,2.9130813E-2,-5.469195E-3,9.204728E-3,4.2939386E-3,2.9635618E-2,-6.91125E-3,-2.4867376E-2,-6.394555E-4,-1.9797908E-2],