{"learner":{"attributes":{"scikit_learn":"{\"_estimator_type\": \"regressor\"}"},"feature_names":["k_pct","bb_pct","k_minus_bb_pct","siera","xfip","fip","pitches_per_ip","swstr_pct","fstrike_pct","csw_pct","depth_score","avg_sp_outs","opp_lg_avg_k_pct","opp_lg_avg_woba","opp_lg_avg_obp","opp_lg_avg_bb_pct"],"feature_types":["float","float","float","float","float","float","float","float","float","float","float","float","float","float","float","float"],"gradient_booster":{"model":{"gbtree_model_param":{"num_parallel_tree":"1","num_trees":"300"},"iteration_indptr":[0,1,2,3,4,5,6,7,8,9,10,11,12,13,14,15,16,17,18,19,20,21,22,23,24,25,26,27,28,29,30,31,32,33,34,35,36,37,38,39,40,41,42,43,44,45,46,47,48,49,50,51,52,53,54,55,56,57,58,59,60,61,62,63,64,65,66,67,68,69,70,71,72,73,74,75,76,77,78,79,80,81,82,83,84,85,86,87,88,89,90,91,92,93,94,95,96,97,98,99,100,101,102,103,104,105,106,107,108,109,110,111,112,113,114,115,116,117,118,119,120,121,122,123,124,125,126,127,128,129,130,131,132,133,134,135,136,137,138,139,140,141,142,143,144,145,146,147,148,149,150,151,152,153,154,155,156,157,158,159,160,161,162,163,164,165,166,167,168,169,170,171,172,173,174,175,176,177,178,179,180,181,182,183,184,185,186,187,188,189,190,191,192,193,194,195,196,197,198,199,200,201,202,203,204,205,206,207,208,209,210,211,212,213,214,215,216,217,218,219,220,221,222,223,224,225,226,227,228,229,230,231,232,233,234,235,236,237,238,239,240,241,242,243,244,245,246,247,248,249,250,251,252,253,254,255,256,257,258,259,260,261,262,263,264,265,266,267,268,269,270,271,272,273,274,275,276,277,278,279,280,281,282,283,284,285,286,287,288,289,290,291,292,293,294,295,296,297,298,299,300],"tree_info":[0,0,0,0,0,0,0,0,0,0,0,0,0,0,0,0,0,0,0,0,0,0,0,0,0,0,0,0,0,0,0,0,0,0,0,0,0,0,0,0,0,0,0,0,0,0,0,0,0,0,0,0,0,0,0,0,0,0,0,0,0,0,0,0,0,0,0,0,0,0,0,0,0,0,0,0,0,0,0,0,0,0,0,0,0,0,0,0,0,0,0,0,0,0,0,0,0,0,0,0,0,0,0,0,0,0,0,0,0,0,0,0,0,0,0,0,0,0,0,0,0,0,0,0,0,0,0,0,0,0,0,0,0,0,0,0,0,0,0,0,0,0,0,0,0,0,0,0,0,0,0,0,0,0,0,0,0,0,0,0,0,0,0,0,0,0,0,0,0,0,0,0,0,0,0,0,0,0,0,0,0,0,0,0,0,0,0,0,0,0,0,0,0,0,0,0,0,0,0,0,0,0,0,0,0,0,0,0,0,0,0,0,0,0,0,0,0,0,0,0,0,0,0,0,0,0,0,0,0,0,0,0,0,0,0,0,0,0,0,0,0,0,0,0,0,0,0,0,0,0,0,0,0,0,0,0,0,0,0,0,0,0,0,0,0,0,0,0,0,0,0,0,0,0,0,0,0,0,0,0,0,0,0,0,0,0,0,0,0,0,0,0,0,0,0,0,0,0,0,0],"trees":[{"base_weights":[-1.4307006E-2,6.4290076E-1,-9.224898E-1,1.6273965E0,4.158565E-1,-7.141447E-1,-2.3084874E0,1.9653504E0,-5.0604755E-1,8.899962E-2,1.0648446E0,-5.816872E-1,-2.4702325E0,1.2528093E0,-2.9045641E0,2.0929496E0,-4.0820982E-2,1.7199342E-1,-1.3965971E0,3.0115712E-1,-9.130647E-1,4.5795846E0,7.9793763E-1,-1.2866927E0,-2.8711373E-1,-9.5975554E-1,-1.4892238E-1,4.4668913E-2,1.5213428E-1,-3.0537615E0,2.063427E-2,1.8474002E-1,8.256033E-2,3.5140254E-2,-2.9654328E-2,-8.0195986E-2,-1.9365741E-2,2.4552636E-2,-2.4095312E-2,-1.7049575E-2,-7.140358E-2,2.6241025E-1,3.0912017E-2,3.435424E-2,2.4719678E-1,-9.123292E-2,-2.4668898E-2,-3.4487847E-2,8.831866E-3,1.1634255E-2,-6.580185E-2,3.1999525E-2,-4.3532398E-2,-9.46602E-2,-1.6999558E-1],"categories":[],"categories_nodes":[],"categories_segments":[],"categories_sizes":[],"default_left":[0,0,0,0,0,0,0,0,0,0,0,0,0,0,0,0,0,0,0,0,0,0,0,0,0,0,0,0,0,0,0,0,0,0,0,0,0,0,0,0,0,0,0,0,0,0,0,0,0,0,0,0,0,0,0],"id":0,"left_children":[1,3,5,7,9,11,13,15,17,19,21,23,25,27,29,31,-1,33,35,37,39,41,43,45,47,49,-1,51,-1,53,-1,-1,-1,-1,-1,-1,-1,-1,-1,-1,-1,-1,-1,-1,-1,-1,-1,-1,-1,-1,-1,-1,-1,-1,-1],"loss_changes":[3.3125616E2,7.129802E1,6.563385E1,4.4254898E1,5.5694427E1,4.60149E1,6.732306E1,2.0166214E1,5.6746674E0,3.7691776E1,7.889935E1,3.9296684E1,7.888481E0,1.0676195E1,1.4128311E1,2.9279434E1,0E0,2.8535044E0,2.1576595E-1,2.1946882E1,8.646309E0,1.2647163E1,3.4749542E1,2.2999214E1,2.5516598E1,2.4304442E0,0E0,2.7368379E0,0E0,3.60643E0,0E0,0E0,0E0,0E0,0E0,0E0,0E0,0E0,0E0,0E0,0E0,0E0,0E0,0E0,0E0,0E0,0E0,0E0,0E0,0E0,0E0,0E0,0E0,0E0,0E0],"parents":[2147483647,0,0,1,1,2,2,3,3,4,4,5,5,6,6,7,7,8,8,9,9,10,10,11,11,12,12,13,13,14,14,15,15,17,17,18,18,19,19,20,20,21,21,22,22,23,23,24,24,25,25,27,27,29,29],"right_children":[2,4,6,8,10,12,14,16,18,20,22,24,26,28,30,32,-1,34,36,38,40,42,44,46,48,50,-1,52,-1,54,-1,-1,-1,-1,-1,-1,-1,-1,-1,-1,-1,-1,-1,-1,-1,-1,-1,-1,-1,-1,-1,-1,-1,-1,-1],"split_conditions":[1.6767443E1,3.37E0,1.8565737E1,2.65E1,2.2736667E-1,5.32E0,4.8E0,4.24E0,2.94E1,4.67E0,5.8E1,3.129E-1,5.83E1,6.69E0,6.5E-1,2.74E-1,-4.0820982E-2,2.89E0,5.6E0,5.5E-1,1.6289341E1,1.16E1,1.6736582E1,1.29E1,9.6E0,1.6982456E1,-1.4892238E-1,1.06E1,1.5213428E-1,1.8807947E1,2.063427E-2,1.8474002E-1,8.256033E-2,3.5140254E-2,-2.9654328E-2,-8.0195986E-2,-1.9365741E-2,2.4552636E-2,-2.4095312E-2,-1.7049575E-2,-7.140358E-2,2.6241025E-1,3.0912017E-2,3.435424E-2,2.4719678E-1,-9.123292E-2,-2.4668898E-2,-3.4487847E-2,8.831866E-3,1.1634255E-2,-6.580185E-2,3.1999525E-2,-4.3532398E-2,-9.46602E-2,-1.6999558E-1],"split_indices":[6,5,6,2,12,3,2,3,2,3,8,13,8,5,10,9,0,5,1,10,6,2,6,2,1,6,0,1,0,6,0,0,0,0,0,0,0,0,0,0,0,0,0,0,0,0,0,0,0,0,0,0,0,0,0],"split_type":[0,0,0,0,0,0,0,0,0,0,0,0,0,0,0,0,0,0,0,0,0,0,0,0,0,0,0,0,0,0,0,0,0,0,0,0,0,0,0,0,0,0,0,0,0,0,0,0,0,0,0,0,0,0,0],"sum_hessian":[5.53E2,3.21E2,2.32E2,5.9E1,2.62E2,2.03E2,2.9E1,5.1E1,8E0,1.75E2,8.7E1,1.9E2,1.3E1,4E0,2.5E1,4.9E1,2E0,5E0,3E0,1.45E2,3E1,5E0,8.2E1,5.5E1,1.35E2,4E0,9E0,3E0,1E0,2.4E1,1E0,9E0,4E1,3E0,2E0,2E0,1E0,1.17E2,2.8E1,1.5E1,1.5E1,4E0,1E0,8.1E1,1E0,3.2E1,2.3E1,7.2E1,6.3E1,1E0,3E0,2E0,1E0,7E0,1.7E1],"tree_param":{"num_deleted":"0","num_feature":"16","num_nodes":"55","size_leaf_vector":"1"}},{"base_weights":[7.343516E-3,1.0220377E0,-3.6677948E-1,1.9945171E0,7.0901257E-1,-6.52985E-2,-9.831536E-1,2.914404E0,1.066486E0,1.7177715E0,4.143764E-1,-4.0165108E-1,6.1191964E-1,-2.6870924E-1,-1.6108695E0,5.1129115E-1,3.614493E0,1.3295673E0,-3.8990166E-2,4.1746755E0,7.221873E-1,8.564353E-2,8.6518E-1,2.129151E-1,-4.5175365E-1,4.946381E-1,1.4902465E-1,2.8364E-1,-1.8744408E0,-1.9869285E0,-9.125055E-1,-7.1386816E-3,3.5525035E-2,2.793077E-1,1.0587577E-1,7.354033E-2,9.009075E-3,5.8840117E-3,2.886969E-1,4.731155E-2,-4.719057E-3,-3.4294054E-2,1.5468337E-2,-2.2969002E-2,6.232083E-2,-5.2870875E-3,-4.7399677E-2,-5.1586074E-3,4.5346152E-2,7.473575E-2,-3.7601247E-2,-4.168272E-3,-9.941441E-2,-1.5722467E-2,-1.1474224E-1,5.3762387E-2,-6.613951E-2],"categories":[],"categories_nodes":[],"categories_segments":[],"categories_sizes":[],"default_left":[0,0,0,0,0,0,0,0,0,0,0,0,0,0,0,0,0,0,0,0,0,0,0,0,0,0,0,0,0,0,0,0,0,0,0,0,0,0,0,0,0,0,0,0,0,0,0,0,0,0,0,0,0,0,0,0,0],"id":1,"left_children":[1,3,5,7,9,11,13,15,17,19,21,23,25,27,29,31,33,35,-1,37,39,41,43,-1,45,47,-1,49,51,53,55,-1,-1,-1,-1,-1,-1,-1,-1,-1,-1,-1,-1,-1,-1,-1,-1,-1,-1,-1,-1,-1,-1,-1,-1,-1,-1],"loss_changes":[2.0574951E2,4.3029816E1,7.352252E1,2.6770737E1,3.257648E1,6.106413E1,5.7867996E1,2.675264E1,1.026556E1,5.8136482E1,1.296697E1,4.3715816E1,2.3249043E1,5.5520992E1,1.6308105E1,7.5292075E-1,2.6541168E1,2.4947414E0,0E0,4.4737907E1,3.565299E0,9.187802E0,1.9256493E1,0E0,3.046323E1,2.128983E1,0E0,6.007465E1,3.0967903E0,2.1937668E1,2.2626486E1,0E0,0E0,0E0,0E0,0E0,0E0,0E0,0E0,0E0,0E0,0E0,0E0,0E0,0E0,0E0,0E0,0E0,0E0,0E0,0E0,0E0,0E0,0E0,0E0,0E0,0E0],"parents":[2147483647,0,0,1,1,2,2,3,3,4,4,5,5,6,6,7,7,8,8,9,9,10,10,11,11,12,12,13,13,14,14,15,15,16,16,17,17,19,19,20,20,21,21,22,22,24,24,25,25,27,27,28,28,29,29,30,30],"right_children":[2,4,6,8,10,12,14,16,18,20,22,24,26,28,30,32,34,36,-1,38,40,42,44,-1,46,48,-1,50,52,54,56,-1,-1,-1,-1,-1,-1,-1,-1,-1,-1,-1,-1,-1,-1,-1,-1,-1,-1,-1,-1,-1,-1,-1,-1,-1,-1],"split_conditions":[1.594758E1,1.5151515E1,1.744344E1,2.29E1,3.64E0,2.2736667E-1,4.51E0,4.8E-1,3.23E1,6.31E1,1.5676605E1,6E0,1.7405966E1,6.16E1,1E1,1.425E1,3.89E0,1.5116537E1,-3.8990166E-2,3.06E0,6.98E1,8.5E0,5.8E0,2.129151E-1,4.42E0,5.2554035E-1,1.4902465E-1,2.52E1,6.9E0,7.2E0,1.03E1,-7.1386816E-3,3.5525035E-2,2.793077E-1,1.0587577E-1,7.354033E-2,9.009075E-3,5.8840117E-3,2.886969E-1,4.731155E-2,-4.719057E-3,-3.4294054E-2,1.5468337E-2,-2.2969002E-2,6.232083E-2,-5.2870875E-3,-4.7399677E-2,-5.1586074E-3,4.5346152E-2,7.473575E-2,-3.7601247E-2,-4.168272E-3,-9.941441E-2,-1.5722467E-2,-1.1474224E-1,5.3762387E-2,-6.613951E-2],"split_indices":[6,6,6,0,3,12,3,10,0,8,6,7,6,8,7,6,3,6,0,3,8,7,1,0,3,10,0,0,7,7,7,0,0,0,0,0,0,0,0,0,0,0,0,0,0,0,0,0,0,0,0,0,0,0,0,0,0],"split_type":[0,0,0,0,0,0,0,0,0,0,0,0,0,0,0,0,0,0,0,0,0,0,0,0,0,0,0,0,0,0,0,0,0,0,0,0,0,0,0,0,0,0,0,0,0,0,0,0,0,0,0,0,0,0,0,0,0],"sum_hessian":[5.4E2,1.45E2,3.95E2,3.4E1,1.11E2,2.66E2,1.29E2,1.6E1,1.8E1,2.4E1,8.7E1,1.78E2,8.8E1,6.1E1,6.8E1,4E0,1.2E1,1.6E1,2E0,6E0,1.8E1,5.1E1,3.6E1,1E0,1.77E2,8.5E1,3E0,4.6E1,1.5E1,4.3E1,2.5E1,1E0,3E0,4E0,8E0,1.4E1,2E0,2E0,4E0,1.4E1,4E0,1.1E1,4E1,8E0,2.8E1,1.05E2,7.2E1,3.5E1,5E1,2.1E1,2.5E1,1E0,1.4E1,7E0,3.6E1,4E0,2.1E1],"tree_param":{"num_deleted":"0","num_feature":"16","num_nodes":"57","size_leaf_vector":"1"}},{"base_weights":[-2.507934E-2,5.728506E-1,-7.675686E-1,2.226419E0,4.564346E-1,-5.598436E-1,-2.1522171E0,2.983816E0,9.691764E-1,1.8153208E-1,1.1032215E0,-1.4724704E0,-3.640677E-1,8.907419E-2,-2.3365781E0,1.4299017E0,3.8894827E0,1.4959742E0,-6.331444E-2,3.584968E-1,-7.8085613E-1,3.9164195E0,9.182312E-1,-5.1028025E-1,-2.0777996E0,-1.7934611E-1,-1.4512899E0,-8.076048E-2,-2.767283E0,1.9605685E-2,7.795183E-2,9.649601E-2,2.929463E-1,8.1101455E-2,2.1642495E-2,-7.848612E-3,5.441475E-3,1.0480849E-1,1.021049E-2,-2.6072145E-2,-7.469578E-2,2.3027344E-1,2.9005576E-2,1.639734E-1,3.270614E-2,-5.3566556E-2,1.8205909E-2,-1.07841566E-1,-8.477593E-3,1.9226387E-1,-1.4203868E-2,-4.3541696E-2,-9.09451E-2,-9.301726E-2,1.1594696E-1,-1.516044E-1,-6.8962544E-2],"categories":[],"categories_nodes":[],"categories_segments":[],"categories_sizes":[],"default_left":[0,0,0,0,0,0,0,0,0,0,0,0,0,0,0,0,0,0,0,0,0,0,0,0,0,0,0,0,0,0,0,0,0,0,0,0,0,0,0,0,0,0,0,0,0,0,0,0,0,0,0,0,0,0,0,0,0],"id":2,"left_children":[1,3,5,7,9,11,13,15,17,19,21,23,25,-1,27,29,31,33,35,37,39,41,43,45,47,49,51,53,55,-1,-1,-1,-1,-1,-1,-1,-1,-1,-1,-1,-1,-1,-1,-1,-1,-1,-1,-1,-1,-1,-1,-1,-1,-1,-1,-1,-1],"loss_changes":[2.468356E2,5.8274323E1,7.012636E1,1.6152794E1,5.1184906E1,3.823539E1,2.7369629E1,1.132637E1,4.9899416E0,3.502292E1,4.1159477E1,2.1072525E1,3.5889732E1,0E0,2.9895859E1,1.927681E-1,1.5707466E1,1.0197735E-1,8.157371E-2,4.59533E1,5.140274E0,8.822716E0,4.8991867E1,8.239403E0,3.1029816E0,6.642544E1,3.9639893E0,2.993684E1,5.3744965E0,0E0,0E0,0E0,0E0,0E0,0E0,0E0,0E0,0E0,0E0,0E0,0E0,0E0,0E0,0E0,0E0,0E0,0E0,0E0,0E0,0E0,0E0,0E0,0E0,0E0,0E0,0E0,0E0],"parents":[2147483647,0,0,1,1,2,2,3,3,4,4,5,5,6,6,7,7,8,8,9,9,10,10,11,11,12,12,14,14,15,15,16,16,17,17,18,18,19,19,20,20,21,21,22,22,23,23,24,24,25,25,26,26,27,27,28,28],"right_children":[2,4,6,8,10,12,14,16,18,20,22,24,26,-1,28,30,32,34,36,38,40,42,44,46,48,50,52,54,56,-1,-1,-1,-1,-1,-1,-1,-1,-1,-1,-1,-1,-1,-1,-1,-1,-1,-1,-1,-1,-1,-1,-1,-1,-1,-1,-1,-1],"split_conditions":[1.6767443E1,1.4978518E1,1.8565737E1,2.94E-1,3.1813332E-1,2.45E-1,3.68E0,3.82E0,3.09E0,4.67E0,5.78E1,1.744344E1,1.83E1,8.907419E-2,1.67E1,1.97E1,1.99E1,1.4959596E1,2.43E1,1.06E1,5.23E0,2.02E1,3.42E0,1.7285318E1,1.8530184E1,3.68E0,1.718903E1,1.5E0,1.22E1,1.9605685E-2,7.795183E-2,9.649601E-2,2.929463E-1,8.1101455E-2,2.1642495E-2,-7.848612E-3,5.441475E-3,1.0480849E-1,1.021049E-2,-2.6072145E-2,-7.469578E-2,2.3027344E-1,2.9005576E-2,1.639734E-1,3.270614E-2,-5.3566556E-2,1.8205909E-2,-1.07841566E-1,-8.477593E-3,1.9226387E-1,-1.4203868E-2,-4.3541696E-2,-9.09451E-2,-9.301726E-2,1.1594696E-1,-1.516044E-1,-6.8962544E-2],"split_indices":[6,6,6,9,13,9,5,4,4,3,8,6,2,0,0,0,0,6,0,2,3,0,3,6,6,3,6,2,7,0,0,0,0,0,0,0,0,0,0,0,0,0,0,0,0,0,0,0,0,0,0,0,0,0,0,0,0],"split_type":[0,0,0,0,0,0,0,0,0,0,0,0,0,0,0,0,0,0,0,0,0,0,0,0,0,0,0,0,0,0,0,0,0,0,0,0,0,0,0,0,0,0,0,0,0,0,0,0,0,0,0,0,0,0,0,0,0],"sum_hessian":[5.54E2,3.07E2,2.47E2,1.9E1,2.88E2,2.16E2,3.1E1,1.1E1,8E0,2.03E2,8.5E1,3.7E1,1.79E2,1E0,3E1,5E0,6E0,5E0,3E0,1.72E2,3.1E1,4E0,8.1E1,1.5E1,2.2E1,1.54E2,2.5E1,5E0,2.5E1,1E0,4E0,4E0,2E0,4E0,1E0,2E0,1E0,1.3E1,1.59E2,2.4E1,7E0,3E0,1E0,7E0,7.4E1,9E0,6E0,2.1E1,1E0,3E0,1.51E2,1.1E1,1.4E1,3E0,2E0,2E1,5E0],"tree_param":{"num_deleted":"0","num_feature":"16","num_nodes":"57","size_leaf_vector":"1"}},{"base_weights":[-7.247298E-2,3.7669826E-1,-7.410097E-1,2.0300906E0,2.6735887E-1,-5.904232E-1,-1.9461787E0,2.9913237E0,1.2084607E0,4.62315E-3,7.854893E-1,-1.0673455E0,-2.5721094E-1,-2.6781192E-1,-2.4620938E0,1.4187181E0,2.8318146E-1,1.3954006E0,1.20194115E-1,5.477375E-2,-2.6419768E0,1.0159178E0,-3.473556E-1,-1.4087495E0,-2.944281E-1,-1.3551875E0,-5.4145887E-2,-8.196449E-2,1.170619E0,-6.900822E-2,-2.6585975E0,1.8363142E-2,1.0577469E-1,5.305433E-3,7.568595E-2,-8.950233E-3,1.7964793E-2,3.127673E-2,-7.276159E-3,-1.6258536E-1,-2.0319654E-2,1.2472502E-1,3.999569E-2,-3.0210406E-2,1.0689974E-1,-4.1414928E-2,-1.0222577E-1,1.05993524E-1,-2.8618341E-2,7.6195085E-3,-7.707569E-2,3.0699192E-2,-3.9400283E-2,1.1208204E-1,-5.1061153E-2,-3.257809E-2,-1.3777086E-1],"categories":[],"categories_nodes":[],"categories_segments":[],"categories_sizes":[],"default_left":[0,0,0,0,0,0,0,0,0,0,0,0,0,0,0,0,0,0,0,0,0,0,0,0,0,0,0,0,0,0,0,0,0,0,0,0,0,0,0,0,0,0,0,0,0,0,0,0,0,0,0,0,0,0,0,0,0],"id":3,"left_children":[1,3,5,7,9,11,13,15,17,19,21,23,25,27,29,31,-1,33,35,37,39,41,43,45,47,49,51,-1,53,-1,55,-1,-1,-1,-1,-1,-1,-1,-1,-1,-1,-1,-1,-1,-1,-1,-1,-1,-1,-1,-1,-1,-1,-1,-1,-1,-1],"loss_changes":[1.7114272E2,6.1103516E1,4.0410347E1,1.2970436E1,4.3694542E1,3.230333E1,2.0987984E1,2.978724E1,2.477007E0,2.8548626E1,2.8545181E1,2.1750885E1,2.7127827E1,1.5728417E1,3.7016296E-1,4.3514576E0,0E0,1.5173988E0,2.7893245E-1,2.4212898E1,4.1309395E0,2.6748802E1,1.34207945E1,1.971032E1,1.9331074E1,5.572033E0,5.147643E1,0E0,1.1679256E1,0E0,1.119484E0,0E0,0E0,0E0,0E0,0E0,0E0,0E0,0E0,0E0,0E0,0E0,0E0,0E0,0E0,0E0,0E0,0E0,0E0,0E0,0E0,0E0,0E0,0E0,0E0,0E0,0E0],"parents":[2147483647,0,0,1,1,2,2,3,3,4,4,5,5,6,6,7,7,8,8,9,9,10,10,11,11,12,12,13,13,14,14,15,15,17,17,18,18,19,19,20,20,21,21,22,22,23,23,24,24,25,25,26,26,28,28,30,30],"right_children":[2,4,6,8,10,12,14,16,18,20,22,24,26,28,30,32,-1,34,36,38,40,42,44,46,48,50,52,-1,54,-1,56,-1,-1,-1,-1,-1,-1,-1,-1,-1,-1,-1,-1,-1,-1,-1,-1,-1,-1,-1,-1,-1,-1,-1,-1,-1,-1],"split_conditions":[1.6850393E1,1.4978518E1,5.36E0,2.05E1,2.2736667E-1,5.2554035E-1,5.37E1,1.99E1,5.4E-1,2.78E1,4.97E0,2.2736667E-1,9E0,1.5E1,1.7285318E1,3.129E-1,2.8318146E-1,4.2E-1,2.43E1,3.81E0,3.56E1,5.93E1,6.3E-1,4.42E0,7E0,1.53E1,1.13E1,-8.196449E-2,1.67E1,-6.900822E-2,3.129E-1,1.8363142E-2,1.0577469E-1,5.305433E-3,7.568595E-2,-8.950233E-3,1.7964793E-2,3.127673E-2,-7.276159E-3,-1.6258536E-1,-2.0319654E-2,1.2472502E-1,3.999569E-2,-3.0210406E-2,1.0689974E-1,-4.1414928E-2,-1.0222577E-1,1.05993524E-1,-2.8618341E-2,7.6195085E-3,-7.707569E-2,3.0699192E-2,-3.9400283E-2,1.1208204E-1,-5.1061153E-2,-3.257809E-2,-1.3777086E-1],"split_indices":[6,6,3,0,12,10,8,0,10,2,3,12,7,0,6,13,0,10,0,3,0,8,10,3,7,0,7,0,0,0,13,0,0,0,0,0,0,0,0,0,0,0,0,0,0,0,0,0,0,0,0,0,0,0,0,0,0],"split_type":[0,0,0,0,0,0,0,0,0,0,0,0,0,0,0,0,0,0,0,0,0,0,0,0,0,0,0,0,0,0,0,0,0,0,0,0,0,0,0,0,0,0,0,0,0,0,0,0,0,0,0,0,0,0,0,0,0],"sum_hessian":[5.68E2,3.4E2,2.28E2,2E1,3.2E2,2.04E2,2.4E1,8E0,1.2E1,2.13E2,1.07E2,8.3E1,1.21E2,6E0,1.8E1,6E0,2E0,1E1,2E0,2.1E2,3E0,8.9E1,1.8E1,5.7E1,2.6E1,1.8E1,1.03E2,3E0,3E0,4E0,1.4E1,3E0,3E0,1E0,9E0,1E0,1E0,5.4E1,1.56E2,2E0,1E0,1E1,7.9E1,1.7E1,1E0,3.1E1,2.6E1,2E0,2.4E1,2E0,1.6E1,5.4E1,4.9E1,2E0,1E0,1E0,1.3E1],"tree_param":{"num_deleted":"0","num_feature":"16","num_nodes":"57","size_leaf_vector":"1"}},{"base_weights":[3.2725368E-2,4.3105072E-1,-7.269454E-1,1.7063569E0,2.9188535E-1,-1.3430461E0,-3.325379E-1,1.2270508E0,3.5167606E0,3.814553E-1,-1.2967808E0,1.3153195E-1,-1.4322937E0,1.1389877E-3,-1.4170284E0,1.7535874E0,2.9111376E-1,4.7205415E0,1.6910298E-2,3.1799027E-1,4.265382E0,1.3492966E-2,-1.4048102E0,-8.0937654E-1,-1.8625507E0,3.3664494E0,-2.7279487E-1,-1.6779194E0,-6.798232E-1,9.9605225E-2,-9.126982E-3,3.4539413E-2,-5.6908626E-2,1.958189E-2,2.852429E-1,-1.277802E-1,1.770799E-2,7.773638E-3,2.6269954E-1,-5.0599582E-2,-9.781561E-2,-5.5961944E-2,8.1973486E-2,3.536072E-2,-9.70287E-2,2.587124E-1,-3.843492E-2,-4.091562E-2,2.92797E-2,-9.224098E-2,-4.041275E-2,-6.845355E-2,7.2694584E-3],"categories":[],"categories_nodes":[],"categories_segments":[],"categories_sizes":[],"default_left":[0,0,0,0,0,0,0,0,0,0,0,0,0,0,0,0,0,0,0,0,0,0,0,0,0,0,0,0,0,0,0,0,0,0,0,0,0,0,0,0,0,0,0,0,0,0,0,0,0,0,0,0,0],"id":4,"left_children":[1,3,5,7,9,11,13,15,17,19,21,-1,23,25,27,29,31,33,-1,35,37,-1,39,41,43,45,47,49,51,-1,-1,-1,-1,-1,-1,-1,-1,-1,-1,-1,-1,-1,-1,-1,-1,-1,-1,-1,-1,-1,-1,-1,-1],"loss_changes":[1.6976718E2,6.481401E1,4.645137E1,2.6923317E1,4.7879486E1,3.0366013E1,4.306407E1,1.4273655E1,2.5187462E1,7.653558E1,3.42548E0,0E0,1.8325562E1,8.573061E1,4.2445564E0,9.137833E0,7.641227E0,1.9070816E1,0E0,3.3333305E1,1.9498611E1,0E0,1.7031097E0,2.6116724E1,9.993973E0,5.6306046E1,4.0750088E1,1.4118576E0,5.318031E0,0E0,0E0,0E0,0E0,0E0,0E0,0E0,0E0,0E0,0E0,0E0,0E0,0E0,0E0,0E0,0E0,0E0,0E0,0E0,0E0,0E0,0E0,0E0,0E0],"parents":[2147483647,0,0,1,1,2,2,3,3,4,4,5,5,6,6,7,7,8,8,9,9,10,10,12,12,13,13,14,14,15,15,16,16,17,17,19,19,20,20,22,22,23,23,24,24,25,25,26,26,27,27,28,28],"right_children":[2,4,6,8,10,12,14,16,18,20,22,-1,24,26,28,30,32,34,-1,36,38,-1,40,42,44,46,48,50,52,-1,-1,-1,-1,-1,-1,-1,-1,-1,-1,-1,-1,-1,-1,-1,-1,-1,-1,-1,-1,-1,-1,-1,-1],"split_conditions":[1.7033195E1,1.5151515E1,9.7E0,4.32E0,5.23E0,3.84E0,1.75E1,1.4978518E1,4.79E0,1.7E1,1.5544502E1,1.3153195E-1,5.15E0,3.68E0,3.78E0,6.97E1,5.5E-1,3.9E0,1.6910298E-2,2.71E0,3.49E0,1.3492966E-2,5.52E0,4.98E0,4.42E0,3.89E0,4.94E0,1.4E1,5.2554035E-1,9.9605225E-2,-9.126982E-3,3.4539413E-2,-5.6908626E-2,1.958189E-2,2.852429E-1,-1.277802E-1,1.770799E-2,7.773638E-3,2.6269954E-1,-5.0599582E-2,-9.781561E-2,-5.5961944E-2,8.1973486E-2,3.536072E-2,-9.70287E-2,2.587124E-1,-3.843492E-2,-4.091562E-2,2.92797E-2,-9.224098E-2,-4.041275E-2,-6.845355E-2,7.2694584E-3],"split_indices":[6,6,7,5,3,4,2,6,5,6,6,0,5,5,3,8,10,1,0,3,4,0,4,5,3,4,5,7,10,0,0,0,0,0,0,0,0,0,0,0,0,0,0,0,0,0,0,0,0,0,0,0,0],"split_type":[0,0,0,0,0,0,0,0,0,0,0,0,0,0,0,0,0,0,0,0,0,0,0,0,0,0,0,0,0,0,0,0,0,0,0,0,0,0,0,0,0,0,0,0,0,0,0,0,0,0,0,0,0],"sum_hessian":[5.59E2,3.67E2,1.92E2,3.5E1,3.32E2,7.4E1,1.18E2,2.9E1,6E0,3.15E2,1.7E1,1E0,7.3E1,9.1E1,2.7E1,1.8E1,1.1E1,4E0,2E0,3.11E2,4E0,1E0,1.6E1,3.1E1,4.2E1,6E0,8.5E1,1.9E1,8E0,1.6E1,2E0,9E0,2E0,1E0,3E0,3E0,3.08E2,1E0,3E0,1.1E1,5E0,2.8E1,3E0,1E0,4.1E1,4E0,2E0,5.2E1,3.3E1,1.5E1,4E0,4E0,4E0],"tree_param":{"num_deleted":"0","num_feature":"16","num_nodes":"53","size_leaf_vector":"1"}},{"base_weights":[4.6118613E-2,8.772703E-1,-2.694672E-1,1.7481977E0,6.1090124E-1,-1.4173654E-1,-1.8869222E0,1.2490546E0,3.63764E0,1.4363274E-1,1.0994947E0,-4.3425992E-1,3.727774E-1,6.952937E-1,-2.4311771E0,1.6474341E0,6.013709E-1,4.896537E0,1.6346615E-2,-7.5749946E-1,2.6980105E-1,-1.873787E-1,1.5424601E0,-2.8797284E-1,-1.4681753E0,3.502604E0,2.0524685E-1,-5.3015452E-2,1.8381724E0,-9.5761657E-1,-1.4755139E-1,1.6431916E-1,5.5027604E-2,4.672977E-2,2.842156E-3,2.7454633E-1,6.297445E-2,-4.704444E-2,1.3155651E-2,1.8309137E-2,-3.932644E-2,-2.0406522E-2,4.526278E-2,4.648131E-2,1.3326485E-1,-1.2380229E-2,-1.5290646E-1,1.710024E-2,-7.711943E-2,9.00538E-3,2.9747248E-1,1.9813904E-1,5.8814846E-3,2.8842067E-2,1.4055414E-1,-7.553032E-2,2.3378437E-2],"categories":[],"categories_nodes":[],"categories_segments":[],"categories_sizes":[],"default_left":[0,0,0,0,0,0,0,0,0,0,0,0,0,0,0,0,0,0,0,0,0,0,0,0,0,0,0,0,0,0,0,0,0,0,0,0,0,0,0,0,0,0,0,0,0,0,0,0,0,0,0,0,0,0,0,0,0],"id":5,"left_children":[1,3,5,7,9,11,13,15,17,19,21,23,25,27,29,31,33,35,-1,37,39,41,43,45,47,49,51,-1,53,55,-1,-1,-1,-1,-1,-1,-1,-1,-1,-1,-1,-1,-1,-1,-1,-1,-1,-1,-1,-1,-1,-1,-1,-1,-1,-1,-1],"loss_changes":[1.4869801E2,3.5122177E1,8.4644585E1,2.9408066E1,2.7466896E1,5.7655697E1,4.3851906E1,6.749996E0,2.7574043E1,7.367116E0,3.3921417E1,3.648183E1,7.216458E1,1.3987677E1,1.632483E1,1.2516773E1,2.3057241E0,3.8933487E0,0E0,1.7449155E0,5.989421E0,4.2286773E0,2.7799217E1,2.328547E1,4.557686E0,5.5835915E1,4.332071E1,0E0,3.2871008E0,7.011216E0,0E0,0E0,0E0,0E0,0E0,0E0,0E0,0E0,0E0,0E0,0E0,0E0,0E0,0E0,0E0,0E0,0E0,0E0,0E0,0E0,0E0,0E0,0E0,0E0,0E0,0E0,0E0],"parents":[2147483647,0,0,1,1,2,2,3,3,4,4,5,5,6,6,7,7,8,8,9,9,10,10,11,11,12,12,13,13,14,14,15,15,16,16,17,17,19,19,20,20,21,21,22,22,23,23,24,24,25,25,26,26,28,28,29,29],"right_children":[2,4,6,8,10,12,14,16,18,20,22,24,26,28,30,32,34,36,-1,38,40,42,44,46,48,50,52,-1,54,56,-1,-1,-1,-1,-1,-1,-1,-1,-1,-1,-1,-1,-1,-1,-1,-1,-1,-1,-1,-1,-1,-1,-1,-1,-1,-1,-1],"split_conditions":[1.594758E1,1.5151515E1,1.8565737E1,4E0,1.5661853E1,3.1813332E-1,1.67E1,3.35E0,4.79E0,9.3E0,5.8E0,1.09E1,3.43E0,1.5E0,1E1,3.4E0,6.67E1,5.5E0,1.6346615E-2,1.04E1,1.46E1,2.44E1,1.51E1,2.77E1,4.2E-1,7.7E0,4.4E0,-5.3015452E-2,1.52E1,5.7E-1,-1.4755139E-1,1.6431916E-1,5.5027604E-2,4.672977E-2,2.842156E-3,2.7454633E-1,6.297445E-2,-4.704444E-2,1.3155651E-2,1.8309137E-2,-3.932644E-2,-2.0406522E-2,4.526278E-2,4.648131E-2,1.3326485E-1,-1.2380229E-2,-1.5290646E-1,1.710024E-2,-7.711943E-2,9.00538E-3,2.9747248E-1,1.9813904E-1,5.8814846E-3,2.8842067E-2,1.4055414E-1,-7.553032E-2,2.3378437E-2],"split_indices":[6,6,6,5,6,13,0,5,5,2,1,1,5,2,1,1,8,1,0,7,7,0,11,2,10,1,1,0,0,10,0,0,0,0,0,0,0,0,0,0,0,0,0,0,0,0,0,0,0,0,0,0,0,0,0,0,0],"split_type":[0,0,0,0,0,0,0,0,0,0,0,0,0,0,0,0,0,0,0,0,0,0,0,0,0,0,0,0,0,0,0,0,0,0,0,0,0,0,0,0,0,0,0,0,0,0,0,0,0,0,0,0,0,0,0,0,0],"sum_hessian":[5.65E2,1.55E2,4.1E2,3.5E1,1.2E2,3.81E2,2.9E1,2.9E1,6E0,6.2E1,5.8E1,2.43E2,1.38E2,5E0,2.4E1,1.7E1,1.2E1,4E0,2E0,7E0,5.5E1,1.5E1,4.3E1,2.14E2,2.9E1,6E0,1.32E2,2E0,3E0,7E0,1.7E1,3E0,1.4E1,7E0,5E0,3E0,1E0,6E0,1E0,5.1E1,4E0,1.3E1,2E0,2.9E1,1.4E1,2.12E2,2E0,1E0,2.8E1,3E0,3E0,2E0,1.3E2,2E0,1E0,5E0,2E0],"tree_param":{"num_deleted":"0","num_feature":"16","num_nodes":"57","size_leaf_vector":"1"}},{"base_weights":[-1.1440599E-1,3.7192795E-1,-8.086735E-1,1.841489E0,2.8124338E-1,-6.692956E-1,-1.5472248E-1,8.8879526E-1,3.3477075E0,3.6283797E-1,-1.0716258E0,-9.5474976E-1,-1.8073502E-1,2.2815208E-1,1.1570642E0,1.5666287E0,2.600135E-1,8.129575E-1,1.8866675E-1,-6.594551E-1,-1.5044073E0,-4.1757023E-1,-1.2276055E0,3.3684075E-1,-1.5230746E0,-6.653818E-3,2.566649E-2,6.629306E-2,1.887582E-2,1.222868E-2,9.179995E-2,1.1347988E-2,8.607433E-2,4.055497E-3,7.5730644E-2,-5.001215E-2,2.913634E-2,-2.0669151E-2,-8.006066E-2,7.8204505E-2,-2.9221922E-2,8.277747E-2,-6.554986E-2,-1.6822455E-4,1.2742977E-1,2.293749E-2,-8.17005E-2],"categories":[],"categories_nodes":[],"categories_segments":[],"categories_sizes":[],"default_left":[0,0,0,0,0,0,0,0,0,0,0,0,0,0,0,0,0,0,0,0,0,0,0,0,0,0,0,0,0,0,0,0,0,0,0,0,0,0,0,0,0,0,0,0,0,0,0],"id":6,"left_children":[1,3,5,7,9,11,-1,13,15,17,19,21,23,25,27,29,-1,31,33,35,37,39,41,43,45,-1,-1,-1,-1,-1,-1,-1,-1,-1,-1,-1,-1,-1,-1,-1,-1,-1,-1,-1,-1,-1,-1],"loss_changes":[1.8938246E2,4.346005E1,7.1522415E1,2.4288902E1,3.4829506E1,3.0369537E1,0E0,2.0400047E0,1.495002E1,2.2973995E1,2.2187462E0,1.9714394E1,5.7483555E1,5.8338356E-1,6.837349E-1,1.3315754E0,0E0,4.3265762E1,3.039666E1,5.2393947E0,1.8302536E-1,1.6786568E1,2.4049652E1,4.5155605E1,5.8062477E0,0E0,0E0,0E0,0E0,0E0,0E0,0E0,0E0,0E0,0E0,0E0,0E0,0E0,0E0,0E0,0E0,0E0,0E0,0E0,0E0,0E0,0E0],"parents":[2147483647,0,0,1,1,2,2,3,3,4,4,5,5,7,7,8,8,9,9,10,10,11,11,12,12,13,13,14,14,15,15,17,17,18,18,19,19,20,20,21,21,22,22,23,23,24,24],"right_children":[2,4,6,8,10,12,-1,14,16,18,20,22,24,26,28,30,-1,32,34,36,38,40,42,44,46,-1,-1,-1,-1,-1,-1,-1,-1,-1,-1,-1,-1,-1,-1,-1,-1,-1,-1,-1,-1,-1,-1],"split_conditions":[1.68E1,1.4978518E1,1.9274193E1,3.79E0,5.2E0,2.2736667E-1,-1.5472248E-1,4.3E0,1.99E1,3.72E0,5.27E0,1.722449E1,1.8043705E1,1.4769231E1,5.1E-1,9.8E0,2.600135E-1,3.52E0,4.91E0,4.96E0,5.51E1,1.45E1,4.3E-1,1.12E1,1.52E1,-6.653818E-3,2.566649E-2,6.629306E-2,1.887582E-2,1.222868E-2,9.179995E-2,1.1347988E-2,8.607433E-2,4.055497E-3,7.5730644E-2,-5.001215E-2,2.913634E-2,-2.0669151E-2,-8.006066E-2,7.8204505E-2,-2.9221922E-2,8.277747E-2,-6.554986E-2,-1.6822455E-4,1.2742977E-1,2.293749E-2,-8.17005E-2],"split_indices":[6,6,6,4,4,12,0,1,0,4,5,6,6,6,10,0,0,4,4,5,8,0,10,1,0,0,0,0,0,0,0,0,0,0,0,0,0,0,0,0,0,0,0,0,0,0,0],"split_type":[0,0,0,0,0,0,0,0,0,0,0,0,0,0,0,0,0,0,0,0,0,0,0,0,0,0,0,0,0,0,0,0,0,0,0,0,0,0,0,0,0,0,0,0,0,0,0],"sum_hessian":[5.59E2,3.29E2,2.3E2,1.8E1,3.11E2,2.18E2,1.2E1,1.2E1,6E0,2.94E2,1.7E1,1.37E2,8.1E1,4E0,8E0,4E0,2E0,8.1E1,2.13E2,1E1,7E0,4.7E1,9E1,5.9E1,2.2E1,2E0,2E0,6E0,2E0,1E0,3E0,5E1,3.1E1,1.98E2,1.5E1,8E0,2E0,1E0,6E0,3E0,4.4E1,2E0,8.8E1,5.2E1,7E0,1E0,2.1E1],"tree_param":{"num_deleted":"0","num_feature":"16","num_nodes":"47","size_leaf_vector":"1"}},{"base_weights":[6.771569E-2,3.9771253E-1,-6.858519E-1,1.4290246E0,2.9140955E-1,2.8543365E0,-7.8835243E-1,8.313728E-1,2.422457E0,-2.3819952E0,3.2113016E-1,2.7134773E-1,-6.6972667E-1,-6.0730904E-1,-2.243192E0,9.4660103E-1,-4.5471933E-2,2.5134638E-1,1.4919235E0,-1.4818786E-1,-1.5917731E-2,1.113046E0,1.8233164E-1,-4.4491053E-2,-5.7384493E-3,-4.5334524E-1,-1.952496E0,3.0646896E-1,-2.7735553E0,5.338627E-2,5.216432E-3,1.9635935E-1,4.278392E-2,1.8546619E-2,1.1912288E-1,2.6521925E-2,-7.224654E-3,-3.3502612E-2,2.6348382E-2,-1.0757444E-1,-4.336971E-2,-7.350763E-2,1.4090835E-1,-4.206818E-2,-1.5030478E-1],"categories":[],"categories_nodes":[],"categories_segments":[],"categories_sizes":[],"default_left":[0,0,0,0,0,0,0,0,0,0,0,0,0,0,0,0,0,0,0,0,0,0,0,0,0,0,0,0,0,0,0,0,0,0,0,0,0,0,0,0,0,0,0,0,0],"id":7,"left_children":[1,3,5,7,9,11,13,15,17,19,21,-1,23,25,27,29,-1,-1,31,-1,-1,33,35,-1,-1,37,39,41,43,-1,-1,-1,-1,-1,-1,-1,-1,-1,-1,-1,-1,-1,-1,-1,-1],"loss_changes":[1.387847E2,4.2120605E1,6.393833E1,1.9360191E1,2.8812614E1,4.896492E1,4.2360268E1,5.6750526E0,2.4006317E1,3.8586655E0,3.8267918E1,0E0,2.6430523E-1,2.9974255E1,2.519046E1,2.2350597E0,0E0,0E0,1.368326E1,0E0,0E0,4.8102737E1,3.409385E1,0E0,0E0,2.9032587E1,1.3727226E0,2.1992481E1,4.210457E0,0E0,0E0,0E0,0E0,0E0,0E0,0E0,0E0,0E0,0E0,0E0,0E0,0E0,0E0,0E0,0E0],"parents":[2147483647,0,0,1,1,2,2,3,3,4,4,5,5,6,6,7,7,8,8,9,9,10,10,12,12,13,13,14,14,15,15,18,18,21,21,22,22,25,25,26,26,27,27,28,28],"right_children":[2,4,6,8,10,12,14,16,18,20,22,-1,24,26,28,30,-1,-1,32,-1,-1,34,36,-1,-1,38,40,42,44,-1,-1,-1,-1,-1,-1,-1,-1,-1,-1,-1,-1,-1,-1,-1,-1],"split_conditions":[1.7109283E1,1.5151515E1,3.43E0,3.84E0,2.71E0,2.7E1,1.9274193E1,3.23E1,3.81E0,3.56E1,3.37E0,2.7134773E-1,3.29E1,6.5E1,5.22E1,3.73E0,-4.5471933E-2,2.5134638E-1,1.64E1,-1.4818786E-1,-1.5917731E-2,3.51E0,2.09E1,-4.4491053E-2,-5.7384493E-3,5.8E-1,1.7898966E1,1.5E1,2.37E-1,5.338627E-2,5.216432E-3,1.9635935E-1,4.278392E-2,1.8546619E-2,1.1912288E-1,2.6521925E-2,-7.224654E-3,-3.3502612E-2,2.6348382E-2,-1.0757444E-1,-4.336971E-2,-7.350763E-2,1.4090835E-1,-4.206818E-2,-1.5030478E-1],"split_indices":[6,6,5,4,3,0,6,0,3,0,5,0,0,8,8,5,0,0,0,0,0,4,0,0,0,10,6,0,9,0,0,0,0,0,0,0,0,0,0,0,0,0,0,0,0],"split_type":[0,0,0,0,0,0,0,0,0,0,0,0,0,0,0,0,0,0,0,0,0,0,0,0,0,0,0,0,0,0,0,0,0,0,0,0,0,0,0,0,0,0,0,0,0],"sum_hessian":[5.56E2,3.87E2,1.69E2,3.5E1,3.52E2,4E0,1.65E2,2.3E1,1.2E1,3E0,3.49E2,2E0,2E0,1.48E2,1.7E1,2.2E1,1E0,2E0,1E1,2E0,1E0,5.1E1,2.98E2,1E0,1E0,1.34E2,1.4E1,3E0,1.4E1,1.9E1,3E0,1E0,9E0,3.3E1,1.8E1,1.44E2,1.54E2,1.1E2,2.4E1,1.1E1,3E0,2E0,1E0,2E0,1.2E1],"tree_param":{"num_deleted":"0","num_feature":"16","num_nodes":"45","size_leaf_vector":"1"}},{"base_weights":[-4.5169957E-2,2.994512E-1,-6.767473E-1,1.3993855E0,1.7407806E-1,-4.8231852E-1,-1.7931662E0,6.932207E-1,2.388879E0,1.2266538E-1,2.9042125E0,-3.1165552E-1,-1.6783724E0,1.1607783E0,-2.3122284E0,-5.600879E-1,9.0922135E-1,-1.6275167E-1,3.0403492E0,1.8837753E-1,-1.2348019E0,-7.697089E-2,4.100822E0,-2.1740484E-1,-1.9574293E0,-1.8472818E0,4.2495396E-2,7.711673E-2,1.373856E-1,8.752956E-2,-2.5544538E0,1.3866425E-4,-3.743164E-2,5.733604E-2,1.5216692E-2,1.6783398E-2,-4.1450262E-2,1.7814882E-1,1.4240456E-2,7.18026E-3,1.0465365E-1,-7.933996E-2,-2.2116972E-2,8.799982E-3,2.519014E-1,-2.0114692E-2,4.6988856E-2,-1.1164089E-1,-3.7708774E-2,-9.524187E-2,-1.8843247E-2,3.214299E-2,-4.0502813E-2,-2.0496035E-2,-1.314936E-1],"categories":[],"categories_nodes":[],"categories_segments":[],"categories_sizes":[],"default_left":[0,0,0,0,0,0,0,0,0,0,0,0,0,0,0,0,0,0,0,0,0,0,0,0,0,0,0,0,0,0,0,0,0,0,0,0,0,0,0,0,0,0,0,0,0,0,0,0,0,0,0,0,0,0,0],"id":8,"left_children":[1,3,5,7,9,11,13,15,17,19,21,23,25,27,29,31,33,35,37,39,41,-1,43,45,47,49,-1,51,-1,-1,53,-1,-1,-1,-1,-1,-1,-1,-1,-1,-1,-1,-1,-1,-1,-1,-1,-1,-1,-1,-1,-1,-1,-1,-1],"loss_changes":[1.220894E2,4.9814896E1,4.2113792E1,2.419757E1,4.554263E1,3.4177696E1,4.714914E1,6.7357006E0,2.542949E1,2.8955683E1,3.8216625E1,2.2841736E1,1.0538078E1,8.3866005E0,2.9074753E1,4.2657447E-1,2.5242214E0,1.6065658E0,1.626667E1,2.596494E1,3.4822655E0,0E0,1.7505135E1,3.0972942E1,9.669647E-1,9.747391E-1,0E0,2.5284002E0,0E0,0E0,2.8036346E0,0E0,0E0,0E0,0E0,0E0,0E0,0E0,0E0,0E0,0E0,0E0,0E0,0E0,0E0,0E0,0E0,0E0,0E0,0E0,0E0,0E0,0E0,0E0,0E0],"parents":[2147483647,0,0,1,1,2,2,3,3,4,4,5,5,6,6,7,7,8,8,9,9,10,10,11,11,12,12,13,13,14,14,15,15,16,16,17,17,18,18,19,19,20,20,22,22,23,23,24,24,25,25,27,27,30,30],"right_children":[2,4,6,8,10,12,14,16,18,20,22,24,26,28,30,32,34,36,38,40,42,-1,44,46,48,50,-1,52,-1,-1,54,-1,-1,-1,-1,-1,-1,-1,-1,-1,-1,-1,-1,-1,-1,-1,-1,-1,-1,-1,-1,-1,-1,-1,-1],"split_conditions":[1.7033195E1,1.5151515E1,1.8565737E1,3.84E0,1.7E1,6.46E1,4.8E0,3.6E0,1.05E1,1.09E1,5.2E0,5.48E0,5.75E0,1.44E1,3.68E0,1.12E1,3.05E-1,7.4E0,4.79E0,1.05E1,1.6875376E1,-7.697089E-2,3.49E0,1.14E1,5.9E0,1.6E1,4.2495396E-2,1.06E1,1.373856E-1,8.752956E-2,2.37E-1,1.3866425E-4,-3.743164E-2,5.733604E-2,1.5216692E-2,1.6783398E-2,-4.1450262E-2,1.7814882E-1,1.4240456E-2,7.18026E-3,1.0465365E-1,-7.933996E-2,-2.2116972E-2,8.799982E-3,2.519014E-1,-2.0114692E-2,4.6988856E-2,-1.1164089E-1,-3.7708774E-2,-9.524187E-2,-1.8843247E-2,3.214299E-2,-4.0502813E-2,-2.0496035E-2,-1.314936E-1],"split_indices":[6,6,6,4,6,8,2,1,2,1,2,4,4,1,5,7,9,1,5,1,6,0,4,1,2,11,0,1,0,0,9,0,0,0,0,0,0,0,0,0,0,0,0,0,0,0,0,0,0,0,0,0,0,0,0],"split_type":[0,0,0,0,0,0,0,0,0,0,0,0,0,0,0,0,0,0,0,0,0,0,0,0,0,0,0,0,0,0,0,0,0,0,0,0,0,0,0,0,0,0,0,0,0,0,0,0,0,0,0,0,0,0,0],"sum_hessian":[5.59E2,3.62E2,1.97E2,3.6E1,3.26E2,1.69E2,2.8E1,2.2E1,1.4E1,3.21E2,5E0,1.49E2,2E1,4E0,2.4E1,3E0,1.9E1,3E0,1.1E1,3.07E2,1.4E1,1E0,4E0,1.42E2,7E0,1.9E1,1E0,3E0,1E0,1E0,2.3E1,1E0,2E0,1.3E1,6E0,2E0,1E0,9E0,2E0,3.01E2,6E0,9E0,5E0,1E0,3E0,1.23E2,1.9E1,5E0,2E0,1.8E1,1E0,2E0,1E0,1E0,2.2E1],"tree_param":{"num_deleted":"0","num_feature":"16","num_nodes":"55","size_leaf_vector":"1"}},{"base_weights":[2.6938593E-2,5.1847684E-1,-3.5632747E-1,5.6194913E-1,-2.2303474E0,6.638851E-2,-8.3413184E-1,1.2835339E0,4.571874E-1,-1.5425836E-1,-4.585093E-2,3.3474307E0,-3.4664255E-2,-1.5600893E0,-6.266769E-1,7.205194E-1,3.4155054E0,9.663547E-2,7.122837E-1,2.2053073E-1,-2.2632599E-2,4.8332155E-1,-4.92713E-1,-2.085986E0,1.5644921E-2,1.8409859E0,-7.7801293E-1,-3.6535963E-2,4.3924224E-2,6.5944195E-3,2.0229256E-1,-1.0117341E-3,7.3428825E-2,2.7222604E-2,1.719845E-1,-2.1481437E-3,8.604069E-2,-1.2669566E-2,-1.1550754E-1,-1.3514218E-1,-7.67841E-2,7.443487E-2,-7.302683E-2,-1.5888108E-2,1.7697437E-1,-2.818186E-2,-8.57261E-2],"categories":[],"categories_nodes":[],"categories_segments":[],"categories_sizes":[],"default_left":[0,0,0,0,0,0,0,0,0,0,0,0,0,0,0,0,0,0,0,0,0,0,0,0,0,0,0,0,0,0,0,0,0,0,0,0,0,0,0,0,0,0,0,0,0,0,0],"id":9,"left_children":[1,3,5,7,9,11,13,15,17,-1,-1,19,21,23,25,27,29,31,33,-1,-1,35,37,39,41,43,45,-1,-1,-1,-1,-1,-1,-1,-1,-1,-1,-1,-1,-1,-1,-1,-1,-1,-1,-1,-1],"loss_changes":[1.0492956E2,3.0410774E1,6.3273716E1,1.7631447E1,1.6614819E0,5.5486286E1,2.1161034E1,3.3548992E1,1.9429966E1,0E0,0E0,2.2197403E1,3.891197E1,2.6550179E1,4.475208E1,6.3730507E0,1.1885284E1,1.4299883E1,5.488763E1,0E0,0E0,5.0221943E1,3.725548E1,3.996315E0,2.1744734E1,2.679117E1,2.111776E1,0E0,0E0,0E0,0E0,0E0,0E0,0E0,0E0,0E0,0E0,0E0,0E0,0E0,0E0,0E0,0E0,0E0,0E0,0E0,0E0],"parents":[2147483647,0,0,1,1,2,2,3,3,4,4,5,5,6,6,7,7,8,8,11,11,12,12,13,13,14,14,15,15,16,16,17,17,18,18,21,21,22,22,23,23,24,24,25,25,26,26],"right_children":[2,4,6,8,10,12,14,16,18,-1,-1,20,22,24,26,28,30,32,34,-1,-1,36,38,40,42,44,46,-1,-1,-1,-1,-1,-1,-1,-1,-1,-1,-1,-1,-1,-1,-1,-1,-1,-1,-1,-1],"split_conditions":[1.6402481E1,2.82E1,4.45E0,1.5151515E1,2.84E1,9.9E0,5.66E1,4.32E0,2.69E-1,-1.5425836E-1,-4.585093E-2,4.42E0,4.1E0,1.06E1,7E0,1.66E1,9.8E0,1.62E1,5E0,2.2053073E-1,-2.2632599E-2,2.2736667E-1,1.8383839E1,5.01E0,2.29E1,4.82E0,5.32E0,-3.6535963E-2,4.3924224E-2,6.5944195E-3,2.0229256E-1,-1.0117341E-3,7.3428825E-2,2.7222604E-2,1.719845E-1,-2.1481437E-3,8.604069E-2,-1.2669566E-2,-1.1550754E-1,-1.3514218E-1,-7.67841E-2,7.443487E-2,-7.302683E-2,-1.5888108E-2,1.7697437E-1,-2.818186E-2,-8.57261E-2],"split_indices":[6,2,3,6,2,2,8,5,9,0,0,3,5,7,7,0,0,11,5,0,0,12,6,3,0,5,3,0,0,0,0,0,0,0,0,0,0,0,0,0,0,0,0,0,0,0,0],"split_type":[0,0,0,0,0,0,0,0,0,0,0,0,0,0,0,0,0,0,0,0,0,0,0,0,0,0,0,0,0,0,0,0,0,0,0,0,0,0,0,0,0,0,0,0,0,0,0],"sum_hessian":[5.55E2,2.43E2,3.12E2,2.4E2,3E0,1.66E2,1.46E2,2.9E1,2.11E2,1E0,2E0,4E0,1.62E2,3.1E1,1.15E2,2.4E1,5E0,8.8E1,1.23E2,3E0,1E0,7.6E1,8.6E1,2.3E1,8E0,6E0,1.09E2,2E0,2.2E1,1E0,4E0,8.2E1,6E0,1.17E2,6E0,5.4E1,2.2E1,7.7E1,9E0,9E0,1.4E1,4E0,4E0,3E0,3E0,9E1,1.9E1],"tree_param":{"num_deleted":"0","num_feature":"16","num_nodes":"47","size_leaf_vector":"1"}},{"base_weights":[4.3283872E-2,2.6064977E-1,-8.554167E-1,7.0115733E-1,4.5861512E-2,7.751993E-1,-1.0938392E0,-3.6172003E-1,8.279293E-1,1.8818302E-1,1.0081133E-2,2.4258931E-1,-1.1482673E0,-1.8324578E0,-8.1954294E-1,-6.188605E-1,9.381318E-2,2.2565626E-1,7.399033E-1,1.8815875E-1,-1.4009473E-2,-7.3473506E-2,-2.1879482E-1,-9.861339E-2,-1.0315832E-1,7.922777E-1,-1.2427562E0,2.3986658E-2,-4.0503453E-2,6.855508E-2,2.4380146E-2,3.1680122E-3,-5.1838156E-2,-3.062884E-3,-1.7285157E-2,2.282138E-2,-3.0558253E-2,-2.028011E-2,1.4281723E-1,-4.7434192E-2,-1.3855414E-1],"categories":[],"categories_nodes":[],"categories_segments":[],"categories_sizes":[],"default_left":[0,0,0,0,0,0,0,0,0,0,0,0,0,0,0,0,0,0,0,0,0,0,0,0,0,0,0,0,0,0,0,0,0,0,0,0,0,0,0,0,0],"id":10,"left_children":[1,3,5,7,9,11,13,15,17,-1,19,-1,21,23,25,27,-1,-1,29,-1,31,-1,33,-1,35,37,39,-1,-1,-1,-1,-1,-1,-1,-1,-1,-1,-1,-1,-1,-1],"loss_changes":[1.13328804E2,4.4153446E1,4.477957E1,2.0915161E1,4.1864697E1,1.2318883E2,1.8555649E1,1.094424E1,4.11026E1,0E0,2.8352398E1,0E0,2.9625292E0,6.082649E0,5.146327E1,3.7495856E0,0E0,0E0,2.0830406E1,0E0,2.47543E1,0E0,5.8794096E-2,0E0,1.1317728E0,4.0718605E1,2.3887993E1,0E0,0E0,0E0,0E0,0E0,0E0,0E0,0E0,0E0,0E0,0E0,0E0,0E0,0E0],"parents":[2147483647,0,0,1,1,2,2,3,3,4,4,5,5,6,6,7,7,8,8,10,10,12,12,13,13,14,14,15,15,18,18,20,20,22,22,24,24,25,25,26,26],"right_children":[2,4,6,8,10,12,14,16,18,-1,20,-1,22,24,26,28,-1,-1,30,-1,32,-1,34,-1,36,38,40,-1,-1,-1,-1,-1,-1,-1,-1,-1,-1,-1,-1,-1,-1],"split_conditions":[1.7601078E1,1.594758E1,3.89E0,8.2E0,4.4E0,1.75E1,2.48E-1,1.5916101E1,8.4E0,1.8818302E-1,6E0,2.4258931E-1,1.31E1,6.1E-1,2.56E-1,4.33E0,9.381318E-2,2.2565626E-1,3.26E0,1.8815875E-1,5.26E0,-7.3473506E-2,3.46E0,-9.861339E-2,1.06E1,9.8E0,1.9274193E1,2.3986658E-2,-4.0503453E-2,6.855508E-2,2.4380146E-2,3.1680122E-3,-5.1838156E-2,-3.062884E-3,-1.7285157E-2,2.282138E-2,-3.0558253E-2,-2.028011E-2,1.4281723E-1,-4.7434192E-2,-1.3855414E-1],"split_indices":[6,6,4,7,1,2,9,6,7,0,7,0,7,10,9,4,0,0,5,0,3,0,5,0,1,7,6,0,0,0,0,0,0,0,0,0,0,0,0,0,0],"split_type":[0,0,0,0,0,0,0,0,0,0,0,0,0,0,0,0,0,0,0,0,0,0,0,0,0,0,0,0,0,0,0,0,0,0,0,0,0,0,0,0,0],"sum_hessian":[5.78E2,4.66E2,1.12E2,1.52E2,3.14E2,1.4E1,9.8E1,1.6E1,1.36E2,2E0,3.12E2,4E0,1E1,2.5E1,7.3E1,1.5E1,1E0,2E0,1.34E2,1E0,3.11E2,7E0,3E0,2.3E1,2E0,1.5E1,5.8E1,2E0,1.3E1,3.7E1,9.7E1,2.9E2,2.1E1,2E0,1E0,1E0,1E0,1E1,5E0,5E1,8E0],"tree_param":{"num_deleted":"0","num_feature":"16","num_nodes":"41","size_leaf_vector":"1"}},{"base_weights":[-6.359722E-2,4.4499877E-1,-4.9682128E-1,4.9388257E-1,-2.0295308E0,-4.1276473E-1,-1.9157457E0,1.2765359E0,3.295214E-1,-2.8141085E-2,-1.4098649E-1,-3.1245628E-1,-1.4073634E0,-1.3377571E-1,-2.0354588E-1,7.807215E-1,3.6440766E0,4.8105317E-1,-1.981209E-1,-3.997311E-1,1.4663509E0,-1.5030882E0,2.2250844E-2,-1.3026562E0,1.3230014E-1,1.2680912E-1,2.7214006E-2,4.042375E-2,2.7843294E-1,1.8543053E-2,1.8893799E-1,-1.6602186E-2,6.4553976E-2,2.324244E-2,-2.5778359E-2,1.4491215E-1,-2.2429077E-2,-4.2533416E-2,-9.541702E-2,-1.5598679E-2,-7.3616676E-2],"categories":[],"categories_nodes":[],"categories_segments":[],"categories_sizes":[],"default_left":[0,0,0,0,0,0,0,0,0,0,0,0,0,0,0,0,0,0,0,0,0,0,0,0,0,0,0,0,0,0,0,0,0,0,0,0,0,0,0,0,0],"id":11,"left_children":[1,3,5,7,9,11,13,15,17,-1,-1,19,21,-1,23,25,27,29,31,33,35,37,-1,39,-1,-1,-1,-1,-1,-1,-1,-1,-1,-1,-1,-1,-1,-1,-1,-1,-1],"loss_changes":[1.1876187E2,3.1001522E1,3.3916786E1,3.0966991E1,4.2079525E0,2.7095856E1,2.026942E1,4.6457146E1,1.632609E1,0E0,0E0,3.9707905E1,5.1018677E0,0E0,2.2238644E1,1.3561895E1,3.3699318E1,5.6012844E1,9.6028385E0,2.4375698E1,3.420381E1,4.722107E0,0E0,3.8115215E-1,0E0,0E0,0E0,0E0,0E0,0E0,0E0,0E0,0E0,0E0,0E0,0E0,0E0,0E0,0E0,0E0,0E0],"parents":[2147483647,0,0,1,1,2,2,3,3,4,4,5,5,6,6,7,7,8,8,11,11,12,12,14,14,15,15,16,16,17,17,18,18,19,19,20,20,21,21,23,23],"right_children":[2,4,6,8,10,12,14,16,18,-1,-1,20,22,-1,24,26,28,30,32,34,36,38,-1,40,-1,-1,-1,-1,-1,-1,-1,-1,-1,-1,-1,-1,-1,-1,-1,-1,-1],"split_conditions":[1.6538462E1,2.78E1,1.9274193E1,3.26E0,1.5441501E1,5.32E0,3.1813332E-1,3.66E0,4.6E0,-2.8141085E-2,-1.4098649E-1,5.43E0,1.8861385E1,-1.3377571E-1,6.03E0,1.62E1,1.6E1,4.65E0,6.3E-1,3.7E0,9.7E0,5.64E0,2.2250844E-2,1.04E1,1.3230014E-1,1.2680912E-1,2.7214006E-2,4.042375E-2,2.7843294E-1,1.8543053E-2,1.8893799E-1,-1.6602186E-2,6.4553976E-2,2.324244E-2,-2.5778359E-2,1.4491215E-1,-2.2429077E-2,-4.2533416E-2,-9.541702E-2,-1.5598679E-2,-7.3616676E-2],"split_indices":[6,2,6,5,6,3,13,4,3,0,0,4,6,0,5,2,2,4,10,4,1,5,0,1,0,0,0,0,0,0,0,0,0,0,0,0,0,0,0,0,0],"split_type":[0,0,0,0,0,0,0,0,0,0,0,0,0,0,0,0,0,0,0,0,0,0,0,0,0,0,0,0,0,0,0,0,0,0,0,0,0,0,0,0,0],"sum_hessian":[5.37E2,2.47E2,2.9E2,2.43E2,4E0,2.75E2,1.5E1,4.1E1,2.02E2,2E0,2E0,2.51E2,2.4E1,1E1,5E0,3.5E1,6E0,1.57E2,4.5E1,2.4E2,1.1E1,2.3E1,1E0,4E0,1E0,3E0,3.2E1,3E0,3E0,1.53E2,4E0,4.2E1,3E0,2.8E1,2.12E2,6E0,5E0,1E1,1.3E1,1E0,3E0],"tree_param":{"num_deleted":"0","num_feature":"16","num_nodes":"41","size_leaf_vector":"1"}},{"base_weights":[3.3656687E-2,1.0648594E0,-1.2602776E-1,2.043364E0,4.8398206E-1,2.5315604E-1,-4.1988513E-1,2.6973447E-1,1.5780818E0,5.5779457E-2,1.2183433E0,1.2604594E0,1.6583286E-1,-4.932693E-1,1.3995198E0,7.9640776E-1,4.0509276E0,4.4667703E-1,-7.3108655E-1,6.5481365E-1,2.5525575E0,1.7632745E-1,2.7840297E0,3.1293607E-1,-2.7879345E-1,-1.2647476E0,-3.5575873E-1,2.8006976E0,-8.42033E-1,1.3675593E-1,1.6066914E-2,-2.1286964E-2,2.5157043E-1,4.1059346E-5,4.90811E-2,4.2543095E-3,-4.6095617E-2,4.969755E-2,1.8486023E-3,5.54873E-2,2.0809507E-1,2.9134525E-2,-3.4024026E-2,1.9152695E-1,5.591901E-3,5.3245123E-2,6.195594E-3,-2.8893217E-2,2.65761E-2,4.5291662E-2,-6.7181505E-2,-1.4570052E-2,-1.17299736E-1,1.7144121E-1,-2.4201585E-2,-5.8686703E-2,-1.1482716E-2],"categories":[],"categories_nodes":[],"categories_segments":[],"categories_sizes":[],"default_left":[0,0,0,0,0,0,0,0,0,0,0,0,0,0,0,0,0,0,0,0,0,0,0,0,0,0,0,0,0,0,0,0,0,0,0,0,0,0,0,0,0,0,0,0,0,0,0,0,0,0,0,0,0,0,0,0,0],"id":12,"left_children":[1,3,5,7,9,11,13,-1,15,17,19,21,23,25,27,29,31,33,35,37,39,41,43,45,47,49,51,53,55,-1,-1,-1,-1,-1,-1,-1,-1,-1,-1,-1,-1,-1,-1,-1,-1,-1,-1,-1,-1,-1,-1,-1,-1,-1,-1,-1,-1],"loss_changes":[9.333575E1,4.2208786E1,5.4816437E1,3.5147476E1,1.5340354E1,1.8702576E1,3.7674133E1,0E0,4.703076E1,1.0169249E1,1.1862198E1,2.7588877E1,1.3103033E1,2.7875122E1,3.6907234E1,1.846257E1,2.847779E1,5.246377E0,1.791656E0,2.8967152E0,6.9912453E0,4.226435E0,1.9146908E1,2.1189022E1,1.2424236E1,8.065926E0,2.8520218E1,1.6102245E1,7.460799E-1,0E0,0E0,0E0,0E0,0E0,0E0,0E0,0E0,0E0,0E0,0E0,0E0,0E0,0E0,0E0,0E0,0E0,0E0,0E0,0E0,0E0,0E0,0E0,0E0,0E0,0E0,0E0,0E0],"parents":[2147483647,0,0,1,1,2,2,3,3,4,4,5,5,6,6,8,8,9,9,10,10,11,11,12,12,13,13,14,14,15,15,16,16,17,17,18,18,19,19,20,20,21,21,22,22,23,23,24,24,25,25,26,26,27,27,28,28],"right_children":[2,4,6,8,10,12,14,-1,16,18,20,22,24,26,28,30,32,34,36,38,40,42,44,46,48,50,52,54,56,-1,-1,-1,-1,-1,-1,-1,-1,-1,-1,-1,-1,-1,-1,-1,-1,-1,-1,-1,-1,-1,-1,-1,-1,-1,-1,-1,-1],"split_conditions":[3.37E0,2.86E-1,1.6538462E1,2.79E0,3E0,1.5151515E1,2.99E-1,2.6973447E-1,1.6507277E1,3.25E1,5.5E-1,4.32E0,8.2E0,2.45E-1,1.7252253E1,3.4E0,4.3E-1,2.95E1,2.95E-1,2.29E1,5.7E0,5.3E-1,4.79E0,1.06E1,2.2E1,4.5E-1,2.0240963E1,5.7E-1,9.2E0,1.3675593E-1,1.6066914E-2,-2.1286964E-2,2.5157043E-1,4.1059346E-5,4.90811E-2,4.2543095E-3,-4.6095617E-2,4.969755E-2,1.8486023E-3,5.54873E-2,2.0809507E-1,2.9134525E-2,-3.4024026E-2,1.9152695E-1,5.591901E-3,5.3245123E-2,6.195594E-3,-2.8893217E-2,2.65761E-2,4.5291662E-2,-6.7181505E-2,-1.4570052E-2,-1.17299736E-1,1.7144121E-1,-2.4201585E-2,-5.8686703E-2,-1.1482716E-2],"split_indices":[5,9,6,5,5,6,9,0,6,0,10,5,1,9,6,1,10,0,9,2,1,10,5,2,0,10,6,10,1,0,0,0,0,0,0,0,0,0,0,0,0,0,0,0,0,0,0,0,0,0,0,0,0,0,0,0,0],"split_type":[0,0,0,0,0,0,0,0,0,0,0,0,0,0,0,0,0,0,0,0,0,0,0,0,0,0,0,0,0,0,0,0,0,0,0,0,0,0,0,0,0,0,0,0,0,0,0,0,0,0,0,0,0,0,0,0,0],"sum_hessian":[5.65E2,7.5E1,4.9E2,2.7E1,4.8E1,2.14E2,2.76E2,2E0,2.5E1,3.1E1,1.7E1,1.6E1,1.98E2,2.66E2,1E1,2E1,5E0,2.1E1,1E1,1.3E1,4E0,1E1,6E0,1.49E2,4.9E1,3.9E1,2.27E2,6E0,4E0,3E0,1.7E1,1E0,4E0,1.2E1,9E0,2E0,8E0,8E0,5E0,3E0,1E0,7E0,3E0,4E0,2E0,2.9E1,1.2E2,3.6E1,1.3E1,1E0,3.8E1,2.21E2,6E0,5E0,1E0,2E0,2E0],"tree_param":{"num_deleted":"0","num_feature":"16","num_nodes":"57","size_leaf_vector":"1"}},{"base_weights":[-2.1403443E-2,1.759258E-1,-5.801233E-1,6.3450724E-1,-4.813008E-2,1.7192478E-1,-6.326382E-1,3.5271294E0,4.939585E-1,3.295607E-1,-4.4817722E-1,-8.251415E-1,2.178439E-1,1.0741743E-2,2.564784E-1,3.5190845E-1,1.661829E-1,5.136513E-1,-1.1407506E0,-5.1099676E-1,1.222168E-1,-7.189999E-1,-2.0071578E0,8.7084496E-1,-1.4418893E0,6.185639E-3,7.604653E-2,1.8879032E-1,2.2867382E-2,-1.0724457E-1,-2.4466645E-2,-3.8878154E-2,1.52093535E-2,-4.4556223E-2,3.0369058E-2,-3.0443225E-2,-1.1598448E-1,1.1363542E-1,-1.2656148E-2,-9.7070694E-2,1.8894831E-3],"categories":[],"categories_nodes":[],"categories_segments":[],"categories_sizes":[],"default_left":[0,0,0,0,0,0,0,0,0,0,0,0,0,0,0,0,0,0,0,0,0,0,0,0,0,0,0,0,0,0,0,0,0,0,0,0,0,0,0,0,0],"id":13,"left_children":[1,3,5,7,9,-1,11,13,15,17,19,21,23,-1,-1,25,-1,27,29,31,-1,33,35,37,39,-1,-1,-1,-1,-1,-1,-1,-1,-1,-1,-1,-1,-1,-1,-1,-1],"loss_changes":[6.0409782E1,4.1643425E1,3.2353664E1,5.2329487E1,4.1396397E1,0E0,2.3428078E1,3.0744484E1,5.028112E1,3.87505E1,2.5415998E1,1.3110336E1,3.0518467E1,0E0,0E0,3.2624035E1,0E0,2.1415737E1,9.416279E0,2.87029E1,0E0,2.5197937E1,2.5207214E0,3.208827E1,5.986452E0,0E0,0E0,0E0,0E0,0E0,0E0,0E0,0E0,0E0,0E0,0E0,0E0,0E0,0E0,0E0,0E0],"parents":[2147483647,0,0,1,1,2,2,3,3,4,4,6,6,7,7,8,8,9,9,10,10,11,11,12,12,15,15,17,17,18,18,19,19,21,21,22,22,23,23,24,24],"right_children":[2,4,6,8,10,-1,12,14,16,18,20,22,24,-1,-1,26,-1,28,30,32,-1,34,36,38,40,-1,-1,-1,-1,-1,-1,-1,-1,-1,-1,-1,-1,-1,-1,-1,-1],"split_conditions":[4.67E0,2.13E1,4.2E0,3.81E0,3.88E0,1.7192478E-1,6.37E1,1.46E1,4.77E0,3.23E1,7E1,6.95E0,8.3E0,1.0741743E-2,2.564784E-1,3.1813332E-1,1.661829E-1,1.33E1,2.64E0,4.35E0,1.222168E-1,6.07E0,9E0,7.5E0,1.9E1,6.185639E-3,7.604653E-2,1.8879032E-1,2.2867382E-2,-1.0724457E-1,-2.4466645E-2,-3.8878154E-2,1.52093535E-2,-4.4556223E-2,3.0369058E-2,-3.0443225E-2,-1.1598448E-1,1.1363542E-1,-1.2656148E-2,-9.7070694E-2,1.8894831E-3],"split_indices":[3,0,1,3,5,0,8,2,4,0,8,5,1,0,0,13,0,2,4,4,0,5,7,2,0,0,0,0,0,0,0,0,0,0,0,0,0,0,0,0,0],"split_type":[0,0,0,0,0,0,0,0,0,0,0,0,0,0,0,0,0,0,0,0,0,0,0,0,0,0,0,0,0,0,0,0,0,0,0,0,0,0,0,0,0],"sum_hessian":[5.46E2,4.04E2,1.42E2,1.32E2,2.72E2,1E0,1.41E2,5E0,1.27E2,1.4E2,1.32E2,1.15E2,2.6E1,2E0,3E0,1.22E2,5E0,1.25E2,1.5E1,1.3E2,2E0,1.07E2,8E0,1.9E1,7E0,1.03E2,1.9E1,1E0,1.24E2,5E0,1E1,9.8E1,3.2E1,9.5E1,1.2E1,2E0,6E0,8E0,1.1E1,5E0,2E0],"tree_param":{"num_deleted":"0","num_feature":"16","num_nodes":"41","size_leaf_vector":"1"}},{"base_weights":[-3.0945862E-2,2.875912E-1,-6.343269E-1,7.453273E-2,7.18453E-1,-4.9598333E-1,-2.1078138E0,1.0176319E0,-4.863615E-2,4.274907E-1,1.6488129E0,-1.2490476E0,-3.1873083E-1,-3.833139E-2,-2.358347E0,8.0698615E-1,1.6762666E-1,1.7735533E-1,-8.201395E-2,2.6417625E-1,2.3728554E0,4.320913E0,7.236533E-1,6.879513E-1,-1.4656793E0,-5.999555E-1,1.3436197E0,-2.343359E-2,-1.238382E-1,-1.8800957E-2,4.5833368E-2,1.8817794E-2,-1.9054322E-2,4.515207E-2,-8.545471E-3,2.8859293E-1,-7.055893E-3,2.5829917E-1,-1.8737746E-2,-6.877928E-2,5.0117828E-2,6.7490295E-2,-3.2440305E-2,-8.6454734E-2,-2.6257515E-2,-4.9468618E-2,-1.8130383E-2,1.2464614E-1,3.6084652E-3],"categories":[],"categories_nodes":[],"categories_segments":[],"categories_sizes":[],"default_left":[0,0,0,0,0,0,0,0,0,0,0,0,0,0,0,0,0,0,0,0,0,0,0,0,0,0,0,0,0,0,0,0,0,0,0,0,0,0,0,0,0,0,0,0,0,0,0,0,0],"id":14,"left_children":[1,3,5,7,9,11,13,15,17,19,21,23,25,-1,27,29,-1,-1,31,33,35,37,39,41,43,45,47,-1,-1,-1,-1,-1,-1,-1,-1,-1,-1,-1,-1,-1,-1,-1,-1,-1,-1,-1,-1,-1,-1],"loss_changes":[1.0569979E2,3.2994007E1,3.7685562E1,2.8160326E1,3.1508404E1,2.2961334E1,3.568222E0,1.106599E1,2.6094782E1,2.8602112E1,6.6092476E1,1.4855614E1,6.7657745E1,0E0,1.7482071E0,3.8480282E0,0E0,0E0,2.947978E1,2.4058989E1,6.062954E1,2.971318E1,1.4250247E1,4.4147177E0,6.52446E0,1.10098E1,3.0507011E1,0E0,0E0,0E0,0E0,0E0,0E0,0E0,0E0,0E0,0E0,0E0,0E0,0E0,0E0,0E0,0E0,0E0,0E0,0E0,0E0,0E0,0E0],"parents":[2147483647,0,0,1,1,2,2,3,3,4,4,5,5,6,6,7,7,8,8,9,9,10,10,11,11,12,12,14,14,15,15,18,18,19,19,20,20,21,21,22,22,23,23,24,24,25,25,26,26],"right_children":[2,4,6,8,10,12,14,16,18,20,22,24,26,-1,28,30,-1,-1,32,34,36,38,40,42,44,46,48,-1,-1,-1,-1,-1,-1,-1,-1,-1,-1,-1,-1,-1,-1,-1,-1,-1,-1,-1,-1,-1,-1],"split_conditions":[1.7033195E1,3.1813332E-1,1.9274193E1,1.5151515E1,4.89E0,7.5E0,2.43E-1,4.53E0,6E0,2.95E1,4.47E0,4.5E-1,5.08E0,-3.833139E-2,1.48E1,2.9E0,1.6762666E-1,1.7735533E-1,3.95E0,1.5793226E1,3.13E1,1.6633417E1,1.9E0,1.77E1,6E-1,5.2554035E-1,5.4E-1,-2.343359E-2,-1.238382E-1,-1.8800957E-2,4.5833368E-2,1.8817794E-2,-1.9054322E-2,4.515207E-2,-8.545471E-3,2.8859293E-1,-7.055893E-3,2.5829917E-1,-1.8737746E-2,-6.877928E-2,5.0117828E-2,6.7490295E-2,-3.2440305E-2,-8.6454734E-2,-2.6257515E-2,-4.9468618E-2,-1.8130383E-2,1.2464614E-1,3.6084652E-3],"split_indices":[6,13,6,6,5,2,9,4,7,0,4,10,4,0,0,1,0,0,5,6,0,6,2,0,10,10,10,0,0,0,0,0,0,0,0,0,0,0,0,0,0,0,0,0,0,0,0,0,0],"split_type":[0,0,0,0,0,0,0,0,0,0,0,0,0,0,0,0,0,0,0,0,0,0,0,0,0,0,0,0,0,0,0,0,0,0,0,0,0,0,0,0,0,0,0,0,0,0,0,0,0],"sum_hessian":[5.48E2,3.59E2,1.89E2,2.41E2,1.18E2,1.74E2,1.5E1,2.7E1,2.14E2,9.1E1,2.7E1,3.2E1,1.42E2,3E0,1.2E1,2.6E1,1E0,1E0,2.13E2,8.5E1,6E0,6E0,2.1E1,3E0,2.9E1,1.22E2,2E1,1E0,1.1E1,2E0,2.4E1,8.4E1,1.29E2,3.4E1,5.1E1,2E0,4E0,5E0,1E0,2E0,1.9E1,2E0,1E0,2.2E1,7E0,4.5E1,7.7E1,1E1,1E1],"tree_param":{"num_deleted":"0","num_feature":"16","num_nodes":"49","size_leaf_vector":"1"}},{"base_weights":[-2.3555852E-2,8.249781E-1,-1.4299522E-1,1.6185498E-1,1.9154567E0,-3.1990513E-2,-8.6830306E-1,5.98312E-1,-7.2184944E-1,4.47889E0,1.0918348E0,1.9533315E-1,-4.472842E-1,-1.152313E0,-3.6779457E-1,7.7553886E-1,-3.7377346E-2,-1.1615181E0,1.3123989E-1,1.5971517E-2,2.623448E-1,6.139197E-1,2.9694943E0,2.6303577E-1,-1.8424039E0,1.8372525E-1,-1.0401998E0,-4.1785994E-1,-1.4076838E0,-1.0445484E0,2.3855114E-1,5.5167455E-2,2.19867E-2,-6.618735E-2,7.4635507E-3,1.1933403E-2,-1.0147524E-2,-2.1301883E-3,1.16470076E-1,3.0506277E-2,1.7762877E-1,8.375494E-2,9.223962E-3,1.6099501E-2,-1.0766011E-1,1.8367369E-2,-5.9162546E-2,-3.6279153E-2,-7.880508E-2,1.20049855E-2,-3.8842615E-2,-1.9084906E-2,-7.537726E-2,-7.5552845E-3,-7.3619075E-2,-7.4155005E-3,1.3169365E-1],"categories":[],"categories_nodes":[],"categories_segments":[],"categories_sizes":[],"default_left":[0,0,0,0,0,0,0,0,0,0,0,0,0,0,0,0,0,0,0,0,0,0,0,0,0,0,0,0,0,0,0,0,0,0,0,0,0,0,0,0,0,0,0,0,0,0,0,0,0,0,0,0,0,0,0,0,0],"id":15,"left_children":[1,3,5,7,9,11,13,15,17,19,21,23,25,27,29,31,-1,33,35,-1,-1,37,39,41,43,45,47,49,51,53,55,-1,-1,-1,-1,-1,-1,-1,-1,-1,-1,-1,-1,-1,-1,-1,-1,-1,-1,-1,-1,-1,-1,-1,-1,-1,-1],"loss_changes":[5.6670353E1,4.958536E1,3.9423386E1,1.7402649E1,5.0003586E1,4.030436E1,8.815895E0,7.73542E0,5.778587E0,1.7490913E1,1.702157E1,3.8561615E1,5.6685547E1,7.1016617E0,1.0507847E1,2.4869862E0,0E0,2.3240757E0,2.6384655E-1,0E0,0E0,2.0371813E1,3.3352966E0,2.9419357E1,6.7475147E0,1.9009186E1,1.20075E1,3.0209515E0,2.4982643E0,4.3644466E0,1.3363827E1,0E0,0E0,0E0,0E0,0E0,0E0,0E0,0E0,0E0,0E0,0E0,0E0,0E0,0E0,0E0,0E0,0E0,0E0,0E0,0E0,0E0,0E0,0E0,0E0,0E0,0E0],"parents":[2147483647,0,0,1,1,2,2,3,3,4,4,5,5,6,6,7,7,8,8,9,9,10,10,11,11,12,12,13,13,14,14,15,15,17,17,18,18,21,21,22,22,23,23,24,24,25,25,26,26,27,27,28,28,29,29,30,30],"right_children":[2,4,6,8,10,12,14,16,18,20,22,24,26,28,30,32,-1,34,36,-1,-1,38,40,42,44,46,48,50,52,54,56,-1,-1,-1,-1,-1,-1,-1,-1,-1,-1,-1,-1,-1,-1,-1,-1,-1,-1,-1,-1,-1,-1,-1,-1,-1,-1],"split_conditions":[3.37E0,3.51E0,5.12E0,1.6238651E1,3.56E0,1.13E1,9.1E0,2.82E1,3.21E0,5.1E0,5.7E-1,1.8565737E1,3.93E0,8E0,3.1993333E-1,3.03E0,-3.7377346E-2,1.64E1,8.9E0,1.5971517E-2,2.623448E-1,6.65E1,3.24E0,5.54E1,9E0,1.7883755E1,2.83E-1,7.4E0,5.8E0,1.05E1,1.5E1,5.5167455E-2,2.19867E-2,-6.618735E-2,7.4635507E-3,1.1933403E-2,-1.0147524E-2,-2.1301883E-3,1.16470076E-1,3.0506277E-2,1.7762877E-1,8.375494E-2,9.223962E-3,1.6099501E-2,-1.0766011E-1,1.8367369E-2,-5.9162546E-2,-3.6279153E-2,-7.880508E-2,1.20049855E-2,-3.8842615E-2,-1.9084906E-2,-7.537726E-2,-7.5552845E-3,-7.3619075E-2,-7.4155005E-3,1.3169365E-1],"split_indices":[5,4,3,6,3,7,7,2,3,1,10,6,4,1,14,4,0,7,1,0,0,8,5,8,1,6,9,7,7,1,1,0,0,0,0,0,0,0,0,0,0,0,0,0,0,0,0,0,0,0,0,0,0,0,0,0,0],"split_type":[0,0,0,0,0,0,0,0,0,0,0,0,0,0,0,0,0,0,0,0,0,0,0,0,0,0,0,0,0,0,0,0,0,0,0,0,0,0,0,0,0,0,0,0,0,0,0,0,0,0,0,0,0,0,0,0,0],"sum_hessian":[5.57E2,6.8E1,4.89E2,4.3E1,2.5E1,4.25E2,6.4E1,2.9E1,1.4E1,5E0,2E1,2.75E2,1.5E2,4E1,2.4E1,2.6E1,3E0,9E0,5E0,1E0,4E0,1.7E1,3E0,2.67E2,8E0,7.3E1,7.7E1,1.1E1,2.9E1,1.1E1,1.3E1,1.2E1,1.4E1,8E0,1E0,4E0,1E0,1.3E1,4E0,1E0,2E0,1.3E1,2.54E2,1E0,7E0,6.5E1,8E0,5E1,2.7E1,4E0,7E0,3E0,2.6E1,4E0,7E0,1.2E1,1E0],"tree_param":{"num_deleted":"0","num_feature":"16","num_nodes":"57","size_leaf_vector":"1"}},{"base_weights":[-2.588866E-3,1.6992985E-1,-7.3786193E-1,1.1786426E-2,5.221774E-1,-1.6699964E0,-4.7877878E-1,3.0881125E-1,-2.9927167E-1,-1.2948913E-2,9.5758617E-1,-9.180951E-2,-5.371412E-3,-1.6816078E-1,-1.3730425E0,-1.4265893E-1,3.476188E-1,-6.5297365E-1,-1.0147543E-2,-1.24327324E-1,1.1094679E-1,2.0060587E0,3.603139E-1,2.3456668E-2,-2.3859525E-2,2.6310072E0,-4.5985985E-1,-6.7868173E-1,-1.6717455E0,-3.0083635E-3,3.1006156E-2,-6.1838586E-2,-2.3771375E-2,3.5282165E-2,-2.143131E-2,9.723851E-3,-2.3591215E-2,4.6120442E-2,1.8780112E-1,1.4593446E-1,6.5006777E-3,-3.4000494E-2,2.2282591E-1,-4.8946436E-2,1.21852765E-2,-4.1920184E-3,-5.0940927E-2,-2.5949884E-2,-9.694748E-2],"categories":[],"categories_nodes":[],"categories_segments":[],"categories_sizes":[],"default_left":[0,0,0,0,0,0,0,0,0,0,0,0,0,0,0,0,0,0,0,0,0,0,0,0,0,0,0,0,0,0,0,0,0,0,0,0,0,0,0,0,0,0,0,0,0,0,0,0,0],"id":16,"left_children":[1,3,5,7,9,11,13,15,17,19,21,-1,23,25,27,-1,29,31,33,35,-1,37,39,-1,-1,41,43,45,47,-1,-1,-1,-1,-1,-1,-1,-1,-1,-1,-1,-1,-1,-1,-1,-1,-1,-1,-1,-1],"loss_changes":[6.875035E1,2.444862E1,2.4074978E1,2.8179579E1,3.1700222E1,6.076454E0,2.2546606E1,2.013443E1,1.5230676E1,1.5688067E1,4.6243958E1,0E0,8.955072E-1,5.1833805E1,3.2209778E0,0E0,1.7261446E1,6.3566246E0,2.5164543E1,6.7387714E0,0E0,4.77368E1,2.8491072E1,0E0,0E0,3.929626E1,2.1054905E1,1.5332012E0,3.3059616E0,0E0,0E0,0E0,0E0,0E0,0E0,0E0,0E0,0E0,0E0,0E0,0E0,0E0,0E0,0E0,0E0,0E0,0E0,0E0,0E0],"parents":[2147483647,0,0,1,1,2,2,3,3,4,4,5,5,6,6,7,7,8,8,9,9,10,10,12,12,13,13,14,14,16,16,17,17,18,18,19,19,21,21,22,22,25,25,26,26,27,27,28,28],"right_children":[2,4,6,8,10,12,14,16,18,20,22,-1,24,26,28,-1,30,32,34,36,-1,38,40,-1,-1,42,44,46,48,-1,-1,-1,-1,-1,-1,-1,-1,-1,-1,-1,-1,-1,-1,-1,-1,-1,-1,-1,-1],"split_conditions":[1.7601078E1,2.2736667E-1,2.48E-1,1.6356688E1,1.4890716E1,1.62E1,2.83E-1,2.09E0,1.4890716E1,1.12E1,1.5E1,-9.180951E-2,1.52E1,3.89E0,1.49E1,-1.4265893E-1,2.69E-1,3.77E0,4.24E0,4.14E0,1.1094679E-1,8.3E0,5.8E1,2.3456668E-2,-2.3859525E-2,2.7E-1,5.94E1,9.4E0,3.46E0,-3.0083635E-3,3.1006156E-2,-6.1838586E-2,-2.3771375E-2,3.5282165E-2,-2.143131E-2,9.723851E-3,-2.3591215E-2,4.6120442E-2,1.8780112E-1,1.4593446E-1,6.5006777E-3,-3.4000494E-2,2.2282591E-1,-4.8946436E-2,1.21852765E-2,-4.1920184E-3,-5.0940927E-2,-2.5949884E-2,-9.694748E-2],"split_indices":[6,12,9,6,11,11,9,5,11,1,11,0,0,4,11,0,9,5,5,4,0,1,8,0,0,9,8,1,5,0,0,0,0,0,0,0,0,0,0,0,0,0,0,0,0,0,0,0,0],"split_type":[0,0,0,0,0,0,0,0,0,0,0,0,0,0,0,0,0,0,0,0,0,0,0,0,0,0,0,0,0,0,0,0,0,0,0,0,0,0,0,0,0,0,0,0,0,0,0,0,0],"sum_hessian":[5.4E2,4.38E2,1.02E2,3.03E2,1.35E2,2.1E1,8.1E1,1.55E2,1.48E2,6.1E1,7.4E1,1.9E1,2E0,6.1E1,2E1,1E0,1.54E2,6.6E1,8.2E1,5.9E1,2E0,2.6E1,4.8E1,1E0,1E0,5E0,5.6E1,7E0,1.3E1,6.2E1,9.2E1,1.4E1,5.2E1,3E1,5.2E1,3.1E1,2.8E1,1.7E1,9E0,3E0,4.5E1,2E0,3E0,3.2E1,2.4E1,3E0,4E0,3E0,1E1],"tree_param":{"num_deleted":"0","num_feature":"16","num_nodes":"49","size_leaf_vector":"1"}},{"base_weights":[-1.2701444E-2,7.771006E-1,-1.2597305E-1,1.2485287E0,-1.1641186E0,-5.015987E-2,-1.2248689E0,3.996048E0,1.0176116E0,-1.9532899E0,-5.08658E-1,-1.6037164E0,-1.1295291E-2,-6.4943695E-1,-1.9716641E0,2.8968478E-2,2.4709089E-1,1.5961709E0,1.9357026E-1,-1.1155317E-1,-1.4110565E-2,-5.309371E-2,-5.5070877E-2,4.208193E-2,-1.9324157E0,2.6340504E0,-5.3838104E-2,-3.1520724E-2,-1.0072614E0,-4.0678706E-2,-1.05413236E-1,3.6955114E-2,1.5436432E-1,-5.8122586E-2,1.8903503E-2,-1.6645718E-2,8.353973E-3,-1.17457606E-1,-3.6001146E-2,-2.5489999E-2,1.9967753E-1,-4.597628E-3,7.8761086E-2,-3.515003E-2,2.5598366E-2,2.51554E-2,-5.9515238E-2],"categories":[],"categories_nodes":[],"categories_segments":[],"categories_sizes":[],"default_left":[0,0,0,0,0,0,0,0,0,0,0,0,0,0,0,0,0,0,0,0,0,0,0,0,0,0,0,0,0,0,0,0,0,0,0,0,0,0,0,0,0,0,0,0,0,0,0],"id":17,"left_children":[1,3,5,7,9,11,13,15,17,19,21,23,25,27,29,-1,-1,31,33,-1,-1,-1,35,-1,37,39,41,43,45,-1,-1,-1,-1,-1,-1,-1,-1,-1,-1,-1,-1,-1,-1,-1,-1,-1,-1],"loss_changes":[4.9212612E1,6.459846E1,4.0011044E1,3.1462723E1,6.248232E0,2.721251E1,1.2041153E1,1.0062431E1,2.4959137E1,2.1554585E0,2.1999068E0,1.0468048E1,4.977215E1,4.1692553E0,3.4131622E-1,0E0,0E0,3.7335815E1,6.193761E0,0E0,0E0,0E0,4.2596126E-1,0E0,3.3610382E0,3.1954372E1,2.7154314E1,3.2794433E0,3.9164095E0,0E0,0E0,0E0,0E0,0E0,0E0,0E0,0E0,0E0,0E0,0E0,0E0,0E0,0E0,0E0,0E0,0E0,0E0],"parents":[2147483647,0,0,1,1,2,2,3,3,4,4,5,5,6,6,7,7,8,8,9,9,10,10,11,11,12,12,13,13,14,14,17,17,18,18,22,22,24,24,25,25,26,26,27,27,28,28],"right_children":[2,4,6,8,10,12,14,16,18,20,22,24,26,28,30,-1,-1,32,34,-1,-1,-1,36,-1,38,40,42,44,46,-1,-1,-1,-1,-1,-1,-1,-1,-1,-1,-1,-1,-1,-1,-1,-1,-1,-1],"split_conditions":[3.37E0,3.25E1,5.41E0,5.76E1,2.71E0,5.3E1,6.16E0,2.41E1,6.5E0,7.9E0,2.55E1,1.77E1,5.38E1,5.52E0,1.27E1,2.8968478E-2,2.4709089E-1,3.42E0,9.5E0,-1.1155317E-1,-1.4110565E-2,-5.309371E-2,5.1E-1,4.208193E-2,5.8E-1,1.68E1,5.41E0,7.1E0,7.8E0,-4.0678706E-2,-1.05413236E-1,3.6955114E-2,1.5436432E-1,-5.8122586E-2,1.8903503E-2,-1.6645718E-2,8.353973E-3,-1.17457606E-1,-3.6001146E-2,-2.5489999E-2,1.9967753E-1,-4.597628E-3,7.8761086E-2,-3.515003E-2,2.5598366E-2,2.51554E-2,-5.9515238E-2],"split_indices":[5,0,3,8,3,8,5,0,1,1,2,0,8,4,0,0,0,4,7,0,0,0,10,0,10,0,4,7,1,0,0,0,0,0,0,0,0,0,0,0,0,0,0,0,0,0,0],"split_type":[0,0,0,0,0,0,0,0,0,0,0,0,0,0,0,0,0,0,0,0,0,0,0,0,0,0,0,0,0,0,0,0,0,0,0,0,0,0,0,0,0,0,0,0,0,0,0],"sum_hessian":[5.48E2,6.8E1,4.8E2,5.5E1,1.3E1,4.5E2,3E1,3E0,5.2E1,5E0,8E0,1E1,4.4E2,1.8E1,1.2E1,1E0,2E0,3E1,2.2E1,4E0,1E0,3E0,5E0,1E0,9E0,6E0,4.34E2,7E0,1.1E1,2E0,1E1,2E1,1E1,2E0,2E1,2E0,3E0,6E0,3E0,2E0,4E0,4.25E2,9E0,3E0,4E0,1E0,1E1],"tree_param":{"num_deleted":"0","num_feature":"16","num_nodes":"47","size_leaf_vector":"1"}},{"base_weights":[1.6370026E-2,2.686925E-1,-4.5505655E-1,3.1948352E-1,-1.2647318E0,-2.995293E-1,-1.4232085E0,2.814069E-1,2.1831129E0,-7.588803E-2,-3.0346965E-2,-1.1630435E0,-1.2954372E-1,6.991148E-2,-1.5855035E0,2.244002E-1,1.5433971E0,-6.276991E-2,2.9654312E0,-1.4544882E-1,-1.4339579E0,2.0617163E-1,-6.6077805E-1,2.1166642E-1,-1.744087E0,-9.452149E-2,1.2774028E-2,2.0121776E-1,2.9389737E-2,2.2986023E-1,-9.937191E-3,-4.2686988E-2,5.417595E-2,-7.597684E-2,9.079981E-3,3.7350096E-3,1.97506E-1,-3.830795E-2,1.2837934E-1,-6.3553094E-3,2.2230292E-2,1.8958999E-2,-9.264445E-2],"categories":[],"categories_nodes":[],"categories_segments":[],"categories_sizes":[],"default_left":[0,0,0,0,0,0,0,0,0,0,0,0,0,0,0,0,0,0,0,0,0,0,0,0,0,0,0,0,0,0,0,0,0,0,0,0,0,0,0,0,0,0,0],"id":18,"left_children":[1,3,5,7,9,11,13,15,17,-1,-1,19,21,-1,23,25,27,-1,29,31,33,35,37,39,41,-1,-1,-1,-1,-1,-1,-1,-1,-1,-1,-1,-1,-1,-1,-1,-1,-1,-1],"loss_changes":[6.721092E1,2.9065445E1,2.923679E1,2.471862E1,1.0760975E0,2.4949564E1,1.4580341E1,2.4905275E1,2.2552872E1,0E0,0E0,7.510502E0,2.58177E1,0E0,7.7792053E0,2.2633848E1,3.3196644E1,0E0,3.1892967E1,7.0183105E0,3.3176155E0,4.3512707E1,2.1018835E1,2.9325265E-1,6.2469482E0,0E0,0E0,0E0,0E0,0E0,0E0,0E0,0E0,0E0,0E0,0E0,0E0,0E0,0E0,0E0,0E0,0E0,0E0],"parents":[2147483647,0,0,1,1,2,2,3,3,4,4,5,5,6,6,7,7,8,8,11,11,12,12,14,14,15,15,16,16,18,18,19,19,20,20,21,21,22,22,23,23,24,24],"right_children":[2,4,6,8,10,12,14,16,18,-1,-1,20,22,-1,24,26,28,-1,30,32,34,36,38,40,42,-1,-1,-1,-1,-1,-1,-1,-1,-1,-1,-1,-1,-1,-1,-1,-1,-1,-1],"split_conditions":[1.7033195E1,1.09E1,1.8565737E1,1.6982456E1,1.6775702E1,2.45E-1,3.68E0,9.9E0,5.2E0,-7.588803E-2,-3.0346965E-2,1.744344E1,1.13E1,6.991148E-2,2.37E-1,2.71E0,8.3E0,-6.276991E-2,1.02E1,4.84E0,1.8530184E1,2.91E-1,5.54E0,1.04E1,5.8E0,-9.452149E-2,1.2774028E-2,2.0121776E-1,2.9389737E-2,2.2986023E-1,-9.937191E-3,-4.2686988E-2,5.417595E-2,-7.597684E-2,9.079981E-3,3.7350096E-3,1.97506E-1,-3.830795E-2,1.2837934E-1,-6.3553094E-3,2.2230292E-2,1.8958999E-2,-9.264445E-2],"split_indices":[6,1,6,6,6,9,5,1,2,0,0,6,7,0,9,3,7,0,7,5,6,9,5,1,7,0,0,0,0,0,0,0,0,0,0,0,0,0,0,0,0,0,0],"split_type":[0,0,0,0,0,0,0,0,0,0,0,0,0,0,0,0,0,0,0,0,0,0,0,0,0,0,0,0,0,0,0,0,0,0,0,0,0,0,0,0,0,0,0],"sum_hessian":[5.63E2,3.67E2,1.96E2,3.56E2,1.1E1,1.7E2,2.6E1,3.5E2,6E0,7E0,4E0,2.7E1,1.43E2,1E0,2.5E1,3.36E2,1.4E1,1E0,5E0,6E0,2.1E1,8.8E1,5.5E1,2E0,2.3E1,4E0,3.32E2,3E0,1.1E1,3E0,2E0,4E0,2E0,2E1,1E0,8.6E1,2E0,5.4E1,1E0,1E0,1E0,1E0,2.2E1],"tree_param":{"num_deleted":"0","num_feature":"16","num_nodes":"43","size_leaf_vector":"1"}},{"base_weights":[2.6450386E-2,2.1115732E-1,-4.2393807E-1,5.4300357E-2,1.3829942E0,-5.735822E-1,1.469471E0,4.0704036E-1,-3.2851592E-1,1.9701686E0,-4.448475E-1,1.6307616E-1,-6.215324E-1,3.179083E0,-2.0583534E-1,2.0704658E-1,3.2035896E-1,7.0766234E-1,-4.36134E-1,1.4780782E-1,3.1780374E0,7.9169534E-2,-1.0088341E0,-9.2765605E-1,-2.5759864E-1,2.1589653E-1,7.6508835E-2,2.770095E-1,-6.3722134E-1,1.452722E-1,1.2189687E-2,1.0560127E-1,-6.1343457E-3,-7.4911476E-3,-3.9169934E-2,-1.3751112E-2,1.5168571E-1,1.7181222E-1,-4.9652625E-2,-7.2706394E-2,-2.3480853E-2,6.21366E-2,-5.1417798E-2,-2.6279166E-2,2.6544517E-2,-2.3337413E-2,3.4025576E-2,-4.266316E-2,2.726078E-4],"categories":[],"categories_nodes":[],"categories_segments":[],"categories_sizes":[],"default_left":[0,0,0,0,0,0,0,0,0,0,0,0,0,0,0,0,0,0,0,0,0,0,0,0,0,0,0,0,0,0,0,0,0,0,0,0,0,0,0,0,0,0,0,0,0,0,0,0,0],"id":19,"left_children":[1,3,5,7,9,11,13,15,17,19,21,-1,23,25,27,-1,29,31,33,35,37,-1,39,41,43,-1,-1,45,47,-1,-1,-1,-1,-1,-1,-1,-1,-1,-1,-1,-1,-1,-1,-1,-1,-1,-1,-1,-1],"loss_changes":[4.5760757E1,7.161111E1,4.6176857E1,4.6720657E1,5.024646E1,2.9427357E1,3.5023857E1,5.6932014E1,1.8819553E1,7.657132E1,1.5324169E1,0E0,1.6249527E1,4.6599197E0,1.6345638E0,0E0,3.432486E1,1.8916912E1,1.4895908E1,1.913806E1,2.6029465E1,0E0,1.7182169E0,1.8762604E1,1.4858932E1,0E0,0E0,1.5180584E0,5.600295E-1,0E0,0E0,0E0,0E0,0E0,0E0,0E0,0E0,0E0,0E0,0E0,0E0,0E0,0E0,0E0,0E0,0E0,0E0,0E0,0E0],"parents":[2147483647,0,0,1,1,2,2,3,3,4,4,5,5,6,6,7,7,8,8,9,9,10,10,12,12,13,13,14,14,16,16,17,17,18,18,19,19,20,20,22,22,23,23,24,24,27,27,28,28],"right_children":[2,4,6,8,10,12,14,16,18,20,22,-1,24,26,28,-1,30,32,34,36,38,-1,40,42,44,-1,-1,46,48,-1,-1,-1,-1,-1,-1,-1,-1,-1,-1,-1,-1,-1,-1,-1,-1,-1,-1,-1,-1],"split_conditions":[4.64E0,4.9E0,6.3E-1,3.93E0,1.13E1,4.2E0,4.91E0,5.38E1,2.52E-1,2.63E-1,4.7E-1,1.6307616E-1,2.2736667E-1,4.24E0,2.54E-1,2.0704658E-1,2.48E-1,4.24E0,8E0,4.6E0,5.01E0,7.9169534E-2,4.35E0,6E0,6.34E1,2.1589653E-1,7.6508835E-2,5.1E0,5.14E0,1.452722E-1,1.2189687E-2,1.0560127E-1,-6.1343457E-3,-7.4911476E-3,-3.9169934E-2,-1.3751112E-2,1.5168571E-1,1.7181222E-1,-4.9652625E-2,-7.2706394E-2,-2.3480853E-2,6.21366E-2,-5.1417798E-2,-2.6279166E-2,2.6544517E-2,-2.3337413E-2,3.4025576E-2,-4.266316E-2,2.726078E-4],"split_indices":[3,5,10,5,7,1,3,8,9,9,10,0,12,5,9,0,9,5,1,3,4,0,4,7,8,0,0,1,4,0,0,0,0,0,0,0,0,0,0,0,0,0,0,0,0,0,0,0,0],"split_type":[0,0,0,0,0,0,0,0,0,0,0,0,0,0,0,0,0,0,0,0,0,0,0,0,0,0,0,0,0,0,0,0,0,0,0,0,0,0,0,0,0,0,0,0,0,0,0,0,0],"sum_hessian":[5.48E2,3.89E2,1.59E2,3.44E2,4.5E1,1.48E2,1.1E1,1.79E2,1.65E2,3.4E1,1.1E1,1E0,1.47E2,5E0,6E0,3E0,1.76E2,1.5E1,1.5E2,1.4E1,2E1,2E0,9E0,7.9E1,6.8E1,2E0,3E0,3E0,3E0,4E0,1.72E2,5E0,1E1,8.3E1,6.7E1,1.3E1,1E0,1.9E1,1E0,4E0,5E0,3E0,7.6E1,5.1E1,1.7E1,1E0,2E0,2E0,1E0],"tree_param":{"num_deleted":"0","num_feature":"16","num_nodes":"49","size_leaf_vector":"1"}},{"base_weights":[3.490738E-2,3.086886E-1,-4.660538E-1,3.5843784E-1,-8.727058E-1,-3.522725E-1,-1.6634612E0,3.221876E-1,2.088672E0,-1.1265328E0,-3.0421004E-1,-2.5251278E-1,-1.3115431E0,5.1511128E-2,-1.8955582E0,3.6381385E-1,-1.1045104E0,-5.9915233E-2,2.8362188E0,-3.6299706E-3,-6.1778493E-2,-2.20994E-2,9.616995E-3,-3.807448E-1,1.4355465E0,-1.6071265E0,-2.8071767E-1,1.9142007E-2,-1.5278674E-2,-4.1156992E-1,-2.0922048E0,1.3052262E-2,5.01897E-2,8.7274555E-3,-7.2304696E-2,2.199796E-1,-9.684245E-3,-3.330366E-2,5.64229E-3,3.4834173E-2,2.39076E-1,-3.627379E-2,-1.03373684E-1,1.2106895E-2,-3.5500035E-2,-5.539441E-3,-2.5328303E-2,-1.1238273E-1,-4.1241042E-2],"categories":[],"categories_nodes":[],"categories_segments":[],"categories_sizes":[],"default_left":[0,0,0,0,0,0,0,0,0,0,0,0,0,0,0,0,0,0,0,0,0,0,0,0,0,0,0,0,0,0,0,0,0,0,0,0,0,0,0,0,0,0,0,0,0,0,0,0,0],"id":20,"left_children":[1,3,5,7,9,11,13,15,17,19,21,23,25,27,29,31,33,-1,35,-1,-1,-1,-1,37,39,41,43,-1,-1,45,47,-1,-1,-1,-1,-1,-1,-1,-1,-1,-1,-1,-1,-1,-1,-1,-1,-1,-1],"loss_changes":[7.722429E1,2.1706345E1,2.652628E1,2.1279541E1,1.8217907E0,1.718129E1,6.8643227E0,2.083134E1,2.0598833E1,1.0594769E0,4.9549377E-1,3.6695946E1,4.7286644E0,4.7192323E-1,3.5162354E0,2.177087E1,4.6214714E0,0E0,2.9273357E1,0E0,0E0,0E0,0E0,2.2045492E1,2.6335386E1,3.776348E0,1.2941833E0,0E0,0E0,2.9597342E-2,7.072792E-1,0E0,0E0,0E0,0E0,0E0,0E0,0E0,0E0,0E0,0E0,0E0,0E0,0E0,0E0,0E0,0E0,0E0,0E0],"parents":[2147483647,0,0,1,1,2,2,3,3,4,4,5,5,6,6,7,7,8,8,9,9,10,10,11,11,12,12,13,13,14,14,15,15,16,16,18,18,23,23,24,24,25,25,26,26,29,29,30,30],"right_children":[2,4,6,8,10,12,14,16,18,20,22,24,26,28,30,32,34,-1,36,-1,-1,-1,-1,38,40,42,44,-1,-1,46,48,-1,-1,-1,-1,-1,-1,-1,-1,-1,-1,-1,-1,-1,-1,-1,-1,-1,-1],"split_conditions":[1.7033195E1,1.09E1,1.9274193E1,1.7E1,1.6875376E1,5.32E0,1.48E1,5.64E0,1.37E1,1.609067E1,2.52E1,1.21E1,1.8205645E1,1.32E1,2.43E-1,4.92E0,7.8E0,-5.9915233E-2,1.02E1,-3.6299706E-3,-6.1778493E-2,-2.20994E-2,9.616995E-3,2.2736667E-1,1.56E1,8.7E0,1.52E1,1.9142007E-2,-1.5278674E-2,1.79E1,1.6E1,1.3052262E-2,5.01897E-2,8.7274555E-3,-7.2304696E-2,2.199796E-1,-9.684245E-3,-3.330366E-2,5.64229E-3,3.4834173E-2,2.39076E-1,-3.627379E-2,-1.03373684E-1,1.2106895E-2,-3.5500035E-2,-5.539441E-3,-2.5328303E-2,-1.1238273E-1,-4.1241042E-2],"split_indices":[6,1,6,6,6,3,0,5,0,6,0,1,6,0,9,5,7,0,7,0,0,0,0,12,11,1,0,0,0,0,11,0,0,0,0,0,0,0,0,0,0,0,0,0,0,0,0,0,0],"split_type":[0,0,0,0,0,0,0,0,0,0,0,0,0,0,0,0,0,0,0,0,0,0,0,0,0,0,0,0,0,0,0,0,0,0,0,0,0,0,0,0,0,0,0,0,0,0,0,0,0],"sum_hessian":[5.61E2,3.63E2,1.98E2,3.49E2,1.4E1,1.82E2,1.6E1,3.43E2,6E0,9E0,5E0,1.66E2,1.6E1,2E0,1.4E1,3.34E2,9E0,1E0,5E0,1E0,8E0,4E0,1E0,1.55E2,1.1E1,1.2E1,4E0,1E0,1E0,2E0,1.2E1,2.89E2,4.5E1,2E0,7E0,3E0,2E0,9.8E1,5.7E1,1E1,1E0,5E0,7E0,2E0,2E0,1E0,1E0,1E1,2E0],"tree_param":{"num_deleted":"0","num_feature":"16","num_nodes":"49","size_leaf_vector":"1"}},{"base_weights":[4.530997E-2,1.468059E-1,-7.173432E-1,-5.316832E-2,6.177664E-1,-2.2584943E-1,-9.691275E-1,3.320372E-1,-3.3803532E-1,8.1902885E-1,-1.0049946E0,1.8913011E-1,-1.0794498E0,-1.1556555E0,1.8190002E-1,3.7013656E-1,-1.3457163E-1,-8.0247784E-1,5.8321703E-2,6.9391495E-1,3.3724725E0,-1.3769537E0,-9.3577385E-2,-7.616658E-1,9.3085384E-1,-6.2818244E-2,-1.8290155E-2,-4.9321836E-1,-1.4803941E0,-2.0961428E-2,3.5195956E-1,2.0934395E-2,-7.533298E-2,-9.8392665E-2,-3.0396843E-2,-3.6509857E-3,1.1844832E-1,4.1407898E-2,-8.820288E-2,2.4063876E-1,1.6395569E-2,-1.6530594E-2,-7.765805E-2,1.3643503E-2,-1.725093E-2,-5.4253813E-2,3.755517E-2,9.915548E-2,-2.5901183E-2,-3.6592454E-2,1.43160345E-2,-3.6878612E-2,-8.380749E-2,7.4060634E-3,3.4278776E-2],"categories":[],"categories_nodes":[],"categories_segments":[],"categories_sizes":[],"default_left":[0,0,0,0,0,0,0,0,0,0,0,0,0,0,0,0,0,0,0,0,0,0,0,0,0,0,0,0,0,0,0,0,0,0,0,0,0,0,0,0,0,0,0,0,0,0,0,0,0,0,0,0,0,0,0],"id":21,"left_children":[1,3,5,7,9,11,13,15,17,19,21,23,25,27,29,31,-1,33,35,37,39,41,43,45,47,-1,-1,49,51,-1,53,-1,-1,-1,-1,-1,-1,-1,-1,-1,-1,-1,-1,-1,-1,-1,-1,-1,-1,-1,-1,-1,-1,-1,-1],"loss_changes":[4.4149437E1,4.7405365E1,8.072399E0,3.8957493E1,4.9813248E1,8.705597E0,9.656963E0,1.8390224E1,3.760015E1,4.046894E1,5.6343174E0,1.2697874E1,5.50457E-1,7.4443626E0,8.6314493E-1,1.4298965E1,0E0,2.0114716E1,3.3859634E1,4.4026485E1,2.4732368E1,1.6989822E0,6.4698523E-1,4.728966E0,1.6273193E1,0E0,0E0,2.8138506E0,2.3990097E0,0E0,3.064738E-1,0E0,0E0,0E0,0E0,0E0,0E0,0E0,0E0,0E0,0E0,0E0,0E0,0E0,0E0,0E0,0E0,0E0,0E0,0E0,0E0,0E0,0E0,0E0,0E0],"parents":[2147483647,0,0,1,1,2,2,3,3,4,4,5,5,6,6,7,7,8,8,9,9,10,10,11,11,12,12,13,13,14,14,15,15,17,17,18,18,19,19,20,20,21,21,22,22,23,23,24,24,27,27,28,28,30,30],"right_children":[2,4,6,8,10,12,14,16,18,20,22,24,26,28,30,32,-1,34,36,38,40,42,44,46,48,-1,-1,50,52,-1,54,-1,-1,-1,-1,-1,-1,-1,-1,-1,-1,-1,-1,-1,-1,-1,-1,-1,-1,-1,-1,-1,-1,-1,-1],"split_conditions":[5.15E0,3.1813332E-1,5.85E1,1.6356688E1,1.7993196E1,7.4E0,8E0,2.82E1,5.2554035E-1,1.774795E1,6.07E1,3.1813332E-1,5.26E0,8E0,2.37E-1,5.19E0,-1.3457163E-1,5.83E1,1.24E1,1.7688171E1,5.4E-1,8.4E0,1.15E1,5.4E0,2.49E-1,-6.2818244E-2,-1.8290155E-2,6.52E1,3.9E0,-2.0961428E-2,5.25E0,2.0934395E-2,-7.533298E-2,-9.8392665E-2,-3.0396843E-2,-3.6509857E-3,1.1844832E-1,4.1407898E-2,-8.820288E-2,2.4063876E-1,1.6395569E-2,-1.6530594E-2,-7.765805E-2,1.3643503E-2,-1.725093E-2,-5.4253813E-2,3.755517E-2,9.915548E-2,-2.5901183E-2,-3.6592454E-2,1.43160345E-2,-3.6878612E-2,-8.380749E-2,7.4060634E-3,3.4278776E-2],"split_indices":[3,13,8,6,6,2,2,2,10,6,8,13,3,7,9,5,0,8,1,6,10,2,2,2,9,0,0,8,2,0,3,0,0,0,0,0,0,0,0,0,0,0,0,0,0,0,0,0,0,0,0,0,0,0,0],"split_type":[0,0,0,0,0,0,0,0,0,0,0,0,0,0,0,0,0,0,0,0,0,0,0,0,0,0,0,0,0,0,0,0,0,0,0,0,0,0,0,0,0,0,0,0,0,0,0,0,0,0,0,0,0,0,0],"sum_hessian":[5.68E2,5.02E2,6.6E1,3.53E2,1.49E2,2.3E1,4.3E1,1.5E2,2.03E2,1.33E2,1.6E1,1.6E1,7E0,3.7E1,6E0,1.49E2,1E0,9.3E1,1.1E2,1.28E2,5E0,1.1E1,5E0,7E0,9E0,5E0,2E0,1.3E1,2.4E1,1E0,5E0,1.46E2,3E0,1.2E1,8.1E1,1.05E2,5E0,1.22E2,6E0,3E0,2E0,2E0,9E0,2E0,3E0,6E0,1E0,5E0,4E0,1E1,3E0,6E0,1.8E1,4E0,1E0],"tree_param":{"num_deleted":"0","num_feature":"16","num_nodes":"55","size_leaf_vector":"1"}},{"base_weights":[2.9007541E-2,4.9097127E-1,-1.2100696E-1,9.121624E-1,1.1498216E-1,-1.699448E-1,9.182078E-1,2.31547E0,5.772218E-1,1.2307355E0,-1.24686286E-1,-7.04955E-3,-5.0185215E-1,1.4455272E0,-4.6523872E-1,3.675003E-1,4.969127E0,-5.3280685E-2,1.1420734E0,7.762353E-1,1.6711846E-1,-2.8497934E-1,8.331158E-1,9.4257796E-1,-2.1142207E-1,-2.4206273E-1,-1.1381191E0,7.846761E-2,2.801377E0,-4.1799136E-2,3.4712028E-2,3.578848E-2,-7.985569E-3,2.7453873E-1,7.2063446E-2,9.778605E-3,-3.7833855E-2,8.033493E-2,-2.4066536E-2,5.81145E-2,9.823275E-3,-2.2460953E-3,-3.2432105E-2,-2.019325E-2,1.24015406E-1,-2.8907314E-2,1.0247288E-1,-2.217541E-2,1.2165851E-2,-1.991641E-2,8.896605E-2,-7.196671E-2,2.0072617E-2,8.473339E-2,-1.9725678E-2,8.513899E-2,1.8492903E-1],"categories":[],"categories_nodes":[],"categories_segments":[],"categories_sizes":[],"default_left":[0,0,0,0,0,0,0,0,0,0,0,0,0,0,0,0,0,0,0,0,0,0,0,0,0,0,0,0,0,0,0,0,0,0,0,0,0,0,0,0,0,0,0,0,0,0,0,0,0,0,0,0,0,0,0,0,0],"id":22,"left_children":[1,3,5,7,9,11,13,15,17,19,21,23,25,27,29,31,33,35,37,39,-1,41,43,45,47,49,51,53,55,-1,-1,-1,-1,-1,-1,-1,-1,-1,-1,-1,-1,-1,-1,-1,-1,-1,-1,-1,-1,-1,-1,-1,-1,-1,-1,-1,-1],"loss_changes":[3.845231E1,2.1432526E1,2.1465097E1,2.874504E1,1.9674448E1,2.167698E1,1.453336E1,6.0204773E1,1.8936289E1,9.882128E0,9.602692E0,5.260028E1,2.1543499E1,2.5729574E1,3.1595933E0,1.5832096E0,1.287796E0,4.699081E0,2.1893036E1,2.4575248E0,0E0,4.5977583E0,1.9339617E1,8.198131E1,2.3643032E1,3.071663E1,1.8200024E1,6.784027E0,6.0178757E-1,0E0,0E0,0E0,0E0,0E0,0E0,0E0,0E0,0E0,0E0,0E0,0E0,0E0,0E0,0E0,0E0,0E0,0E0,0E0,0E0,0E0,0E0,0E0,0E0,0E0,0E0,0E0,0E0],"parents":[2147483647,0,0,1,1,2,2,3,3,4,4,5,5,6,6,7,7,8,8,9,9,10,10,11,11,12,12,13,13,14,14,15,15,16,16,17,17,18,18,19,19,21,21,22,22,23,23,24,24,25,25,26,26,27,27,28,28],"right_children":[2,4,6,8,10,12,14,16,18,20,22,24,26,28,30,32,34,36,38,40,-1,42,44,46,48,50,52,54,56,-1,-1,-1,-1,-1,-1,-1,-1,-1,-1,-1,-1,-1,-1,-1,-1,-1,-1,-1,-1,-1,-1,-1,-1,-1,-1,-1,-1],"split_conditions":[1.594758E1,6.43E1,6.3E-1,3.62E0,1.4978518E1,4.64E0,5.1E0,3.42E0,4.17E0,1.4959596E1,4.75E0,1.2E1,9.4E0,4.16E0,5.14E0,2.2E1,1.32E1,4.17E0,5.09E0,3.29E0,1.6711846E-1,3.82E0,1.21E1,4.37E0,2.2736667E-1,9E0,5.8E-1,3.37E0,6.15E1,-4.1799136E-2,3.4712028E-2,3.578848E-2,-7.985569E-3,2.7453873E-1,7.2063446E-2,9.778605E-3,-3.7833855E-2,8.033493E-2,-2.4066536E-2,5.81145E-2,9.823275E-3,-2.2460953E-3,-3.2432105E-2,-2.019325E-2,1.24015406E-1,-2.8907314E-2,1.0247288E-1,-2.217541E-2,1.2165851E-2,-1.991641E-2,8.896605E-2,-7.196671E-2,2.0072617E-2,8.473339E-2,-1.9725678E-2,8.513899E-2,1.8492903E-1],"split_indices":[6,8,10,3,6,3,4,4,5,6,5,2,2,5,4,2,7,4,3,5,0,5,2,4,12,2,10,5,8,0,0,0,0,0,0,0,0,0,0,0,0,0,0,0,0,0,0,0,0,0,0,0,0,0,0,0,0],"split_type":[0,0,0,0,0,0,0,0,0,0,0,0,0,0,0,0,0,0,0,0,0,0,0,0,0,0,0,0,0,0,0,0,0,0,0,0,0,0,0,0,0,0,0,0,0,0,0,0,0,0,0,0,0,0,0,0,0],"sum_hessian":[5.53E2,1.35E2,4.18E2,6.3E1,7.2E1,4E2,1.8E1,1.1E1,5.2E1,1.2E1,6E1,2.69E2,1.31E2,1.3E1,5E0,7E0,4E0,2.5E1,2.7E1,1.1E1,1E0,5.2E1,8E0,4.7E1,2.22E2,9.4E1,3.7E1,7E0,6E0,4E0,1E0,4E0,3E0,3E0,1E0,1.9E1,6E0,2.1E1,6E0,6E0,5E0,3.2E1,2E1,5E0,3E0,2E1,2.7E1,1.47E2,7.5E1,8.8E1,6E0,3.1E1,6E0,1E0,6E0,4E0,2E0],"tree_param":{"num_deleted":"0","num_feature":"16","num_nodes":"57","size_leaf_vector":"1"}},{"base_weights":[-7.6604267E-3,2.017472E-1,-3.2871807E-1,2.4949697E-1,-9.450151E-1,-5.806164E-1,1.2626939E-1,2.267954E-1,2.663503E0,1.2130108E-1,-1.3836716E0,1.201868E0,-6.267384E-1,2.168889E-1,-3.5259668E-2,6.342877E-1,1.0026894E-1,3.0033922E-2,1.697288E-1,3.76489E-2,-2.7540479E-2,-5.968285E-3,-7.5544365E-2,-2.5860725E-2,1.589779E-1,-5.193992E-1,-1.3854444E0,-3.4675083E-1,6.5143126E-1,1.3454421E-1,1.9681245E-2,1.6520292E-2,-1.1100011E-2,-3.0841066E-2,9.807893E-2,5.9709836E-2,-8.106547E-2,4.6110977E-3,-4.0269878E-2,8.580676E-2,-2.3169136E-2],"categories":[],"categories_nodes":[],"categories_segments":[],"categories_sizes":[],"default_left":[0,0,0,0,0,0,0,0,0,0,0,0,0,0,0,0,0,0,0,0,0,0,0,0,0,0,0,0,0,0,0,0,0,0,0,0,0,0,0,0,0],"id":23,"left_children":[1,3,5,7,9,11,13,15,17,19,21,23,25,-1,27,29,31,-1,-1,-1,-1,-1,-1,-1,-1,33,35,37,39,-1,-1,-1,-1,-1,-1,-1,-1,-1,-1,-1,-1],"loss_changes":[3.8321278E1,1.9127163E1,2.58607E1,1.7590096E1,6.7162952E0,1.2673954E1,5.525571E1,1.6950726E1,2.485178E0,2.5375314E0,1.4280434E0,1.524376E1,1.0844719E1,0E0,1.7123837E1,3.7546608E1,1.8837355E1,0E0,0E0,0E0,0E0,0E0,0E0,0E0,0E0,3.1664387E1,1.2279755E1,1.1147612E1,3.0468899E1,0E0,0E0,0E0,0E0,0E0,0E0,0E0,0E0,0E0,0E0,0E0,0E0],"parents":[2147483647,0,0,1,1,2,2,3,3,4,4,5,5,6,6,7,7,8,8,9,9,10,10,11,11,12,12,14,14,15,15,16,16,25,25,26,26,27,27,28,28],"right_children":[2,4,6,8,10,12,14,16,18,20,22,24,26,-1,28,30,32,-1,-1,-1,-1,-1,-1,-1,-1,34,36,38,40,-1,-1,-1,-1,-1,-1,-1,-1,-1,-1,-1,-1],"split_conditions":[1.6837238E1,5.64E0,3.1813332E-1,1.6822695E1,3.129E-1,6E0,3.43E0,3.74E0,1.36E1,5.23E0,7.8E0,5.33E0,1.8355513E1,2.168889E-1,1.11E1,1.62E1,1.05E1,3.0033922E-2,1.697288E-1,3.76489E-2,-2.7540479E-2,-5.968285E-3,-7.5544365E-2,-2.5860725E-2,1.589779E-1,1.8190256E1,3.54E0,1.08E1,1.8130953E1,1.3454421E-1,1.9681245E-2,1.6520292E-2,-1.1100011E-2,-3.0841066E-2,9.807893E-2,5.9709836E-2,-8.106547E-2,4.6110977E-3,-4.0269878E-2,8.580676E-2,-2.3169136E-2],"split_indices":[6,5,13,6,13,7,5,3,0,3,7,4,6,0,1,2,7,0,0,0,0,0,0,0,0,6,4,7,6,0,0,0,0,0,0,0,0,0,0,0,0],"split_type":[0,0,0,0,0,0,0,0,0,0,0,0,0,0,0,0,0,0,0,0,0,0,0,0,0,0,0,0,0,0,0,0,0,0,0,0,0,0,0,0,0],"sum_hessian":[5.68E2,3.44E2,2.24E2,3.31E2,1.3E1,1.44E2,8E1,3.29E2,2E0,4E0,9E0,3E0,1.41E2,2E0,7.8E1,7.7E1,2.52E2,1E0,1E0,2E0,2E0,1E0,8E0,2E0,1E0,1.25E2,1.6E1,5.4E1,2.4E1,7E0,7E1,1.47E2,1.05E2,1.21E2,4E0,1E0,1.5E1,2.8E1,2.6E1,1.2E1,1.2E1],"tree_param":{"num_deleted":"0","num_feature":"16","num_nodes":"41","size_leaf_vector":"1"}},{"base_weights":[7.398045E-2,3.0874443E-1,-2.2519289E-1,-1.7935578E0,3.4134114E-1,-9.054191E-1,-1.0220332E-1,-1.0762038E-1,-8.953953E-3,1.0562987E0,2.5042766E-1,4.1590175E-1,-1.073101E0,5.9235677E-2,-8.673671E-1,7.9242975E-1,2.9031758E0,1.9486474E-1,1.4704639E0,-1.2944102E-2,6.493182E-1,-5.927878E-1,-1.3422098E0,3.678031E0,-6.8086006E-2,3.7646642E-1,-9.491995E-1,5.439489E-2,-1.14980815E-2,1.9328117E-1,3.9582254E-4,1.1935942E-2,-5.4684144E-2,2.06822E-1,6.1100433E-3,8.3337305E-3,3.773206E-2,4.0394706E-3,-4.87987E-2,-8.9700095E-2,-4.2693272E-2,1.0301972E-2,2.1656108E-1,6.536143E-2,-7.180296E-3,-2.9982114E-2,5.8217097E-2,-5.5338196E-3,-5.2691292E-2],"categories":[],"categories_nodes":[],"categories_segments":[],"categories_sizes":[],"default_left":[0,0,0,0,0,0,0,0,0,0,0,0,0,0,0,0,0,0,0,0,0,0,0,0,0,0,0,0,0,0,0,0,0,0,0,0,0,0,0,0,0,0,0,0,0,0,0,0,0],"id":24,"left_children":[1,3,5,7,9,11,13,-1,-1,15,17,19,21,23,25,27,29,31,33,-1,35,37,39,41,43,45,47,-1,-1,-1,-1,-1,-1,-1,-1,-1,-1,-1,-1,-1,-1,-1,-1,-1,-1,-1,-1,-1,-1],"loss_changes":[3.975237E1,2.233563E1,2.0738983E1,2.5113258E0,2.0080246E1,8.865648E0,2.6239159E1,0E0,0E0,1.4756107E1,1.8626524E1,9.556251E-1,3.5990753E0,8.134261E1,4.123419E0,9.9168625E0,1.111554E1,1.5405251E1,4.262777E1,0E0,7.7554464E-2,3.6923256E0,3.1013947E0,1.27148285E1,1.7948408E1,3.005345E0,2.95397E0,0E0,0E0,0E0,0E0,0E0,0E0,0E0,0E0,0E0,0E0,0E0,0E0,0E0,0E0,0E0,0E0,0E0,0E0,0E0,0E0,0E0,0E0],"parents":[2147483647,0,0,1,1,2,2,3,3,4,4,5,5,6,6,9,9,10,10,11,11,12,12,13,13,14,14,15,15,16,16,17,17,18,18,20,20,21,21,22,22,23,23,24,24,25,25,26,26],"right_children":[2,4,6,8,10,12,14,-1,-1,16,18,20,22,24,26,28,30,32,34,-1,36,38,40,42,44,46,48,-1,-1,-1,-1,-1,-1,-1,-1,-1,-1,-1,-1,-1,-1,-1,-1,-1,-1,-1,-1,-1,-1],"split_conditions":[1.6767443E1,2.71E0,2.45E-1,5.6E0,1.5151515E1,5.37E1,2.7E1,-1.0762038E-1,-8.953953E-3,1.5116537E1,3.05E1,1.09E1,1.7424595E1,3.68E0,5.34E1,4.25E0,2.26E1,1.05E1,3.13E1,-1.2944102E-2,9.2E0,2.258E-1,1.64E1,2.258E-1,1.55E1,2.71E1,2.7E-1,5.439489E-2,-1.14980815E-2,1.9328117E-1,3.9582254E-4,1.1935942E-2,-5.4684144E-2,2.06822E-1,6.1100433E-3,8.3337305E-3,3.773206E-2,4.0394706E-3,-4.87987E-2,-8.9700095E-2,-4.2693272E-2,1.0301972E-2,2.1656108E-1,6.536143E-2,-7.180296E-3,-2.9982114E-2,5.8217097E-2,-5.5338196E-3,-5.2691292E-2],"split_indices":[6,3,9,1,6,8,0,0,0,6,0,0,6,3,8,3,0,1,0,0,1,12,0,12,0,0,9,0,0,0,0,0,0,0,0,0,0,0,0,0,0,0,0,0,0,0,0,0,0],"split_type":[0,0,0,0,0,0,0,0,0,0,0,0,0,0,0,0,0,0,0,0,0,0,0,0,0,0,0,0,0,0,0,0,0,0,0,0,0,0,0,0,0,0,0,0,0,0,0,0,0],"sum_hessian":[5.64E2,3.16E2,2.48E2,4E0,3.12E2,3.7E1,2.11E2,3E0,1E0,3.4E1,2.78E2,4E0,3.3E1,1.75E2,3.6E1,3.1E1,3E0,2.67E2,1.1E1,1E0,3E0,1.3E1,2E1,5E0,1.7E2,2E0,3.4E1,2.4E1,7E0,2E0,1E0,2.59E2,8E0,3E0,8E0,1E0,2E0,5E0,8E0,9E0,1.1E1,1E0,4E0,8E0,1.62E2,1E0,1E0,4E0,3E1],"tree_param":{"num_deleted":"0","num_feature":"16","num_nodes":"49","size_leaf_vector":"1"}},{"base_weights":[1.1299009E-2,6.9755983E-1,-8.656408E-2,3.1659402E-2,1.7815584E0,1.6104123E-2,-6.0009915E-1,-5.68926E-2,1.7351055E-1,-3.6743593E-1,2.2866678E0,-9.041431E-2,6.1438066E-1,-8.778558E-1,-2.1308753E-1,4.9216533E-1,-9.726993E-2,6.008835E-1,-5.0090827E-2,1.2961979E0,3.8579655E0,8.690213E-1,-1.504674E-1,8.980074E-1,-1.4478041E0,2.3044746E-1,-1.1052775E0,2.941029E0,-5.889475E-1,4.6044853E-2,-4.326259E-3,2.0776296E-3,-5.1830214E-2,4.6256494E-2,-1.1902333E-3,2.1336716E-2,1.7902696E-1,9.0288E-2,2.3640685E-1,6.241932E-3,1.16977625E-1,2.0270333E-2,-1.3933224E-2,-1.1827155E-2,7.208254E-2,5.3832056E-3,-8.4269725E-2,-4.7369983E-2,9.698031E-2,-6.872336E-2,-2.2023164E-2,2.1616714E-1,-3.014779E-2,-6.0624402E-2,1.719462E-2],"categories":[],"categories_nodes":[],"categories_segments":[],"categories_sizes":[],"default_left":[0,0,0,0,0,0,0,0,0,0,0,0,0,0,0,0,0,0,0,0,0,0,0,0,0,0,0,0,0,0,0,0,0,0,0,0,0,0,0,0,0,0,0,0,0,0,0,0,0,0,0,0,0,0,0],"id":25,"left_children":[1,3,5,7,9,11,13,-1,15,17,19,21,23,25,27,29,31,33,-1,35,37,39,41,43,45,47,49,51,53,-1,-1,-1,-1,-1,-1,-1,-1,-1,-1,-1,-1,-1,-1,-1,-1,-1,-1,-1,-1,-1,-1,-1,-1,-1,-1],"loss_changes":[3.820704E1,5.1193897E1,2.6266079E1,7.6627727E0,3.0148087E1,2.6566177E1,8.735029E0,0E0,3.5855782E0,4.287673E0,2.9238426E1,2.0527203E1,3.8148254E1,1.2353222E1,4.441033E1,4.7936373E0,3.0422912E0,6.29681E-1,0E0,2.8264336E1,5.7482834E0,2.2689152E1,2.3914286E1,3.4881306E1,3.13797E0,1.995573E1,6.5530396E0,2.2202377E1,1.9611862E1,0E0,0E0,0E0,0E0,0E0,0E0,0E0,0E0,0E0,0E0,0E0,0E0,0E0,0E0,0E0,0E0,0E0,0E0,0E0,0E0,0E0,0E0,0E0,0E0,0E0,0E0],"parents":[2147483647,0,0,1,1,2,2,3,3,4,4,5,5,6,6,8,8,9,9,10,10,11,11,12,12,13,13,14,14,15,15,16,16,17,17,19,19,20,20,21,21,22,22,23,23,24,24,25,25,26,26,27,27,28,28],"right_children":[2,4,6,8,10,12,14,-1,16,18,20,22,24,26,28,30,32,34,-1,36,38,40,42,44,46,48,50,52,54,-1,-1,-1,-1,-1,-1,-1,-1,-1,-1,-1,-1,-1,-1,-1,-1,-1,-1,-1,-1,-1,-1,-1,-1,-1,-1],"split_conditions":[3.37E0,3.51E0,5.38E0,2.64E0,2.55E-1,4.92E0,6.07E0,-5.68926E-2,3.09E0,5.4E0,1.51E1,1.5151515E1,1.8355513E1,7E0,6.14E0,6.8E0,2.53E1,3E0,-5.0090827E-2,8.3E0,5.9E0,4.32E0,1.06E1,2.47E-1,8E0,6.3E0,1.8219696E1,2.56E-1,2.2736667E-1,4.6044853E-2,-4.326259E-3,2.0776296E-3,-5.1830214E-2,4.6256494E-2,-1.1902333E-3,2.1336716E-2,1.7902696E-1,9.0288E-2,2.3640685E-1,6.241932E-3,1.16977625E-1,2.0270333E-2,-1.3933224E-2,-1.1827155E-2,7.208254E-2,5.3832056E-3,-8.4269725E-2,-4.7369983E-2,9.698031E-2,-6.872336E-2,-2.2023164E-2,2.1616714E-1,-3.014779E-2,-6.0624402E-2,1.719462E-2],"split_indices":[5,4,5,4,9,5,5,0,4,1,11,6,6,1,5,1,2,1,0,1,1,5,2,9,1,1,6,9,12,0,0,0,0,0,0,0,0,0,0,0,0,0,0,0,0,0,0,0,0,0,0,0,0,0,0],"split_type":[0,0,0,0,0,0,0,0,0,0,0,0,0,0,0,0,0,0,0,0,0,0,0,0,0,0,0,0,0,0,0,0,0,0,0,0,0,0,0,0,0,0,0,0,0,0,0,0,0,0,0,0,0,0,0],"sum_hessian":[5.67E2,7E1,4.97E2,4.4E1,2.6E1,4.15E2,8.2E1,4E0,4E1,5E0,2.1E1,3.53E2,6.2E1,4.7E1,3.5E1,1.8E1,2.2E1,2E0,3E0,1.4E1,7E0,2E1,3.33E2,5.5E1,7E0,8E0,3.9E1,3E0,3.2E1,1E1,8E0,2E1,2E0,1E0,1E0,1.1E1,3E0,3E0,4E0,1.4E1,6E0,6.2E1,2.71E2,1.8E1,3.7E1,1E0,6E0,5E0,3E0,2.7E1,1.2E1,2E0,1E0,1.9E1,1.3E1],"tree_param":{"num_deleted":"0","num_feature":"16","num_nodes":"55","size_leaf_vector":"1"}},{"base_weights":[1.5561695E-2,5.529073E-1,-1.1636759E-1,3.7984616E-1,1.5242684E0,-4.3413725E-2,-7.8890884E-1,7.341052E-1,-3.135382E-2,3.8942242E-1,3.3507748E0,-8.317248E-2,2.56802E0,-4.8628265E-1,-1.4498706E0,2.0363954E-1,1.588884E0,-8.459103E-1,1.7315623E-1,6.4634705E-1,-2.5557948E-2,2.3784017E-2,1.9153288E-1,-1.2509598E0,-3.673453E-2,1.9165824E-1,2.5154114E-2,-7.350644E-1,9.543953E-1,-2.6805485E-2,-1.6703879E0,1.4357536E-2,-3.4967598E-2,1.705582E-1,2.427172E-2,-4.997129E-2,-1.0286871E-2,-3.4315597E-2,1.510185E-2,-1.3519192E-2,3.973682E-2,-4.886825E-2,-1.2703215E-1,-1.21125085E-2,9.591012E-3,6.582451E-3,-4.6958923E-3,4.8555758E-2,-4.1901864E-2,-8.545733E-3,1.3639088E-1,-9.191453E-2,-3.3292565E-2],"categories":[],"categories_nodes":[],"categories_segments":[],"categories_sizes":[],"default_left":[0,0,0,0,0,0,0,0,0,0,0,0,0,0,0,0,0,0,0,0,0,0,0,0,0,0,0,0,0,0,0,0,0,0,0,0,0,0,0,0,0,0,0,0,0,0,0,0,0,0,0,0,0],"id":26,"left_children":[1,3,5,7,9,11,13,15,17,19,21,23,25,27,29,31,33,35,37,39,-1,-1,-1,41,43,-1,45,47,49,-1,51,-1,-1,-1,-1,-1,-1,-1,-1,-1,-1,-1,-1,-1,-1,-1,-1,-1,-1,-1,-1,-1,-1],"loss_changes":[3.884206E1,1.7576336E1,2.1554123E1,1.3570451E1,3.1859993E1,4.1536877E1,7.896E0,2.2347982E1,7.476214E0,2.8755827E0,6.456085E0,2.1266294E1,1.9206139E1,1.1812387E1,1.7239914E0,2.6139355E0,3.65492E1,6.788688E-1,4.1949725E0,1.4391818E0,0E0,0E0,0E0,2.80962E0,1.7848698E1,0E0,5.0405864E-2,5.5574665E0,1.0444472E1,0E0,4.6261597E-1,0E0,0E0,0E0,0E0,0E0,0E0,0E0,0E0,0E0,0E0,0E0,0E0,0E0,0E0,0E0,0E0,0E0,0E0,0E0,0E0,0E0,0E0],"parents":[2147483647,0,0,1,1,2,2,3,3,4,4,5,5,6,6,7,7,8,8,9,9,10,10,11,11,12,12,13,13,14,14,15,15,16,16,17,17,18,18,19,19,23,23,24,24,26,26,27,27,28,28,30,30],"right_children":[2,4,6,8,10,12,14,16,18,20,22,24,26,28,30,32,34,36,38,40,-1,-1,-1,42,44,-1,46,48,50,-1,52,-1,-1,-1,-1,-1,-1,-1,-1,-1,-1,-1,-1,-1,-1,-1,-1,-1,-1,-1,-1,-1,-1],"split_conditions":[1.5793226E1,1.5676605E1,5.24E0,6.2E0,2.2736667E-1,5.43E0,1.69E1,3.82E0,1.66E1,1.5739514E1,5.2E-1,5E0,1.88E1,1.8807947E1,2.43E-1,3.23E1,3.89E0,5.19E0,4.3E-1,3.27E0,-2.5557948E-2,2.3784017E-2,1.9153288E-1,2.88E1,4.35E0,1.9165824E-1,1.9E1,5.11E0,1.52E1,-2.6805485E-2,5.6E0,1.4357536E-2,-3.4967598E-2,1.705582E-1,2.427172E-2,-4.997129E-2,-1.0286871E-2,-3.4315597E-2,1.510185E-2,-1.3519192E-2,3.973682E-2,-4.886825E-2,-1.2703215E-1,-1.21125085E-2,9.591012E-3,6.582451E-3,-4.6958923E-3,4.8555758E-2,-4.1901864E-2,-8.545733E-3,1.3639088E-1,-9.191453E-2,-3.3292565E-2],"split_indices":[6,6,3,1,12,4,0,4,0,6,10,1,0,6,9,0,3,3,10,4,0,0,0,0,4,0,0,4,0,0,3,0,0,0,0,0,0,0,0,0,0,0,0,0,0,0,0,0,0,0,0,0,0],"split_type":[0,0,0,0,0,0,0,0,0,0,0,0,0,0,0,0,0,0,0,0,0,0,0,0,0,0,0,0,0,0,0,0,0,0,0,0,0,0,0,0,0,0,0,0,0,0,0,0,0,0,0,0,0],"sum_hessian":[5.46E2,1.07E2,4.39E2,9.2E1,1.5E1,3.97E2,4.2E1,4.9E1,4.3E1,1E1,5E0,3.92E2,5E0,3E1,1.2E1,3.1E1,1.8E1,8E0,3.5E1,8E0,2E0,1E0,4E0,1.4E1,3.78E2,3E0,2E0,2.6E1,4E0,3E0,9E0,2.9E1,2E0,6E0,1.2E1,6E0,2E0,4E0,3.1E1,1E0,7E0,1.3E1,1E0,1.99E2,1.79E2,1E0,1E0,1E0,2.5E1,3E0,1E0,7E0,2E0],"tree_param":{"num_deleted":"0","num_feature":"16","num_nodes":"53","size_leaf_vector":"1"}},{"base_weights":[7.618706E-2,5.3627276E-1,-4.4046238E-2,3.48491E-1,1.5062561E0,2.2255559E-2,-8.42198E-1,7.6271677E-1,-1.24773204E-1,6.5193075E-1,3.248639E0,7.464196E-2,-1.092816E0,6.8478346E-1,-1.006752E0,1.8982767E-1,1.6539317E0,1.2444375E-1,-8.827944E-1,1.5827589E0,2.5418136E-1,2.7616883E-2,1.838716E-1,-8.1693225E-2,4.45316E-1,3.0895463E-1,-1.4872185E0,-4.300184E-2,1.329811E-1,-4.0691185E-1,-1.1897441E0,1.5398768E-2,-3.8663685E-2,1.9180135E-1,3.6613766E-2,1.9577542E-2,-3.750309E-2,-4.8702233E-2,-1.4218109E-2,9.2055514E-2,2.0192623E-2,-1.6586578E-2,2.5768256E-2,-5.1070913E-3,1.431427E-1,1.9094127E-1,1.4803359E-2,-9.39672E-3,5.741277E-2,-8.4866874E-2,3.6361217E-2,-4.1468907E-2,3.5724007E-2,-4.171444E-2,-8.981843E-2],"categories":[],"categories_nodes":[],"categories_segments":[],"categories_sizes":[],"default_left":[0,0,0,0,0,0,0,0,0,0,0,0,0,0,0,0,0,0,0,0,0,0,0,0,0,0,0,0,0,0,0,0,0,0,0,0,0,0,0,0,0,0,0,0,0,0,0,0,0,0,0,0,0,0,0],"id":27,"left_children":[1,3,5,7,9,11,13,15,17,19,21,23,25,27,29,31,33,35,37,39,41,-1,-1,43,45,47,49,-1,-1,51,53,-1,-1,-1,-1,-1,-1,-1,-1,-1,-1,-1,-1,-1,-1,-1,-1,-1,-1,-1,-1,-1,-1,-1,-1],"loss_changes":[3.1775936E1,2.1150356E1,2.4149761E1,1.9895031E1,2.6164787E1,2.4732523E1,9.483887E0,2.725667E1,9.177621E0,4.781001E0,4.9057426E0,2.3447935E1,1.096386E1,1.4490458E1,3.0283928E0,4.1069474E0,3.9424957E1,8.936393E0,3.7830353E-1,4.7475147E-1,1.8543034E0,0E0,0E0,1.7452795E1,5.9288452E1,2.3009932E0,8.213791E0,0E0,0E0,4.8563266E0,3.6763802E0,0E0,0E0,0E0,0E0,0E0,0E0,0E0,0E0,0E0,0E0,0E0,0E0,0E0,0E0,0E0,0E0,0E0,0E0,0E0,0E0,0E0,0E0,0E0,0E0],"parents":[2147483647,0,0,1,1,2,2,3,3,4,4,5,5,6,6,7,7,8,8,9,9,10,10,11,11,12,12,13,13,14,14,15,15,16,16,17,17,18,18,19,19,20,20,23,23,24,24,25,25,26,26,29,29,30,30],"right_children":[2,4,6,8,10,12,14,16,18,20,22,24,26,28,30,32,34,36,38,40,42,-1,-1,44,46,48,50,-1,-1,52,54,-1,-1,-1,-1,-1,-1,-1,-1,-1,-1,-1,-1,-1,-1,-1,-1,-1,-1,-1,-1,-1,-1,-1,-1],"split_conditions":[1.5793226E1,1.5676605E1,5.32E0,6.2E0,2.2736667E-1,1.8565737E1,5.22E1,3.82E0,4.53E0,2.03E1,5.9E0,4.88E0,4.26E0,1.5E1,5.27E0,3.23E1,3.89E0,6.61E1,5.14E0,4.47E0,2.72E-1,2.7616883E-2,1.838716E-1,1.8459215E1,4.15E0,3.06E1,6.37E1,-4.300184E-2,1.329811E-1,4.87E0,6.13E1,1.5398768E-2,-3.8663685E-2,1.9180135E-1,3.6613766E-2,1.9577542E-2,-3.750309E-2,-4.8702233E-2,-1.4218109E-2,9.2055514E-2,2.0192623E-2,-1.6586578E-2,2.5768256E-2,-5.1070913E-3,1.431427E-1,1.9094127E-1,1.4803359E-2,-9.39672E-3,5.741277E-2,-8.4866874E-2,3.6361217E-2,-4.1468907E-2,3.5724007E-2,-4.171444E-2,-8.981843E-2],"split_indices":[6,6,3,1,12,6,8,4,3,0,1,5,5,0,5,0,3,8,4,3,9,0,0,6,3,0,8,0,0,5,8,0,0,0,0,0,0,0,0,0,0,0,0,0,0,0,0,0,0,0,0,0,0,0,0],"split_type":[0,0,0,0,0,0,0,0,0,0,0,0,0,0,0,0,0,0,0,0,0,0,0,0,0,0,0,0,0,0,0,0,0,0,0,0,0,0,0,0,0,0,0,0,0,0,0,0,0,0,0,0,0,0,0],"sum_hessian":[5.73E2,1.18E2,4.55E2,1E2,1.8E1,4.21E2,3.4E1,5.3E1,4.7E1,1.3E1,5E0,4.03E2,1.8E1,3E0,3.1E1,3.3E1,2E1,3.6E1,1.1E1,3E0,1E1,1E0,4E0,2.84E2,1.19E2,4E0,1.4E1,2E0,1E0,8E0,2.3E1,3E1,3E0,5E0,1.5E1,2.8E1,8E0,9E0,2E0,2E0,1E0,3E0,7E0,2.83E2,1E0,4E0,1.15E2,3E0,1E0,1.3E1,1E0,6E0,2E0,1.6E1,7E0],"tree_param":{"num_deleted":"0","num_feature":"16","num_nodes":"55","size_leaf_vector":"1"}},{"base_weights":[4.4520993E-2,1.2943757E-1,-6.259423E-1,-4.1985746E-2,4.789334E-1,-3.8140532E-1,-1.159294E0,-5.952884E-2,1.4280371E-1,2.4710379E0,3.723375E-1,-5.047814E-1,4.8410702E-1,-1.5816467E-1,-1.2677702E0,2.9098755E-2,-6.98375E-1,5.0497603E-1,3.54968E0,7.6772875E-1,-1.9567722E-1,-1.1268321E-1,-9.5596915E-1,5.9021313E-2,-1.5915918E-1,1.1111259E-3,-1.2973475E-2,-1.6825835E0,-8.091425E-1,-7.651841E-3,4.5138378E-2,1.4644961E-1,-4.332434E-2,3.4401894E-2,-1.105237E-3,5.3291466E-2,1.9520926E-1,1.3571225E-1,1.892834E-2,1.636637E-2,-4.39901E-2,5.9732523E-2,-1.9099033E-2,-5.463738E-2,3.423157E-2,5.9251785E-3,-1.4560731E-2,-9.379115E-2,-3.6762174E-2,-1.6421776E-2,-5.3743728E-2],"categories":[],"categories_nodes":[],"categories_segments":[],"categories_sizes":[],"default_left":[0,0,0,0,0,0,0,0,0,0,0,0,0,0,0,0,0,0,0,0,0,0,0,0,0,0,0,0,0,0,0,0,0,0,0,0,0,0,0,0,0,0,0,0,0,0,0,0,0,0,0],"id":28,"left_children":[1,3,5,7,9,11,13,15,-1,17,19,21,23,25,27,29,31,33,35,37,39,41,43,-1,45,-1,-1,47,49,-1,-1,-1,-1,-1,-1,-1,-1,-1,-1,-1,-1,-1,-1,-1,-1,-1,-1,-1,-1,-1,-1],"loss_changes":[3.1394411E1,2.9316948E1,7.6441402E0,1.6896688E1,3.3268322E1,4.9428444E0,1.8628597E0,1.8591484E1,0E0,1.5172913E1,3.4736786E1,6.7917643E0,2.8753877E0,6.058836E-2,1.8727112E0,4.6125618E1,2.6930061E1,4.011624E-1,2.4149323E-1,6.79059E1,2.318721E1,8.201688E0,4.787306E0,0E0,1.8117747E-1,0E0,0E0,8.531952E-2,9.243655E-1,0E0,0E0,0E0,0E0,0E0,0E0,0E0,0E0,0E0,0E0,0E0,0E0,0E0,0E0,0E0,0E0,0E0,0E0,0E0,0E0,0E0,0E0],"parents":[2147483647,0,0,1,1,2,2,3,3,4,4,5,5,6,6,7,7,9,9,10,10,11,11,12,12,13,13,14,14,15,15,16,16,17,17,18,18,19,19,20,20,21,21,22,22,24,24,27,27,28,28],"right_children":[2,4,6,8,10,12,14,16,-1,18,20,22,24,26,28,30,32,34,36,38,40,42,44,-1,46,-1,-1,48,50,-1,-1,-1,-1,-1,-1,-1,-1,-1,-1,-1,-1,-1,-1,-1,-1,-1,-1,-1,-1,-1,-1],"split_conditions":[5.15E0,3.1813332E-1,1.21E1,5.38E0,7.6E0,1.1E1,5.12E0,4.7E0,1.4280371E-1,2.46E-1,4.37E0,5.6E0,7.7E0,2.22E1,5.6E0,4.46E0,4.2E0,1.77E1,1.47E1,1.43E1,1.19E1,5.12E0,5.75E0,5.9021313E-2,1.53E1,1.1111259E-3,-1.2973475E-2,9.9E0,6.13E0,-7.651841E-3,4.5138378E-2,1.4644961E-1,-4.332434E-2,3.4401894E-2,-1.105237E-3,5.3291466E-2,1.9520926E-1,1.3571225E-1,1.892834E-2,1.636637E-2,-4.39901E-2,5.9732523E-2,-1.9099033E-2,-5.463738E-2,3.423157E-2,5.9251785E-3,-1.4560731E-2,-9.379115E-2,-3.6762174E-2,-1.6421776E-2,-5.3743728E-2],"split_indices":[3,13,1,4,2,7,4,3,0,9,3,2,2,0,3,4,1,0,0,2,2,4,4,0,0,0,0,7,4,0,0,0,0,0,0,0,0,0,0,0,0,0,0,0,0,0,0,0,0,0,0],"split_type":[0,0,0,0,0,0,0,0,0,0,0,0,0,0,0,0,0,0,0,0,0,0,0,0,0,0,0,0,0,0,0,0,0,0,0,0,0,0,0,0,0,0,0,0,0,0,0,0,0,0,0],"sum_hessian":[5.49E2,4.88E2,6.1E1,3.28E2,1.6E2,4.3E1,1.8E1,3.27E2,1E0,7E0,1.53E2,3.8E1,5E0,2E0,1.6E1,2.88E2,3.9E1,3E0,4E0,9E1,6.3E1,2.1E1,1.7E1,2E0,3E0,1E0,1E0,7E0,9E0,2.39E2,4.9E1,1E0,3.8E1,2E0,1E0,1E0,3E0,1.4E1,7.6E1,3.6E1,2.7E1,3E0,1.8E1,1.6E1,1E0,1E0,2E0,5E0,2E0,4E0,5E0],"tree_param":{"num_deleted":"0","num_feature":"16","num_nodes":"51","size_leaf_vector":"1"}},{"base_weights":[-3.1393833E-2,1.3231115E-1,-2.8969014E-1,-9.006203E-3,3.7968913E-1,-1.603908E-1,-9.3173164E-1,2.1772636E-1,-2.8374258E-1,2.4634212E-1,2.282428E0,-6.192107E-1,1.6271092E-1,-1.00164E0,1.7114003E-1,1.1297526E0,-2.2048473E-2,1.7155749E0,-3.4265196E-1,-9.5364094E-2,6.202608E-1,2.8371963E-1,-8.8762933E-1,-7.9704064E-1,3.4388036E-2,6.4725053E-1,-4.2403492E-1,-7.4334323E-1,-1.4132386E0,1.7420053E-2,-4.584551E-3,-3.0709123E-3,9.0181254E-2,-1.7064633E-2,1.5215299E-2,-1.0565519E-2,1.3923363E-1,-1.0387831E-3,-3.3540063E-2,9.822822E-3,-2.4046307E-2,1.5124583E-1,2.6077062E-2,-3.3904077E-3,-5.378163E-2,-3.1737596E-2,-7.237525E-2,6.1458286E-2,-2.1389352E-2,2.4068536E-2,1.7916082E-1,-2.6821235E-2,1.2426682E-1,-4.6896145E-2,-2.4340916E-2,-2.3902168E-2,-9.1054045E-2],"categories":[],"categories_nodes":[],"categories_segments":[],"categories_sizes":[],"default_left":[0,0,0,0,0,0,0,0,0,0,0,0,0,0,0,0,0,0,0,0,0,0,0,0,0,0,0,0,0,0,0,0,0,0,0,0,0,0,0,0,0,0,0,0,0,0,0,0,0,0,0,0,0,0,0,0,0],"id":29,"left_children":[1,3,5,7,9,11,13,15,17,19,21,23,25,27,29,31,33,35,37,39,41,-1,43,45,47,49,51,53,55,-1,-1,-1,-1,-1,-1,-1,-1,-1,-1,-1,-1,-1,-1,-1,-1,-1,-1,-1,-1,-1,-1,-1,-1,-1,-1,-1,-1],"loss_changes":[2.354845E1,1.1924372E1,1.778192E1,1.3641366E1,3.0899586E1,2.6933186E1,2.9470158E0,2.6266624E1,1.2247923E1,1.5008277E1,9.105853E1,8.744617E0,3.0694727E1,2.5641785E0,1.7171437E-1,2.0178207E1,1.0105786E1,6.7685165E0,1.023154E1,7.070406E0,1.17160225E1,0E0,6.9770837E-1,5.30941E0,9.91316E0,2.700917E1,1.7355387E1,6.9143486E-1,3.7063885E0,0E0,0E0,0E0,0E0,0E0,0E0,0E0,0E0,0E0,0E0,0E0,0E0,0E0,0E0,0E0,0E0,0E0,0E0,0E0,0E0,0E0,0E0,0E0,0E0,0E0,0E0,0E0,0E0],"parents":[2147483647,0,0,1,1,2,2,3,3,4,4,5,5,6,6,7,7,8,8,9,9,10,10,11,11,12,12,13,13,14,14,15,15,16,16,17,17,18,18,19,19,20,20,22,22,23,23,24,24,25,25,26,26,27,27,28,28],"right_children":[2,4,6,8,10,12,14,16,18,20,22,24,26,28,30,32,34,36,38,40,42,-1,44,46,48,50,52,54,56,-1,-1,-1,-1,-1,-1,-1,-1,-1,-1,-1,-1,-1,-1,-1,-1,-1,-1,-1,-1,-1,-1,-1,-1,-1,-1,-1,-1],"split_conditions":[8.7E0,2.2736667E-1,5.3E0,6.9E0,8.5E0,9.6E0,1.62E1,6.17E1,6E0,1.49E1,4.47E0,1.51E1,1.18E1,6.06E1,1.52E1,4.09E0,2.72E-1,1.09E1,2.258E-1,4.22E0,5.38E1,2.8371963E-1,4.5E0,4.93E0,1.53E1,1.13E1,3.13E-1,1.5E1,1.37E1,1.7420053E-2,-4.584551E-3,-3.0709123E-3,9.0181254E-2,-1.7064633E-2,1.5215299E-2,-1.0565519E-2,1.3923363E-1,-1.0387831E-3,-3.3540063E-2,9.822822E-3,-2.4046307E-2,1.5124583E-1,2.6077062E-2,-3.3904077E-3,-5.378163E-2,-3.1737596E-2,-7.237525E-2,6.1458286E-2,-2.1389352E-2,2.4068536E-2,1.7916082E-1,-2.6821235E-2,1.2426682E-1,-4.6896145E-2,-2.4340916E-2,-2.3902168E-2,-9.1054045E-2],"split_indices":[1,12,4,1,1,1,11,8,7,11,4,11,2,8,0,4,9,0,12,4,8,0,4,4,11,2,9,11,0,0,0,0,0,0,0,0,0,0,0,0,0,0,0,0,0,0,0,0,0,0,0,0,0,0,0,0,0],"split_type":[0,0,0,0,0,0,0,0,0,0,0,0,0,0,0,0,0,0,0,0,0,0,0,0,0,0,0,0,0,0,0,0,0,0,0,0,0,0,0,0,0,0,0,0,0,0,0,0,0,0,0,0,0,0,0,0,0],"sum_hessian":[5.55E2,3.4E2,2.15E2,2.17E2,1.23E2,1.8E2,3.5E1,1.19E2,9.8E1,1.16E2,7E0,7.4E1,1.06E2,3.3E1,2E0,2.4E1,9.5E1,2E0,9.6E1,6.1E1,5.5E1,3E0,4E0,5.8E1,1.6E1,5.8E1,4.8E1,2.2E1,1.1E1,1E0,1E0,9E0,1.5E1,4.8E1,4.7E1,1E0,1E0,4.9E1,4.7E1,3.5E1,2.6E1,1E0,5.4E1,1E0,3E0,4.8E1,1E1,4E0,1.2E1,5.6E1,2E0,4.7E1,1E0,1.1E1,1.1E1,4E0,7E0],"tree_param":{"num_deleted":"0","num_feature":"16","num_nodes":"57","size_leaf_vector":"1"}},{"base_weights":[1.1315216E-1,-4.3191873E-2,4.1877335E-1,-6.969098E-1,7.027993E-2,5.4743075E-1,-4.6770152E-1,1.6726853E0,-8.156482E-1,1.18204355E-1,-1.4415748E0,3.9981896E-1,1.5687034E0,1.2528623E0,-8.550881E-1,-1.0301376E-2,1.3575278E-1,-2.9285777E-1,-1.0479342E0,8.2088566E-1,9.666558E-3,-1.0210484E-1,-7.0087737E-1,5.278978E-1,-4.0598997E-1,2.7948155E0,1.9998194E-1,2.499907E-1,1.3160872E-1,-4.0854427E-1,-1.2238966E0,1.9067932E-2,-2.2656247E-2,-4.208385E-2,-7.980517E-2,1.2600446E-1,2.6157653E-2,1.120351E-2,-1.9083224E-2,-5.546778E-2,-1.0964966E-2,2.755577E-3,4.5071073E-2,-7.085029E-2,3.2096703E-2,1.8886164E-1,4.3023434E-2,-3.61238E-2,3.181066E-2,2.4009164E-2,-1.1014677E-2,-4.0977594E-2,-2.8301987E-3,-3.1236991E-2,-7.385117E-2],"categories":[],"categories_nodes":[],"categories_segments":[],"categories_sizes":[],"default_left":[0,0,0,0,0,0,0,0,0,0,0,0,0,0,0,0,0,0,0,0,0,0,0,0,0,0,0,0,0,0,0,0,0,0,0,0,0,0,0,0,0,0,0,0,0,0,0,0,0,0,0,0,0,0,0],"id":30,"left_children":[1,3,5,7,9,11,13,15,17,19,21,23,25,27,29,-1,-1,31,33,35,37,-1,39,41,43,45,47,49,-1,51,53,-1,-1,-1,-1,-1,-1,-1,-1,-1,-1,-1,-1,-1,-1,-1,-1,-1,-1,-1,-1,-1,-1,-1,-1],"loss_changes":[2.7253859E1,2.808847E1,2.2267979E1,1.7120596E1,2.357329E1,2.4849873E1,1.7734392E1,6.4343195E0,6.2506943E0,2.3940052E1,3.0167904E0,1.5592171E1,3.468341E1,6.2583456E0,2.958456E0,0E0,0E0,2.1177888E0,2.8399582E0,1.9929754E1,2.2990986E1,0E0,9.370041E-1,2.273132E1,2.3158447E1,1.7653496E1,4.8861036E0,5.38805E-1,0E0,1.5447618E0,7.455349E-1,0E0,0E0,0E0,0E0,0E0,0E0,0E0,0E0,0E0,0E0,0E0,0E0,0E0,0E0,0E0,0E0,0E0,0E0,0E0,0E0,0E0,0E0,0E0,0E0],"parents":[2147483647,0,0,1,1,2,2,3,3,4,4,5,5,6,6,7,7,8,8,9,9,10,10,11,11,12,12,13,13,14,14,17,17,18,18,19,19,20,20,22,22,23,23,24,24,25,25,26,26,27,27,29,29,30,30],"right_children":[2,4,6,8,10,12,14,16,18,20,22,24,26,28,30,-1,-1,32,34,36,38,-1,40,42,44,46,48,50,-1,52,54,-1,-1,-1,-1,-1,-1,-1,-1,-1,-1,-1,-1,-1,-1,-1,-1,-1,-1,-1,-1,-1,-1,-1,-1],"split_conditions":[2.2736667E-1,8.1E0,1.8130953E1,6E0,3.25E1,1.03E1,1.67E1,1.09E1,8E0,3.37E0,3.34E1,2.7E1,5.4E-1,1.52E1,1.04E1,-1.0301376E-2,1.3575278E-1,5.9E0,6.07E0,2.13E1,1.13E1,-1.0210484E-1,7.9E0,2.66E-1,2.27E1,1.33E1,1.6930693E1,1.06E1,1.3160872E-1,8.3E0,7.4E0,1.9067932E-2,-2.2656247E-2,-4.208385E-2,-7.980517E-2,1.2600446E-1,2.6157653E-2,1.120351E-2,-1.9083224E-2,-5.546778E-2,-1.0964966E-2,2.755577E-3,4.5071073E-2,-7.085029E-2,3.2096703E-2,1.8886164E-1,4.3023434E-2,-3.61238E-2,3.181066E-2,2.4009164E-2,-1.1014677E-2,-4.0977594E-2,-2.8301987E-3,-3.1236991E-2,-7.385117E-2],"split_indices":[12,2,6,7,0,1,0,0,7,5,0,0,10,0,1,0,0,1,5,0,7,0,1,9,2,2,6,1,0,1,2,0,0,0,0,0,0,0,0,0,0,0,0,0,0,0,0,0,0,0,0,0,0,0,0],"split_type":[0,0,0,0,0,0,0,0,0,0,0,0,0,0,0,0,0,0,0,0,0,0,0,0,0,0,0,0,0,0,0,0,0,0,0,0,0,0,0,0,0,0,0,0,0,0,0,0,0,0,0,0,0,0,0],"sum_hessian":[5.69E2,3.77E2,1.92E2,5.5E1,3.22E2,1.68E2,2.4E1,2E0,5.3E1,3.13E2,9E0,1.48E2,2E1,4E0,2E1,1E0,1E0,1.7E1,3.6E1,4.1E1,2.72E2,4E0,5E0,1.28E2,2E1,1E1,1E1,3E0,1E0,1E1,1E1,3E0,1.4E1,2.8E1,8E0,5E0,3.6E1,1.76E2,9.6E1,2E0,3E0,5.7E1,7.1E1,1E1,1E1,6E0,4E0,3E0,7E0,2E0,1E0,4E0,6E0,4E0,6E0],"tree_param":{"num_deleted":"0","num_feature":"16","num_nodes":"55","size_leaf_vector":"1"}},{"base_weights":[4.703138E-3,3.4788024E-1,-1.2761745E-1,2.594836E-1,2.2429094E0,6.5628183E-3,-6.7260027E-1,1.3576953E-1,2.0930462E-1,3.3894088E0,-4.1555944E-1,2.873055E-1,-2.6272586E-1,5.055878E-1,-8.068042E-1,2.7749646E-1,-1.2428826E0,-3.936386E-3,2.1380626E-1,2.3892974E-2,-5.5059936E-2,1.687564E-1,1.3024797E0,-9.6263444E-1,-8.199938E-2,-2.686441E-2,1.19130135E-1,-1.6619983E0,-6.144763E-1,-6.035191E-3,2.6330331E-2,-8.4435634E-2,-4.2769117E-3,4.579884E-3,6.7512624E-2,1.5430576E-2,1.3391021E-1,-9.037275E-2,-3.2268725E-2,-3.5812397E-2,1.2858882E-2,-3.3611394E-2,1.5014737E-2,-3.3421766E-2,-9.4661176E-2,-4.288406E-3,-4.061523E-2],"categories":[],"categories_nodes":[],"categories_segments":[],"categories_sizes":[],"default_left":[0,0,0,0,0,0,0,0,0,0,0,0,0,0,0,0,0,0,0,0,0,0,0,0,0,0,0,0,0,0,0,0,0,0,0,0,0,0,0,0,0,0,0,0,0,0,0],"id":31,"left_children":[1,3,5,7,9,11,13,-1,15,17,19,21,23,25,27,29,31,-1,-1,-1,-1,33,35,37,39,41,-1,43,45,-1,-1,-1,-1,-1,-1,-1,-1,-1,-1,-1,-1,-1,-1,-1,-1,-1,-1],"loss_changes":[2.6109388E1,2.622028E1,3.0351677E1,1.8409832E1,2.274403E1,2.5326157E1,1.3373543E1,0E0,1.5397043E1,1.57129135E1,2.3639073E0,1.951727E1,2.1551197E1,9.058794E0,1.1150089E1,1.4546141E1,3.4674034E0,0E0,0E0,0E0,0E0,1.3368402E1,2.2417387E1,8.214489E0,2.9655989E1,1.8909589E0,0E0,1.7210808E0,6.415123E0,0E0,0E0,0E0,0E0,0E0,0E0,0E0,0E0,0E0,0E0,0E0,0E0,0E0,0E0,0E0,0E0,0E0,0E0],"parents":[2147483647,0,0,1,1,2,2,3,3,4,4,5,5,6,6,8,8,9,9,10,10,11,11,12,12,13,13,14,14,15,15,16,16,21,21,22,22,23,23,24,24,25,25,27,27,28,28],"right_children":[2,4,6,8,10,12,14,-1,16,18,20,22,24,26,28,30,32,-1,-1,-1,-1,34,36,38,40,42,-1,44,46,-1,-1,-1,-1,-1,-1,-1,-1,-1,-1,-1,-1,-1,-1,-1,-1,-1,-1],"split_conditions":[3.9E0,3.88E0,1.15E1,5.38E1,2.46E1,1.6742022E1,1.07E1,1.3576953E-1,2.82E1,9.4E0,2.58E1,2.8E-1,4.37E0,2.13E1,1.27E1,2.51E1,2.64E0,-3.936386E-3,2.1380626E-1,2.3892974E-2,-5.5059936E-2,1.62E1,4.28E0,1.21E1,2.48E-1,4.62E0,1.19130135E-1,1.17E1,2.72E-1,-6.035191E-3,2.6330331E-2,-8.4435634E-2,-4.2769117E-3,4.579884E-3,6.7512624E-2,1.5430576E-2,1.3391021E-1,-9.037275E-2,-3.2268725E-2,-3.5812397E-2,1.2858882E-2,-3.3611394E-2,1.5014737E-2,-3.3421766E-2,-9.4661176E-2,-4.288406E-3,-4.061523E-2],"split_indices":[4,4,7,8,0,6,2,0,2,7,0,9,4,0,2,0,4,0,0,0,0,11,4,2,9,4,0,7,9,0,0,0,0,0,0,0,0,0,0,0,0,0,0,0,0,0,0],"split_type":[0,0,0,0,0,0,0,0,0,0,0,0,0,0,0,0,0,0,0,0,0,0,0,0,0,0,0,0,0,0,0,0,0,0,0,0,0,0,0,0,0,0,0,0,0,0,0],"sum_hessian":[5.73E2,1.59E2,4.14E2,1.53E2,6E0,3.33E2,8.1E1,2E0,1.51E2,4E0,2E0,1.63E2,1.7E2,8E0,7.3E1,1.45E2,6E0,1E0,3E0,1E0,1E0,1.47E2,1.6E1,3.4E1,1.36E2,7E0,1E0,1.2E1,6.1E1,5.6E1,8.9E1,4E0,2E0,1.39E2,8E0,1E1,6E0,8E0,2.6E1,4.7E1,8.9E1,2E0,5E0,3E0,9E0,1.7E1,4.4E1],"tree_param":{"num_deleted":"0","num_feature":"16","num_nodes":"47","size_leaf_vector":"1"}},{"base_weights":[3.8444832E-2,4.1177672E-1,-9.968147E-2,9.8784894E-1,2.1264707E-1,-4.1923243E-1,4.5509547E-2,3.0040073E-1,2.1448743E0,-3.4934945E-2,6.5916806E-1,-3.6166024E-1,-1.0423844E-1,1.04384996E-1,-1.0721692E0,4.816484E-1,-5.209196E-1,4.3718047E0,8.1692183E-1,-1.0301569E-1,1.2167197E-1,3.6501518E-1,2.645235E0,-1.0142924E0,-2.1735075E-1,-4.7419835E-2,5.1196486E-1,-5.078347E-1,-1.563956E0,2.8206712E-2,-2.92017E-2,-3.1997856E-2,-1.1412112E-2,2.4131463E-1,6.384635E-2,1.2185923E-1,5.360401E-3,1.3406536E-3,-2.7954608E-2,-6.6681057E-3,4.3540075E-2,1.6531642E-1,2.155304E-5,-5.7993967E-2,1.4719232E-2,1.6832171E-2,-2.2102108E-2,1.8620936E-2,-1.2371904E-2,5.754968E-2,-1.1804826E-2,-4.512798E-2,-1.1291656E-2,-9.521171E-2,-2.3775356E-2],"categories":[],"categories_nodes":[],"categories_segments":[],"categories_sizes":[],"default_left":[0,0,0,0,0,0,0,0,0,0,0,0,0,0,0,0,0,0,0,0,0,0,0,0,0,0,0,0,0,0,0,0,0,0,0,0,0,0,0,0,0,0,0,0,0,0,0,0,0,0,0,0,0,0,0],"id":32,"left_children":[1,3,5,7,9,11,13,15,17,19,21,23,-1,25,27,29,31,33,35,37,-1,39,41,43,45,47,49,51,53,-1,-1,-1,-1,-1,-1,-1,-1,-1,-1,-1,-1,-1,-1,-1,-1,-1,-1,-1,-1,-1,-1,-1,-1,-1,-1],"loss_changes":[2.8454437E1,1.6882183E1,1.8716637E1,2.9580688E1,1.240469E1,1.132798E1,1.8405386E1,3.97246E0,3.7830193E1,1.2518241E1,2.2402744E1,1.1363808E1,0E0,1.6420513E1,3.091219E0,2.1754508E0,2.8132796E-2,8.701019E-1,1.1237942E1,4.278244E0,0E0,9.19074E0,8.740883E0,4.5330296E0,1.2845541E1,1.6383375E1,3.46901E1,6.866765E-1,1.687151E0,0E0,0E0,0E0,0E0,0E0,0E0,0E0,0E0,0E0,0E0,0E0,0E0,0E0,0E0,0E0,0E0,0E0,0E0,0E0,0E0,0E0,0E0,0E0,0E0,0E0,0E0],"parents":[2147483647,0,0,1,1,2,2,3,3,4,4,5,5,6,6,7,7,8,8,9,9,10,10,11,11,13,13,14,14,15,15,16,16,17,17,18,18,19,19,21,21,22,22,23,23,24,24,25,25,26,26,27,27,28,28],"right_children":[2,4,6,8,10,12,14,16,18,20,22,24,-1,26,28,30,32,34,36,38,-1,40,42,44,46,48,50,52,54,-1,-1,-1,-1,-1,-1,-1,-1,-1,-1,-1,-1,-1,-1,-1,-1,-1,-1,-1,-1,-1,-1,-1,-1,-1,-1],"split_conditions":[1.594758E1,3.26E0,3.1493333E-1,3.47E0,4.26E0,6.87E1,1.32E1,3.23E1,3.62E0,5.03E0,2.83E-1,5.83E1,-1.0423844E-1,9.6E0,1.51E1,3.42E0,4.6E0,8.3E0,3.4E0,4.17E0,1.2167197E-1,2.58E-1,2.09E1,2.71E1,6.03E1,3.99E0,1.5E1,1.45E1,1.42E1,2.8206712E-2,-2.92017E-2,-3.1997856E-2,-1.1412112E-2,2.4131463E-1,6.384635E-2,1.2185923E-1,5.360401E-3,1.3406536E-3,-2.7954608E-2,-6.6681057E-3,4.3540075E-2,1.6531642E-1,2.155304E-5,-5.7993967E-2,1.4719232E-2,1.6832171E-2,-2.2102108E-2,1.8620936E-2,-1.2371904E-2,5.754968E-2,-1.1804826E-2,-4.512798E-2,-1.1291656E-2,-9.521171E-2,-2.3775356E-2],"split_indices":[6,5,14,4,5,8,1,0,3,4,9,8,0,1,11,4,1,1,1,4,0,9,0,0,8,4,11,11,1,0,0,0,0,0,0,0,0,0,0,0,0,0,0,0,0,0,0,0,0,0,0,0,0,0,0],"split_type":[0,0,0,0,0,0,0,0,0,0,0,0,0,0,0,0,0,0,0,0,0,0,0,0,0,0,0,0,0,0,0,0,0,0,0,0,0,0,0,0,0,0,0,0,0,0,0,0,0,0,0,0,0,0,0],"sum_hessian":[5.5E2,1.48E2,4.02E2,3.7E1,1.11E2,1.25E2,2.77E2,2.4E1,1.3E1,7.2E1,3.9E1,1.22E2,3E0,2.64E2,1.3E1,2E1,4E0,4E0,9E0,7.1E1,1E0,3.5E1,4E0,2.1E1,1.01E2,1.93E2,7.1E1,7E0,6E0,1.9E1,1E0,2E0,2E0,3E0,1E0,2E0,7E0,5.6E1,1.5E1,1.8E1,1.7E1,3E0,1E0,1.9E1,2E0,2.9E1,7.2E1,6.2E1,1.31E2,3.8E1,3.3E1,2E0,5E0,4E0,2E0],